1.7364265564170795,0.9483012599790068,0.5232487623635336,-0.2789545499580733,0.821532915464997,-0.4244446826150513,0.13774048266831962,1.062721854700604,0.44939180350891395,0.2647276285746299,1.0306274673662417,0.4159067979862287,-0.9297773087054373,-0.5696374534749756,0.8968540275926878,0.3566045137786691,-0.6515573859851005,1.198906109985118,1.7667335122112449,-0.6329328516636586,-0.40708505303889553,-1.142391172036937,0.011565558147602854,0.17662341655524247,-1.5506024403309202,-1.973101505636796,-0.3626768849354392,-0.3269747773692161,1.1240092581053698,-1.5883551720182245,-1.008656905053966,0.07428672257642317,0.5944055062526414,-2.2145734999078024,-1.0010171850851586,0.6573149101330376,0.11934292998706769,1.8931952170184945,-1.858540196767453,-0.5860409032958167,0.4816304131894245,-1.137722028415571,0.19343934156519088,-0.950536129726123,-0.9473077926277346,0.941755667254331,0.6382329038307376,1.5601811284022131,0.1699171603837158,-0.8744254504044019
-0.09370634186522003,-1.5067994882198508,-0.6646327560108033,-1.4932010147830315,-0.4635048822069838,-0.8321116836050391,-0.2903726657496868,-1.6343463638650628,1.4424141671173698,0.25571064970426577,1.1799696126814279,0.6812460804578301,1.3815212729266428,0.7744906752678841,0.05711807883857707,0.7444648606159913,0.1866211053111272,1.218021405375914,-1.7028361883731484,0.5279636054054831,-0.26815279323904145,-1.92912862531359,0.43208698743425183,0.6623094803240738,1.1915287224923439,0.26102966424188934,0.07306056821816284,-1.700648770234249,-1.162403891759883,-0.5828073122224173,0.5583233048453724,-0.0018975467499651505,-0.46522044474671365,1.1662071112776078,0.773698900354909,-0.06523580616841142,-1.3774209063457306,-0.8705196844062255,-0.7527065869568313,0.9526480837690142,0.19494591189972996,0.0923413979136862,0.020955801739074784,-1.2180928078663127,-0.23748034497392617,0.4192187589869357,-0.2207116998419448,0.9029408518397359,0.8601415306741039,0.6045133053799244
1.2525364764869011,-0.6024223999670396,-0.7579353580911236,-1.8725608084665,-0.12521865301770652,0.3953132255699203,-2.066068569554026,-0.05657979490930141,-1.9772177614760265,0.540597061262744,1.8901553830644926,1.2390300048518956,-1.1434969946842202,0.22534951419613056,-1.652448116376852,-1.7750182061347257,-1.1509350586300875,-0.7563888432599264,-1.6013705577743378,1.2824451936739503,-0.7560136156890336,0.8941844347114188,-2.2586091907323556,1.7026876485487734,0.7567430160637957,-1.6010958100402999,-0.41334903382701044,0.28119045374798973,-1.117038660876442,0.04148204695487073,-0.0727632291147057,0.9370352697525413,-0.6863325447669262,-0.7957013837491246,0.2872145398562476,0.37617269101524564,0.0984030056550719,0.9654751575877445,1.3835349045633278,0.2736101358493354,-1.253924883833324,-1.1058366502053238,-0.2921434375450037,-0.4667287427223864,0.4064448866943525,1.778267637566292,0.12031974889043598,1.4160895945071537,-0.3496844810802807,-0.7867488337780865
1.5138347823762026,1.3287701868374848,2.1313178474416166,-2.1771833209339384,1.5449690533301348,-1.4158555646679176,-0.9007512201768378,-1.7058779380771676,2.125772050249734,-1.2361898086962482,0.06613449242281637,1.5181526123519151,1.6659257304766382,-1.0721789695765978,-0.4049481235022432,-0.9761106144918662,0.5120464356629033,1.119140944544752,0.5192532566189474,-0.07623832939701784,-0.588659416273779,-0.7508644670735463,0.8759826548224053,-1.1136553977752073,-0.5801064695259309,-1.091878727418632,0.32597019674510225,-0.2928182871745445,0.21903532190540553,0.5683754635369835,1.0591970979823562,-1.171918614137429,-0.7527338629802599,-0.7780028703865419,-0.23816634589011035,-0.4506250263725364,-0.5095970201825072,-0.575004886146203,-0.05734219868472129,1.0021471447512067,-0.9348644059442958,-1.0674707799287524,0.0026929353393726767,1.5629691772643866,0.3499277304743179,0.1576262610349165,0.08180230620661237,0.053085221131521206,-0.986409027645901,0.6685672027250019
-1.3899617392991952,-0.5425446330649758,-0.6388037693351288,-1.659061001442307,0.2675615495421359,0.6273149701916606,1.0273308208206242,0.9335246228438554,-1.023603547266818,0.03320142679742753,-0.1152990698845389,-1.3397371223265042,0.08838415824024357,2.5689785845593187,-0.5737527128864964,-2.328258058850018,-0.13353455927484417,-0.17872168687452156,0.007111459586329539,-1.8311341239173933,0.06447129301761788,-1.3140385862003852,-1.0131153394527077,0.21017847174943435,-0.40856839189376537,0.7883210930225043,-0.9491564686501012,-0.7622777977231905,0.29510648441395776,0.3010332145063776,0.8385108343613447,1.2008230331251373,-1.225835201654878,-1.2236580935024823,0.24922063072145628,-0.5906729904675695,2.3200756217018,1.4542248527510462,1.742547159321779,-0.3775687665242599,0.9640535037395159,-0.5915385824793264,-0.7224496271279218,-0.8308276162743252,-0.06365915530436388,-0.6085843587424062,-1.1911899388929392,-1.1846304927530753,0.30963479032063423,-0.7685628803873081
1.4878126635707107,-0.04152699637693733,0.5922703903468736,2.276752236994041,1.0259812163754627,-1.2237946726544509,-1.6014379526855613,0.5397303910643327,1.4279122767865327,1.2542018772711248,1.2119817479974901,-0.5721232042169009,-0.4464312269496747,0.45824276167768097,-1.5597705766616579,0.4460440558223864,-0.2357541459754954,-1.788009274704732,0.7309197432953599,-1.0174681669522159,1.523448367637557,-1.1603767080459384,-1.781348827772065,-0.9256944091001172,-0.23051086350253036,-1.322827263100579,-2.002601478732626,0.13207625588303976,0.9844476455160651,0.8188207685241256,0.018004948802009545,0.07531450700342354,0.7834308554089898,0.4515070976260181,2.2337903496311773,2.195787782896847,0.5419765152212433,-0.3535260336165795,1.9488942310894535,-0.2267481967817335,-0.37549515974031966,0.23483294575428845,1.6145262121567445,1.3103437426855324,0.3350924974806506,-1.4589570271013883,-0.13862713205688698,-0.43117964015194427,-0.7044140977458139,-0.9175255974575922
1.4040159607287013,1.3308002347881691,0.5249140649508118,-2.15281812198871,-0.41407316329477367,1.3395261036964417,0.5292509296718323,0.675324508349733,-0.20343826841837262,-1.0179545053528083,1.191173696963473,0.9930474365712041,0.8505670184924489,-0.11899353496895639,-1.0259805220220188,1.0337661495599872,-0.14793599835757515,-0.8562687759069617,-1.8891540737832386,-2.2588060169654014,-0.6931155787409589,1.1445229088094828,-1.5716249270534672,-0.5683714215284398,1.0574398321548324,0.1560033682316578,-0.4786787801207582,-0.8534016465592223,1.0599453463375759,-0.18657755212262794,-0.10583595670776368,0.8594299970538984,0.03640942167186944,0.009387917105931889,-0.2290903906179787,-0.6511748673392586,1.1801769832108473,-2.5309954555044065,-0.8489154959583763,0.6162032032173568,-1.0385783367163683,0.8435738670641002,-0.9633792583612204,-1.0251404029542879,-0.808754524523485,0.7913195042027655,-0.46924247144959547,2.3710515518966924,1.0988818572985726,1.7823536203729742
-0.8989006423618499,0.18945465347432794,0.4400156655378735,1.8572200140471022,2.0259361748288582,0.13345093335202315,0.5873951022433539,0.5265891172635739,0.17839717163256358,-0.19496618552408174,-0.552173185927448,1.0154811436585138,-1.341628092714892,1.1408535728589253,0.2363038516368363,2.450320235989716,0.8672620690486769,0.8920500718633919,0.6509732854103738,-2.174618737547045,0.18628351253344402,2.619677591070512,1.2861429398427027,0.7811556916860927,1.7041597788841645,1.8596408967971265,-0.8366551903867816,2.103917995088937,1.515408385453543,0.11671097396949236,-0.3226331709182982,-1.5389422086627498,1.6388748492878495,0.5385584699497096,0.8714107262456606,-1.0124371172478166,-1.7136649261876895,1.6622653613975213,1.4417391795686532,0.3122715824462741,-0.5405257610496771,0.9444419923114871,-0.3359925737456539,-0.2847257119188031,0.6641969512872133,1.7979497700063791,-1.1005327515876173,-0.5135331586529212,0.019780743955069173,1.1427535254757852
0.1471052438096242,-0.0010600546063981014,0.12106314533670015,-0.5275915847485146,-0.7334392504501281,-1.242860212733601,0.6495196148420921,0.3295252176450372,-0.33348418364883403,-1.1678268703256822,-0.05699632111912768,0.026041715998761986,-0.7019172144610594,-0.7860274449280296,-0.912350637756286,2.006201512565676,0.5208459831800571,-0.15276082651490408,-0.6171923532229641,0.4759379977172259,1.8433907767886393,-0.479999554192745,0.3807477498414892,0.440089482843368,0.9929080246077397,-0.7081911266711381,0.9326088455880758,0.5324304984441185,0.9957329012898439,-0.060027170837532874,-1.1971919456448217,-0.9400444036760509,0.2623280491484633,-0.4379692311754431,-0.9551125786315028,-1.7432560194311788,0.5207798030043329,-0.5652627628179551,1.1322285894162616,-0.29889252704667085,-0.9520337604553916,0.9746204329460447,-1.8375635635577274,0.4978082908538273,-2.367717941570197,0.6209712419101242,-0.5632485581587967,-0.76042028336213,0.5136228673675004,0.4954560431434608
-0.21759156955802272,-0.24388071807420075,1.4758391991080806,0.3665067300985457,-0.31868862888257893,1.2577580581784864,1.9035750803626226,-0.454504636292857,0.17461464443296273,-1.3707628866942012,-0.8792522992386472,0.22484312740622048,-0.16903665119406164,-0.8752698887587052,-1.5668720016370923,-0.5431950987740488,0.5110367663291744,0.5777619723664693,-1.23049484963358,1.1954327535769966,0.4463424821043975,-0.18914538969764286,-0.24709952359304557,0.12911774302060625,-0.41952917770198694,0.3425769900533437,0.35520804578784965,-0.11469501694507303,1.1662870106274323,1.3938940878397652,1.0849042354171192,-0.28679004490197424,-1.1455228003780498,0.12653660866375857,0.5534988198588138,0.07322493530811756,-0.321083368219671,-1.4129028926915501,-1.7835884960631376,1.2578462390028018,-1.0429601352243512,1.2549710339853442,0.20179053584877574,-0.4763932110923946,0.8902205415197469,-0.9066633880672076,0.2849933432385646,-1.156838957306901,0.7549084796329204,2.0608928926643335
-0.9512732943902834,1.7783405708542852,0.481451569189552,-0.6883165475480367,0.25119859607165984,-0.33789794200553586,-1.538285346883687,0.872048490448944,-0.563611252170713,-1.0227460185509467,0.3773422254553448,-0.3691893268690681,-1.5886586825171325,-0.3254598526433214,0.8402742695224464,0.05739254973952838,0.16340603113633967,0.4855639260275447,1.395491585222049,1.3577621028451707,-0.6775948658425114,0.7435885744832599,0.09702323326852859,0.9201396414587263,-0.4022436222356439,-1.8262379564457139,1.7093782632564374,0.5492636109951586,0.17320960094519103,-0.11953561971719316,1.3927564978791094,0.27310643337666296,0.28074693503502385,-0.41819339953908646,0.6837473975170487,0.8325379441193789,-1.4808482338352114,0.05176260364794124,-1.3700686778487914,-1.471211700047906,1.099900518650423,-0.7413757777759433,-0.10727944118061516,0.9356671654493081,0.8757406799669282,0.9784649181722934,0.44033731239609025,0.05627412482933634,0.07064079835773307,2.7444509201710416
-1.4760478118070848,-0.9302222827924981,1.3861796118257717,-0.4491342199228074,-0.17921497570080486,0.5304877635183325,0.1909890941965429,1.2602847051777057,0.33832639960566474,-0.8121335668653266,0.044604081678105756,-0.21050130490820765,-0.19212702000895523,-0.07856122255221977,0.11527890778765816,-1.3600771406226815,-2.731250481832293,-0.0761160133585504,0.16630252174739135,0.5886279062200569,-1.2297290596696728,-2.2596643952595254,-0.1433345523921004,-0.40607151067707714,-2.650983294041498,-0.6421343697796428,1.019577964705824,0.38418300834523805,0.6780760920432564,0.39873496241160183,-0.08361559820652718,-0.7177314223861361,1.4169818575755795,-1.123761852233964,-2.0937460778380728,0.4143650040901654,0.4280063293695081,0.010571438996338499,-0.764089963872586,-0.42489253688349543,2.130635394335957,0.8392376444733411,-0.685283406321683,-3.5231409890210847,1.0615423502099632,-0.4127581775382708,0.11903745830222205,-0.48732586293640334,-1.3367060468031864,-0.5148667030689553
-0.5798653401859648,2.4720133396500934,-0.7807850004038366,-1.1568099002980625,-2.081392740290958,0.06394416621120289,-1.477547422785734,0.9373891578239381,-0.9995323648294895,0.21763092256641486,-0.18765777328926972,-0.8501728796702711,-1.7194546088601796,1.3696826707340306,1.0835789237814346,-0.553864820631661,-1.5734556610891266,0.11380681851496267,0.5637582035960118,-1.2514862251682608,-0.21895865240997792,0.12873377317987325,-1.579735567576623,-1.006378027420998,-1.276266722325765,1.0876669912374433,-0.3527157325147915,0.2909275521500033,-0.1275401227590784,-1.2406413118815522,0.005116269573057218,2.6186425948984096,0.9872703752252852,0.8288570011133338,0.6051890826564681,0.6148854034606348,0.3763090799514386,0.2654517273137542,-0.8038483394123851,0.5740227338466599,0.809106137039463,-1.425612317419804,-0.24432201066763903,-0.41307146678991974,0.4374376111451627,-0.21640161743195893,0.3054155246270635,-0.9789094927391623,1.4924703796616932,0.57561138846655
-0.3386892666442759,0.5494217740265734,-1.4374969973488416,-0.02218843408430874,1.1193814282718897,-0.5338589987001469,0.8175576810125122,0.12127400660665012,1.1354658778111912,0.06808642253119862,-0.6233706915402306,-0.016786462620064713,-0.6255251071509994,0.45212563022989455,1.9703458486399714,-0.6801254574926476,-1.1356409901771725,0.16254799416995797,1.0935869462316705,-0.11809512253645674,0.1408210112735884,1.0574245596594014,0.5309916688180473,1.7538645054471262,-1.6258713738884656,0.6683405621837262,-1.3318096461639697,1.726922887053222,0.5487914370788899,0.4119932012786862,0.14446413167210098,-0.2684238126207487,-0.5321698320731844,1.0977143597781156,-0.483774929226572,0.12068995618512642,0.18481222196768174,-0.25715976988586736,1.4175472029946687,0.5792089531857798,0.700124299776137,1.3025816107310844,0.6478866539051765,0.28167167207135785,-0.7089274049677424,0.25472245771304936,1.50993813443127,-0.5845408429992579,-0.43360884617925427,0.12540752695214563
0.9822020675034102,2.03253565762899,-0.2625773040442502,-0.8566496870988904,-0.9135490737236562,-1.5917382779095084,-1.3763590283467597,0.63585461135052,0.24188472616464407,-0.8406943928829287,0.023100189813957835,1.5615110682158064,1.3367576816420197,-0.12271841222026546,0.46670538763765484,1.3094312013923246,1.6565108086292963,-0.4535559097911027,0.37379518426868497,-0.6697004268261663,1.07648635132466,0.18059416971724015,-0.648260925927081,2.3563199833171606,-0.2265414455188138,-0.1990182405189162,0.9153937212942658,-0.9741156293474389,-0.5289680000137377,-0.3778900011020142,-0.7018687766532048,1.30172528893483,0.910977444648058,0.443295440920648,-0.15860830526595893,1.5741210257244629,-1.1970338486526713,0.12009491492092744,0.6708206611872605,-0.5638439476706252,-1.86799787507657,-1.3440664520291243,1.1228821568907141,-0.11464382138213043,-0.9641134080419432,-0.6930296035695359,-0.913224686412246,-0.7649928679912751,1.096986338276613,0.8165435939277779
-0.1752845099087429,-0.5513857284436438,-0.38066961330203203,0.29478628908647775,-0.0813838633918792,1.965439110859664,-2.4546393506079323,0.4566783916090541,0.7064425946260822,-0.46330700111463435,0.7121838528927912,1.202355659311595,0.5497528082003891,1.3869422018932136,-0.09989879650493719,-0.5750001869431727,1.1897206915165006,0.2900027147411019,-1.5642315382548817,-0.12436368643164479,2.090276451146272,-0.2686435642840182,-0.5749940326586769,-2.1300806086373845,1.1962388191709237,0.20705237531205195,0.26458354622225577,-0.12985720710679652,0.09164321521771393,0.5718440592596681,-0.8681973138141768,-0.89071445579575,-0.98192590233771,-0.06447379436158839,-2.6993420510831037,0.013422053285016932,2.2566472079634363,0.2460267843785783,-1.2880990142203506,-0.45919897618457195,0.5205919135588382,-0.32434229409734244,-0.4585665369875938,-0.11911439602073941,1.144761644653347,0.7301895780386082,-0.09102546632069379,-0.8794622986612919,-0.28453894950197084,-0.7693014884578512
0.17005733157234823,-0.8553129767225945,-0.5606751256570803,-0.9839037095178776,-0.9808241864057694,0.5757674885470643,-0.8631520400510285,-1.2719444902132504,-1.3864390800169406,-2.544755289399078,0.37419897571390043,-0.30983605080957605,0.37135756626010685,-1.2515412247774733,-0.9375219590525877,0.49711062022507924,-0.536723495224924,-1.5090612358049793,1.084993939701918,-1.1563062108454738,-0.5619306204517378,-0.9584063283530954,0.24513034917102355,0.43240834291302466,-0.2607076538126411,1.386478110305058,-1.432220762596784,1.4261626065623731,-0.46589247851703053,0.48174163337449055,0.5468843532662301,-0.32347441078669603,-0.6418672326515169,0.2566446182585017,-1.9590017789986127,0.4731140029216955,-0.6787757472632157,1.7824858628936189,-0.9412403113250614,-0.7260135802834556,-1.0965275308805265,0.43764006449044457,-0.4355895314590764,-1.5848895636160092,1.116635582439809,0.7762724701634807,-0.7857272074747642,-1.2698080640104012,2.1347029357548477,-1.2796265358544274
-0.8761172052583484,-0.9377706123757129,-0.5710252967039854,-0.126045762861814,0.1876980800460138,-0.8287778167548712,-0.877197405942159,-0.18533339719810601,-0.21113961977363094,0.9734564957555457,0.4587220092828755,-0.633630391884596,-0.7650621899715728,0.25991296036270256,0.3341350857402976,1.0987095405065141,-0.7180431775097939,-0.14694018493486305,0.25465805808732006,0.9304594729757402,1.9976745754128247,-0.6727365373677282,-0.49173173359949096,0.3355525437566001,1.5492792187295918,0.13316700151236305,-0.8215772816407894,1.2983399500046855,0.9056820244215927,0.5562035542184218,-1.311246210133425,0.6171232247596383,-0.8773050462204761,0.17022613793479266,-1.7387763130460852,0.8914740238062906,0.648055600952863,0.14372244431187484,-1.9822020269092107,1.4596652446023686,0.4869124139628011,-1.127049503599569,1.1179438402513406,-1.0716961021240583,0.11270755943641503,-1.5483339046083955,-0.5751799385151452,-0.8172700853296196,1.3027392301651484,-0.08659437635746406
0.015193425643628453,-0.5750109371750123,-1.3878167070421634,-1.1066379348813944,1.2793263401846502,-0.9746287194485088,-0.3979543155101932,1.2190978354663742,-0.8608957267341745,-0.2488776104700426,-0.8631588771454596,-0.767313485836275,0.5721471051716751,-0.06609523080186659,0.21514370817424044,-0.10008047911188882,-0.9897248948708117,1.333185423883227,-0.24635032984563077,-0.3925734099929712,0.34214021921786636,0.21533340823423464,-0.4031481668605071,-0.6879820362980618,-0.8659102357456183,-0.2653408683000599,0.8995953909994115,0.7633794386649334,-0.8538916284349958,-0.1722835094784615,0.17026241861672686,0.8916656131350906,-1.24189950881464,-1.2787268651954082,-0.38327309790402214,-0.2872038337656288,1.6247333261539427,0.21942132672834436,0.7500287611808536,-1.1373165736966595,0.1857802936612246,-1.6178303545190658,0.11652236013285606,0.41791149167887853,-0.4678804738385165,-0.3179589029712253,0.5965550406835044,0.2219624262635489,-1.7773801696987903,0.0919358447320634
0.5391488244144884,-0.708571675937658,1.7569528055837513,1.3718230967095941,-0.003649594450631207,0.4073048431777573,-0.15424708566792106,0.08294523262449344,0.5071105205286293,-0.40785319868348996,0.0611543015096721,1.9844610791614272,-0.45670428352292697,0.559851863433944,-1.0346923495034481,0.02348734878200798,-0.43202948906307154,-0.29136028052419627,0.4648663638831914,0.32603442075205435,-0.09922340993714222,-0.26724560134576936,-0.44703897191320896,-0.4428312682564931,-0.3580426289658656,0.8540682965017263,1.6337760407163235,-0.5289358297606115,0.3905894642043968,0.3912761901142946,-2.4939490592054523,-0.9191830229489975,-0.43255402122171543,-1.630964648674527,1.8627066449307716,0.39692152888470933,-0.7871484308084312,-0.44353211798540604,0.9923982107738895,-1.970081558512735,0.012544547499208426,-1.2180365091241934,-0.4233560262173286,-0.8007812432929607,-0.49715247518054767,-1.3332039973117362,-2.396178387900396,0.46686551749597666,-0.4868773749752037,0.35458042987474303
-1.9746337139157102,-0.6760337168919635,-2.0378815489814412,0.9801079517753319,-0.5832921622948849,0.6259299775482948,0.5232808385052954,1.04608453941426,-1.3717888774861293,-0.5838983007114211,-1.0058293731495958,-0.07019099971546931,1.2216044550069645,-2.7312305691226944,0.11251139861128964,0.6054857764055763,1.6353104875532198,-0.9749199595074715,-1.13323923086047,0.038347618935048886,-0.7417138703961815,-0.33064756105123344,0.5587060740710202,0.49619190921565565,-1.5597873887864284,0.7643324561607517,-0.5845034256562578,0.881963507175706,0.1322002040225249,-2.534928037420092,0.6491606055106522,-0.7404018189922554,-0.6205430056706783,-1.8740739326501812,0.12690924405166287,-0.18145557808105392,-0.8958868677609358,-0.22171185810861524,1.54888549374262,-2.5567346391237677,0.2226169234643209,-0.013242059567668968,0.20915908626062973,0.5845816153979526,2.1690226299835262,-0.15335389273374536,1.5489578147350285,1.2814406664291196,0.18166410558281657,0.02380670463283224
0.27474865347530325,0.5776861534788124,-0.08558864726746095,0.3879191537305581,0.7701050751703585,-1.503961180082219,-0.3722226033203391,-1.2009678539478632,0.9267771471954518,-0.23272589883346279,0.36751209901310605,-0.7519151616748816,0.4198467713707459,0.07389811985301321,-0.8893857612216528,0.42781851799358833,-0.1354246924957841,1.5509516436732596,-0.09982483634795578,0.6031088476294183,-0.5860411243244017,0.18846873196434727,1.0684782839963443,-0.7518406756537683,-1.3248213351143647,-1.3156022613179805,0.06147174526875396,-0.31911513638208255,1.0396379635829136,-0.2250120248625076,-0.23081112369983217,-0.13530771127651658,-1.3763241545905935,0.09643705200879701,0.25652473127726,-1.5239145407996009,-0.9962815882832312,-0.0973542351364637,1.138409672788564,-0.30441565220232586,-0.627935865606219,-0.26810124078715697,0.1388929942491807,-0.08624796506063756,0.3101210912506178,0.8422370813134312,-1.4696503779591241,-0.7418418763498991,-0.9829143104675298,-0.678839803266866
1.6376234082253478,0.8592093575122451,0.2627058900546026,1.4483507052278937,-0.2409625959100101,0.3414058842473891,-1.5300016872598476,-0.8384384795053493,-1.3417082964921003,-1.960909653508067,-0.9073913961520836,0.6442339823760643,1.2998673597132246,1.3895141689717632,1.2383435833938785,-0.2675716200407588,-0.5245301907111969,0.1462907476918656,-0.36082510877814866,1.1775794513786713,-0.4989380304384179,-0.4531714608491828,-0.8417515126907074,0.11600775073382166,0.975504287483134,0.14460887147397747,0.3769884418486223,0.263291801176763,0.7644742534973791,-0.24520200598712252,-0.19330139211146088,-0.279312701990241,-0.1768566124068214,0.3021746196386672,0.20788297499558633,1.09628649324359,-0.9001870620528443,1.3888413163201805,1.3207053779828035,0.5388003367324185,0.029886163495177438,-0.1678088721480866,-0.11260634180452846,-0.14628596935221766,-0.5845696900826048,0.7322998537039025,-0.1455524841800264,0.7742083801620404,1.0502579713122928,-0.7935825788224907
0.254717062832129,0.6339297635135099,-0.7600358209064091,-1.3229525366287749,0.026208563125026403,-1.0379173963532893,-2.101977008795193,1.0879394485705833,-0.49246363679365784,-0.7825085209938777,0.49797568686229887,0.5602049942945249,-0.5927418714779364,-1.020608274364446,0.8627883211764964,-0.10032206045715485,0.959905908076282,0.5253514756681732,0.15994139404209362,-0.7804271954839346,0.4039853439409262,0.17773290906530007,0.49948425692089415,-1.5587254273450197,0.880396855814405,-0.012878861861022555,-2.060259824323939,0.9602490429863516,1.1656758207073028,-1.5737495282503193,0.08551110517162279,-0.23781428037017432,-2.3261001136225326,-1.8548645504542804,1.9161503029445626,0.23779470281292694,-0.39218659232260716,0.33198526074104273,0.07791493639304986,0.3496448632053652,0.22857267351737995,1.1016033580910882,0.42001552933366365,-1.4827592700325407,1.3157271781786106,0.18281884301877535,0.39497712148516956,0.738109269096152,0.5499756335833667,0.365117174029819
-0.6894625149447304,1.515374437209527,-0.4336107181062241,0.7930405822745946,-1.6672443603996256,0.9472080472179384,1.9990495625221425,-0.4663855258206479,0.4165452784061549,-0.15080112040772434,-1.0874997958445334,-0.793974116413801,-0.2505898561341172,0.11749235243143044,-1.1539969132574357,-0.2893695968856827,-1.319837492940552,-1.2423192634426583,0.15949508287729927,0.5654489190312157,0.13504550120691577,-0.6422059560192546,2.4916653369279165,-0.14099955105258574,-1.1010310624880677,0.2125368767065701,-0.9717516785451699,-0.7130724764822481,-0.5892841126431673,-1.6760114293991555,0.2359323010768384,0.14856628459969615,0.1375956447880839,-1.0858293284877454,-0.9814997060047498,-0.2306299217352251,1.397814683323647,0.35405302472686895,1.3155403019508178,-0.5127850225637407,1.1790982641261023,1.2632953896206736,-0.9250117462994463,-1.2537067267808413,-1.0786557815385072,2.821354332538482,-0.7000373760935833,0.6115325706934899,-0.6151759372093893,-1.203303957718143
1.6837524334015554,-0.17495734150540185,-1.146881636467347,-1.1155592059358868,-1.2963550659575958,-0.07714096511594329,0.06887224361822114,0.658215600278444,-1.2755093768928012,0.11285359808399871,-0.9636754925695779,1.4795671032372346,-0.623126267149463,1.2458888650049877,-0.4934408243460296,1.802702546097733,0.16747120918220276,-0.09335568740175386,-1.4346273329405,-0.16590282716339738,1.4936328290162197,-0.566878844417904,-0.0609868836371962,-0.8018828406307307,0.21252977947946536,-0.5655332316353083,-0.502160851886907,1.4099893933681413,-0.3807153276026858,0.9709930184166267,0.8601035857882029,-0.4052865116318087,0.9126308743715383,-0.24272157719030402,-0.9388383728499453,0.9855983926033713,-1.4943635223136391,-0.9289255726082711,-0.3887352197767359,-0.13189613644597878,-0.4623507447693446,-0.3129427399660764,-1.9676103414925756,0.14442198039212134,-0.6875000091756074,-0.6605515642898275,-0.3011358636964074,-0.4274513348426973,-0.3702233870801927,0.7863839979354112
-0.17266246225646498,0.21216812439946645,-0.3655714363018001,0.386714325422064,1.8763776095648497,1.3821544102693115,0.5685082919037406,0.47061061963295214,0.5406296039194946,-0.15063166027129313,-0.7593745127072159,0.7335140789989816,-0.44760206212616255,-1.1043588100649366,-0.10241238682707943,-1.0348472365603705,0.5055561035871593,-0.22896037082434864,-0.7833552330639177,-0.5009163921544795,0.2653897493510397,0.16612725498592743,1.3197668726376255,0.3147579404177749,-1.4040610152016118,-0.8264129637059905,-0.03523688598067851,-0.7297140616365212,1.0878886521629547,0.3633636504211775,-0.42056881202226226,-0.5294114494436543,0.7400187017778527,1.3289584330264934,-0.5699987300862492,0.6138318342172642,0.6048747679066727,-0.5475660504431241,-1.4594865230053602,0.39336423026173517,0.6460581483187453,0.8576262702557569,1.1108936550588022,0.24198749874581738,-0.5602052366040688,-0.36220042908603495,0.25551458060708043,-0.5216407578318101,1.0683393409100475,-0.88049475377717
1.1957466002360746,0.2509490552538671,-0.31167790738215845,0.7841847747540001,-0.05699898875646704,0.257851968215389,-1.4282065438180778,0.12154885591740451,-1.083842100088193,1.0523239659770136,-1.2434034467166162,-0.9246206030735373,-0.06498741934204871,0.5231819999673526,1.7388827942217768,0.8175609230648199,-0.5900307350481792,-0.1704752763747105,-0.10715810859369969,0.10080410893438493,-0.6986835263431543,0.4785515944243994,-1.1267206278207222,0.6192596212806089,-0.46451267609324853,0.4979981427881109,1.0571756419339198,2.2306961733359203,0.13069563621282876,0.6103638879559122,0.4502683647683495,-0.050979012776654,0.37365701310107136,0.9713817286893339,0.055014133419192486,-0.7864571867703726,1.3756522016900279,-1.5420239668967677,-1.2447133508664086,0.3173051179512439,0.11298745691096541,-0.8893005459173844,0.004921578163514523,-1.100416258809525,0.6545666111433721,-2.245023880191988,-0.09833646004041775,-0.5974352835744192,1.4385506132184172,-0.21683479502066047
1.1947997600278917,0.8568889323151455,0.2316090051725386,1.186408857449139,0.0686550238997191,-1.0997064575697224,1.3791165786792179,-0.49536858050578697,-0.49728898389473325,0.7799081187803087,-1.0942175966141128,-0.5028225405465954,-0.9953983390457598,0.05504554365203208,-0.18200123594340217,0.9788757016953141,1.0330350798678167,0.32900747679982645,-0.15735100167684982,0.3028628984594476,1.0358244192161203,-1.040276883511288,-0.7651587579779989,0.47141420047915206,-0.4010697190161461,1.0280890756595198,0.10860346856037346,-1.6775760405243527,-1.8577941755718403,0.9328115710514424,-0.7852321803284723,-1.0540561483005655,-1.506812835949445,-0.5449514914433043,-0.40452345515516586,-0.49622828069144304,0.7910128201027602,0.1973788803969395,-0.6332805440478255,-0.1661013050193242,-0.014108348076590232,-0.13284540181093613,1.0404434922360128,0.8028644430162574,0.3588328187560947,-0.5046665222225786,1.0123198412432042,1.4365650381271002,-1.9049152155924192,-0.42690326492542613
-0.6169526634908373,-0.17791197203254683,0.16691788847257305,1.6790065010798478,-1.2613127800315511,1.0915927137775137,0.08170528036055084,0.8389327698626544,-0.34062219258847404,0.21385116647257685,1.7689699472329232,1.228504733911789,1.2435846240664865,0.9563377627252114,0.22433530586213296,1.1549371375985908,1.3633235977271874,1.8678412446667074,0.04771696431231026,1.4059225933261466,1.0304266564222198,0.672009565561728,1.014044407419744,0.6809546267827814,-0.3342725141050789,0.3814594992199892,-0.7105508534332212,-0.6103929447762184,0.8319785061391122,-0.0022259996802697114,0.020918119553315198,-0.3393118498665051,1.085001341286362,-0.9853951823433554,-0.06468970991855254,-0.2456343079703978,-0.11261844241589163,-1.4996176903630307,0.4351390029304798,0.6055397616989648,-0.4375972824475439,0.4227344633367687,-1.68022878978582,-0.25138514746462054,1.1360405713043369,-1.3068862531524756,1.1740908710598712,-2.0475714574815314,-0.9829460113088595,0.39870315099731496
-1.327559898160289,1.3816883726482359,0.559574972753572,0.6394943498330875,1.1848189738098824,-0.6586629060247209,1.8984407212807801,-0.2718586359858919,-0.5183007513756498,0.6855283274188109,-0.4696997137652784,0.4131721164121364,-0.5309855241771143,-0.42960838744703045,2.285051620216803,0.8613380144034746,0.04967910301213733,0.7440368554019274,-0.060768030759427924,1.0381402287079349,0.86387546006572,0.5309354846678411,-1.0683300704675764,-1.258227711405462,-0.008433605679348786,1.0981833987407394,0.5185685211861326,-0.4193936670220509,0.23292370642290694,-1.9792936491301139,0.5246985694264094,0.07306455176305617,0.6315870419942505,0.7635436038829434,-0.2540365287060573,-1.3020840055164242,0.1844082224440204,0.7510773684736778,-0.5910441106513681,-0.8914978657124117,1.4372934535310735,0.6349367194579533,0.03765071543679066,-0.959011467441041,-1.312020658065398,-0.6718389081694428,0.5420868937655661,-0.21564519311674443,1.305483629830064,0.7308046727968502
-0.4664594597018346,-0.157851938937372,0.9667347073500951,0.6324052391357236,0.08602627479209836,0.6604795804339059,-1.7245528886153225,0.8508162787776568,1.0110617529730184,-0.6666626602185917,0.2734103562721258,0.8454090772482924,0.3080378163364926,-0.16666541848555635,-0.4227392925104715,1.0431883308050516,0.10711116223543021,-0.587434850413071,1.1032165349942902,0.9024780998483911,0.611090619626262,0.5780890202465938,0.1282875554061299,0.9338984104052487,-0.1618413340984804,-0.9755783942876965,1.8559589116550306,-0.40862953418736814,1.3309949452028706,0.23497061067634578,0.44382326389522225,0.6733070343741031,-2.2979365253845736,0.1324309441034823,0.5486012467461341,-1.1293922478609288,0.8314700675291041,0.7319659981888653,0.9065559498851885,1.0229483634395518,0.6581765545558297,1.8466334096415606,-0.6638565713003552,-0.3590290763667669,0.4736081728155838,1.374468774260618,0.42493694652569136,-1.7613217316884304,0.55902536066661,-0.33268769018210664
0.6470116378415861,-0.48452113155192983,0.3480571886876687,0.11301474537975027,-0.9088102727530905,-1.6167295894321134,-0.7039101674248351,0.24516531172651448,-0.5676426656187361,-0.6737529688134517,0.7049190986968042,-0.8714730085233167,0.2229120923743651,1.2861624158626772,0.0034601354845061184,-0.04469354158951303,-0.3964117491738584,-0.06335400352240077,0.44369930324072127,1.4147692027506105,1.530830674016703,-1.2306704370694674,2.3302124098413124,0.5339589070947357,-1.7340093715409142,-0.29909611971913336,0.1942889136807202,1.1518805739068694,3.068933548219008,-0.08090643815147963,1.245406787529788,-0.7570353781186605,0.6936671048369113,1.1776415320187472,0.26485573519373895,-0.8798391820943355,0.5498595828162487,0.17968141741512197,0.19728483963440743,0.2854508399736954,1.0406333974967505,-0.9095461000081801,0.09813659118473124,-0.5054668826431767,-0.8815722745796318,-0.7834052215550726,0.24282432126103454,0.23920357161469039,-0.8199089650867318,3.167651961897306
0.39603492836673476,1.1399177520026522,0.31767406348748906,-2.7849673058749675,0.2309663587492151,0.31912195469161114,0.9884371460222525,-0.8966251072605254,-1.6879105894635533,-0.33951182301570304,-0.34425578815743685,0.6295853999743397,2.306771707196634,0.01163910266958392,-0.5085128064399995,-0.3397806321329086,0.6293404499676695,-0.3644820030053124,-0.07844244507137356,0.8477766155677859,0.8631590880632652,-1.798061747391922,0.4086024969290972,-1.2932293625563822,-1.4200207753260898,0.5410521535651502,0.8766828116289768,-0.18265861733838543,-0.258722441970404,0.24011614635443213,-0.42322747630369445,-1.8792688756836191,1.4400269145296278,-0.8727448853032155,0.9502182115381068,-0.08907358369052619,0.6416255353721639,0.6060842104091456,0.8647433730869514,0.477655469635453,0.432410316288972,-0.8690222371618646,-0.5644470883321596,1.3023352449773347,0.15070505764742248,-1.7573473724966677,-0.5461043705024602,-0.09699324382638884,-1.9514806460391907,-1.477707847137621
-0.661178853061765,-0.06722022867676741,-1.0604229983379199,0.46122634793112216,-0.400709615786481,0.6427849273176526,-0.5472480060223116,-0.6427906278404901,-0.35535986577909523,1.0617392934727228,-0.6703470301623098,-0.7525651819873561,1.3503252635529042,-1.2480143067343612,-0.9411318707825712,1.0937627474368217,-1.9969983638749138,-0.19561714658831658,-0.5625768707134495,-0.30904247858821116,-1.620632574344063,-0.5872766324470322,-0.2766377463500602,-0.7690135719812072,-0.5665704773190114,-0.2899399404115253,-0.47754090740698824,-0.11365559723857371,-2.3817936145469103,0.7253567702802542,-0.59516578050312,0.6238697012617808,-1.5537667733232954,0.4642109524432533,0.805381155426197,-0.5285154181709429,-0.8241994356357066,-1.180591849631927,0.1618490405939626,-0.4808459776209518,-0.15145861189305201,0.11589442166625866,-0.5337609383910698,-1.584874159660376,0.01647773753581008,-0.00636408074001619,-0.9414414209952376,-0.5888466123200605,-0.822993974389729,0.8925700342865066
-1.022142384657492,0.7964942972539283,-0.7165237508013452,-1.3315887535182362,-2.044929932123503,-1.6135124190634393,1.0804933753842603,-0.489568039991469,2.335246506130037,-0.9113197183236831,2.927168210219544,0.6441609267745831,-1.1729682611615149,-0.2498604472530177,-0.1656646491244241,-0.012579392701081294,2.184446828510748,0.15882342399902802,-0.43069044444327337,0.6391635299266571,0.20231397117044145,1.3999962185363524,0.2441227669900858,0.3025622071724032,0.3619850236465362,0.7639243526404649,-0.06662006166839111,1.2221582154886201,-1.6791475299286829,0.6130532493520224,-0.2999404794464867,-1.2711775652297124,1.7549912114862034,1.7281278308749501,-1.3439365763236617,-1.9930001258174443,-0.5345312439512602,-0.004896066186165952,-1.285479651532704,-0.9106547771294581,-1.8666837580251803,-1.602004081024556,-0.6184478320332372,-0.4186553733191882,-0.7340995938850368,1.051111866748903,-1.7249663858450908,0.6666047391290592,1.4526328371086379,-1.7798995042024037
-2.355008983993411,-0.5910160579824341,1.4535543743656072,-1.0612880842084544,0.44732848929928454,-0.972346149875768,0.7424784247137751,-0.30960823122391085,0.8180487249323146,-1.7239241179849918,0.30044709676714154,0.0587620183764375,1.366490369452313,1.7806271271206928,-0.7939292797929756,-3.045177343405562,0.33496074580586277,0.7227659500818384,-0.1850581422504944,-0.46414357972301173,-0.5283769613034629,0.3597314940626133,0.1494134955185802,-0.8111987805560158,-0.7433337009275013,-0.6463533652628529,0.5170528831586332,-0.5032212812547626,1.8500406004046768,0.4936537138883517,-1.9210567205557885,-1.037729683209688,-0.09145693541858264,0.5558430598445939,0.4461697304225833,-1.1862499387132115,2.217097586870305,-1.4572070099250802,-0.4605797353423183,1.5321641765341323,-0.9549243496826382,0.271815427584328,-0.16228428473233172,-1.106451690819102,-0.422253922683891,1.1376532181301868,-0.5004599156364284,-0.399196362863858,1.4310078086119045,-0.8907758522207185
0.4786415827942207,-0.021561717614313212,0.35858993306708503,1.6756951570461134,-0.6133468154491954,-1.0292315986463032,0.18494975083254825,0.4180079075397381,-0.2595711102057868,-0.42223039788748773,0.30739604067696813,-0.001492353088561427,0.6252809668694763,0.5386888583275138,0.9935828189196472,-0.14531497217554032,-0.8197588416340043,1.0818682736691336,-1.061360402829091,1.7400877257771754,-0.3412055867432539,-1.0302791136484801,-0.13234312145528465,-1.4375511427703493,0.28668241414579326,-1.5672232202003142,-0.2949081543513729,-0.8365520591556183,-0.05580837987059431,-0.19211733576567466,-1.7951624708243854,-1.6147926696985644,0.019215982672627186,0.616318286636859,-0.23926489199298237,0.5527360648154576,-1.1079360331213302,1.210183997398239,0.20773578108088972,-0.9613839271703858,-0.23747220659656146,-1.1377795500453927,-1.488237316228395,-1.7399861914333519,0.23366665747638032,0.6153675417009057,-0.3994521091538193,-2.2827916276525095,2.048562258090534,-1.7519470887465454
0.839167083691398,1.4806409209116176,-0.3608810757453335,-1.3317379697936573,0.38460835193469306,1.0069699729547243,1.7548076733120817,-1.0870350217406124,-1.008832493242779,-0.5586361262281805,-1.147847554209995,-0.054566571128876064,0.5722455307063894,1.4059982152789505,-0.6578193215203524,-0.8852608431701625,-1.0920775030785557,-0.21526540044453035,0.28417492981920933,0.4970289857314839,-1.4568650124775224,-0.33998078873800414,0.37267440341108526,-0.9502642381300065,-0.4199320333604359,0.5101360839234926,-0.13157168005675213,-0.8616070788144541,0.6090819246439565,1.6359396593698003,-0.8715670351328385,-1.2598179407115673,1.700330588572511,0.044662429176187686,0.03764495751917141,-0.8215666897926032,0.07074802145481815,0.9674294010111655,0.4821764433051643,1.0294161794553658,-0.3296423072918029,1.4435251181209663,-0.45009698019933336,0.7454423044812762,1.6136041020943843,-0.9921664270423656,0.03997538443486047,-0.7282447268776551,0.10436212056401627,1.968973836865553
1.7839274319552796,1.0402959091398465,-0.6381596179726793,-2.2546067573388817,-0.17154796703557773,-0.6102467500585455,-2.0514060072338194,0.17406866896307024,0.2989749645138656,-0.8934975516876174,-0.5811440542632327,-1.2659658537199465,0.14819423225164371,-0.35791382184238724,-0.2266217135857111,-0.015782789430297168,-0.2345447872669257,0.46301027445234283,0.9372969441002016,-0.18181871270639025,-0.28918118094040884,0.8178382629267026,-0.2693657232221716,0.20641739314364665,-2.612867868450399,-1.1204283529619472,1.8605541593711334,2.605765656077503,-0.8553685558682922,-1.2812717674374654,1.9062334571825053,-0.77334572612421,1.6950545827375694,1.431856061548574,0.6363768513680925,-0.9010192575874963,-0.5296867378091173,-1.3756571994634224,-1.1035556731765903,0.18217839981541975,2.3785434053981076,1.7844852009773766,0.7416495344522048,-0.26431181286824085,0.8389001633782769,0.5727324901670959,0.041468355128192774,1.017875954948904,-0.6125270468718325,-0.6860936613176695
1.0362855613455533,-0.08476291767464911,0.006563082784892963,-0.8803678643341617,0.054044673432405474,2.410661098388875,-0.39903342252568336,0.10985141142673355,0.7073542239086454,0.9165131134008125,-0.5397364672681414,-1.9039141506967523,1.5701515173385636,0.9887558768392621,1.435397622974047,-0.8003690065529516,-0.8134235836233694,1.7509306643789855,2.5606681932438025,1.0078756432847513,0.03284506377868786,1.6197855347670063,-1.0579353089860377,0.8314271195396873,0.4462338272902812,0.48336351345340905,0.6135135763437338,0.09764433466151985,1.8252482452152763,-1.7266997030214004,0.682534172259857,1.2496990983017666,0.7164977747938441,0.515118824760618,-0.3252897686015774,1.0032076498703322,0.7090899212532984,-1.2746151013912501,1.3822993524211507,0.23509344355047987,0.6556407420748382,1.606966663886338,0.9205953906199265,-0.3234502388204799,1.3131037779262213,-1.773068780650286,1.8420749126919627,1.1979824951229507,0.9504066686079166,-0.2933087799613307
-0.94783767749535,-0.8192185365529914,2.2249021191165568,-0.6206491674164698,0.31655820589858136,0.8811476405100933,2.2514175355299564,-0.7704011372469508,0.10830456219674911,-0.42784461934061513,-0.13103052658363148,-0.8476134798748282,0.5794993949093524,0.11340897994404053,-0.9903736081972372,-0.7977835099576626,-1.4924273851963188,-1.9566824208254645,0.7568206360027185,0.4294812748877286,-1.713758755885162,-0.8779764669435078,0.8843459271362742,0.44534572581697923,0.8850499332879143,1.47533163771389,-1.1357314698678753,0.5344399118915126,-0.18476507364363431,-1.7657922280104663,0.42232230602654913,-0.7066863939194151,0.37893719659367064,0.9841941631353448,1.3205744321436428,-0.41328789829858614,-2.239923373485177,1.1510381718559684,-2.1867315413745927,-0.8779610193225101,-0.6564424176108901,0.9521010363940198,0.3177666252796709,1.5028718210779601,-1.2915680481460847,0.3369554923662904,-0.1879232592716655,1.1986841105256238,-2.06003914407498,0.40472325213481564
2.089096217583125,-1.1892050890161614,0.5466580565357372,0.8373885260329357,0.8712044655869016,0.05229797157864766,1.299380462100402,-0.04177427361800483,-1.0689726042692853,-0.5366429738525204,-2.106376042572844,-0.5735859279580792,1.2790851096853244,1.6197484503304909,1.7475980654270429,-0.5185441001998057,0.4697600115143666,-1.1527014986415463,-0.7264635098748328,2.0708723977439836,-1.2029241673904085,1.9235930960196252,-0.839087565566437,-0.29431806903567825,0.2525647294288252,-0.5386302469320907,-1.7232246145221353,-0.4092158485056672,-0.05425099773446081,1.2396173895479674,0.028591329675037552,-0.46710109862852567,1.175574392542929,1.6309300544260257,-0.38238447858227215,-1.08880381022626,-0.2420539874471921,0.17930814109767357,-1.278203058045718,-0.3071092370984528,0.8067531434755725,0.712572538851178,-0.5362942025998274,-0.40177223103114557,0.653594106956276,0.40557444667167786,0.3043720995809635,0.9464826772284191,1.7903352445034442,0.758604324301573
-0.09197208505145721,-1.0117431023911767,0.0004442521283366205,0.6536284386933706,-0.4515478931191972,0.339149871817186,0.4860474076323214,1.901797070409056,1.563529028885337,0.34015082081873377,-1.2754476072918564,0.6219039521807023,0.7045780896436143,-1.1385552303700013,-0.5329150584584884,0.15317027835457264,0.1435830989313076,-0.9985370603540598,-1.2025581190892953,0.5298727627697897,0.38934818719263836,0.8873871701080607,0.41227373436849196,-0.6963954768330606,0.017355208636291176,0.8403277397067562,1.4048116791984429,0.7161707003819401,-0.25611233541860307,-0.4075593898724691,0.49618124318830686,-1.4055798197840847,-1.3704381008981856,1.524260734658159,-0.36851322470098125,0.47626816232633656,1.7811916360275664,1.4596427645576693,-0.15986308140151953,-1.025895935684811,-1.3657238375630805,-0.12071789366939815,-0.40728117396561936,0.8773508000425806,-0.36192064485269343,2.034425636771529,-0.05118834400585316,-0.30401056503672647,-0.9543628934753919,0.9172058098812662
-1.10730613455642,1.3104051519491462,-0.37103648347192336,0.9992034504543019,1.8296626362463198,1.0625766188889956,-0.9220577131758583,1.1761056996502728,-0.40233050417211236,0.36745118137316196,1.07595699532542,-1.9139784440465937,-1.4460914770295115,0.2819110462039899,0.776751619476363,0.6309223747247965,1.5317063331986875,-1.2310013209297945,0.4143045962370971,-0.3150776042701234,-0.453960005161984,0.9848027931326634,-1.957427289990159,0.7722429368817781,-1.674859916647887,-1.5924161131873973,-0.19041680594409932,1.0734860382838007,-2.1153188865318544,0.6893504584322018,0.24397883682754387,1.1514686899921647,-1.3204988004292164,1.063838027989661,0.48632773311042604,-0.6540598473273432,0.4575033608833785,2.5421731161471843,1.603721033197368,-1.0681186421935882,-0.8725478801647694,-0.5843328588006839,-1.6658410374380996,-1.4712292610866822,-0.18355849464528112,-0.13582148172041078,-0.8267243396467293,0.13473360594542666,-0.35634596100006083,-0.1343618616472523
-0.09482088805198877,-0.024228355579276564,-0.5093154333704902,0.1487781354841083,1.4360529328290281,0.5071584276991143,-0.9569447188839698,0.796989480340072,0.6044640962269191,0.8078630784634772,0.27895050303626956,0.9101398540684766,0.14724697859342842,-0.7979535505484694,-0.20077562817511604,-0.7382136286323457,0.3506631330434216,0.3083742743702278,0.6461463420254068,-1.1915187396180766,-1.4083116014656505,2.059818827145379,-0.6055623652559744,-1.7177828179272627,-0.1298246723912209,0.4719447436791332,0.41381803178955845,-2.6167582829931897,0.14978253294882626,0.7271273058676775,0.15695642873497623,-1.2619935295436882,-1.7587274138553926,0.6330994380984385,1.7953624678026898,-1.0002683238749224,-1.7204713587825602,-0.3165391972718162,0.5554463346263644,0.7345661304579119,-0.12198418781219696,-0.474899471451585,-0.6329348487057497,0.8756699824879287,0.09225482844845269,-1.4357620679753855,0.24961771094900057,1.451303087328711,-0.39822730896546166,-0.0044177813982586986
0.26006093007044734,1.1759181711935316,-1.1166443984474064,-1.9560965603990645,0.45292675109265373,0.9482115730681604,-1.6209951417219963,-1.4026953564198203,1.7389989684122358,-0.34068977785545024,0.9028308298873504,-0.5161351140425146,0.023924274830686248,0.0757910284659182,0.6321261077252914,0.2228463852411603,0.048472803474715276,-0.2982223757019903,-1.3993443448190281,0.46227783293751834,-1.5470142850525184,0.715962491567335,-0.3006637452791317,-0.3193378040071264,-0.834555960079454,0.6285603319728291,-0.6069673109291019,-0.044117299789688445,-0.11630109105817005,0.0672851582575323,-0.5041452887951019,0.5520887034943848,-0.5465102116718291,0.4722709241360957,-0.30713082224772825,-0.14168148943389314,-0.11690399866239795,0.6049265299117925,-0.13347897885366355,1.7749214269155111,-1.1979985226834349,-0.7728346409893978,1.4942807672058107,1.2285834045523811,-0.8751702643828222,-0.9355333697331348,0.5149853176411758,-0.5714713142070472,-1.018057825897228,-1.5548372003528872
0.5718571634739249,-0.0010098390618810999,-1.1196644650951073,-0.7204611370096359,0.5902087655428616,1.857639139836607,-0.1717998382837454,0.5453916906172108,-0.0541262287805456,0.5804021043354709,0.6468029840086588,0.7104931858020918,-1.3695272218262886,0.02370620244968093,2.9013649629358014,2.3929809963894635,0.285570167131709,0.24413875417673608,0.9886804744758328,1.4199621126156485,-0.736381541194966,-0.5351803836825872,-2.606047507619763,-0.7466363809460671,-1.8123529642562695,0.8012533492166883,-1.2681054262475846,0.32981543766985916,-0.07794222579964172,-0.2018166352497994,-0.824687624150221,-0.45034537629012,1.441321610482989,0.32485953026412706,1.831289516575727,1.1397801596584813,-0.6037866859042599,-0.22538931610414967,-0.347363192535472,-0.055381704757482345,-0.851771514685589,-2.356296575070839,-0.25492620463284715,-0.10095483267893705,-0.6778767175028354,-1.1575614272169368,0.7468097967343542,-1.2770345364983442,1.2513868622931925,1.3159848730114732
-0.09671282296886267,-0.12831406606522755,-0.24446512422912062,-1.0804675650537678,0.21258018926587854,0.36013301482195637,-1.065242934457384,-1.3342257848457557,-2.0302125748068978,2.237907833785473,1.4735975114202122,-0.8717171740961636,0.2942607441183007,1.7982498215805158,0.9368092827233035,0.21573006505302958,-0.31915373546559533,0.4139335183569608,-0.08093800744685399,-0.5479285148816226,0.10921557058855222,1.3348296670262847,0.8846763466368989,0.5721638059117045,0.7545092005177395,1.1546428916533755,0.7396537749207882,3.137232275930258,0.5550711876507664,-0.6913601702369981,0.9771623870154015,0.7039494645792824,0.8412779765027509,-0.3030220147332184,0.807958085130339,-1.0259935484723417,0.45141772184625645,-0.4434734266112446,0.9814634277773174,1.2091385125591803,1.6248539425854287,-0.30238490510093224,-0.37644365233608634,0.34169106200140337,-1.1643428797845696,-0.24986761881291022,-3.2611855459016317,1.44457243061359,-0.06512870918301389,1.1575982307791561
-0.5771995663022832,-1.8015088574474465,-0.6195171811800831,-1.180033451138863,0.4620242093384398,-2.3987277743601827,-0.2585345346536824,0.8142221515706791,-0.8879518231329961,1.2793757811971813,0.5331415925298789,1.482399206936064,0.015567123334343048,-1.48244797465874,-1.4951614168655536,-1.3774095403817606,-0.4443290523465989,0.8627217604098756,1.307884617932678,-0.11090220832534567,1.8059169319235266,-1.1500834688092991,-0.14875485110811043,-0.339815505956349,-1.3696741239121635,2.1324807400025794,-0.21369859659870594,-0.18243996393445872,-0.7017394853660994,0.4361521267085603,-1.0387689918163223,2.1914907446213814,-1.7032398399364455,1.9842070492623187,1.2915775840033477,-1.9752644734266622,1.7427513803571846,0.010878904277434443,-0.27339022691778975,-0.9074899033932368,-1.7311572706963159,0.05010184318460647,0.8419720114187565,1.255431525128142,-0.41269257642871915,1.4133953750519852,-0.49152409379001466,-0.15887878974313496,0.3595808154131562,-0.9645891956741942
0.6103448588075541,-0.819783311835033,0.3249123102995888,-1.7777874103842932,-1.338397639929869,0.5770825571296238,-0.5133124318451241,1.02524339469873,0.06743888719792612,-0.7899639507811974,-0.9195260853828814,0.015120327035811834,-1.9407528682443822,-1.5685830212928484,0.17588420500862445,0.887538339562698,-0.18617635996098425,0.7081153590456016,0.48019264862516875,1.102336511187605,-1.211320906134279,-0.0428583914718727,0.582538124515673,0.21796371572231735,-0.5448683681221147,1.0578866723386722,-0.6636178211454272,-0.6615981189087702,-0.19779355691536002,-2.0374913872482967,1.1238803431681106,-0.031065389975443263,0.39306604252426636,0.07341245221565643,0.7705938529770754,-0.30010798864667826,-0.9628344893856216,-0.4586336495190275,0.31785011011132985,-0.35248764033650143,2.0232013693908972,-0.28067924680419365,0.9580055166602935,0.7092390109998566,-0.441172423488949,0.20045157829753812,-0.8811846665870986,-0.6414937913227399,-0.23467809720638086,-0.7756378441728216
1.17402737790397,1.1105837686344884,-1.220443957763347,0.4817432698936886,2.2631619326358967,0.6406638997409771,0.3176195205995969,-0.2981394212159036,-0.1812137018764833,-0.9089398058461305,-0.4415309504043374,-0.3849243114989394,0.41587609785012414,-0.03654647847599131,0.7059058322323039,-0.7056533163979933,1.2559025033862363,0.4633434248121041,-1.938474413445925,-1.0063587913657177,0.5358446188552288,-0.48714080496420403,0.40083735719790214,-0.036438813176480414,0.06740112136895371,0.47314101807663633,-1.7672165905257213,0.8311021519554018,0.8672205734164988,-1.1277443847038415,1.6587903681280727,-2.0709280025196444,0.08493992514034199,-0.9260945361392325,0.8804828999714291,-0.7536506865654852,0.08222166220261816,0.5603854572676141,0.8698952436520366,1.653574704643453,1.0578095155652334,-0.12887337663620588,-0.2637535145856434,-0.491411542070984,-0.8798245527624832,0.24101932315969304,-1.0100404468283721,-0.4690758303917027,0.5517257747766393,0.6406920773210768
-0.6847298228241149,0.5518760573256114,-0.7518650201614446,-0.6031128223237591,0.4143422836572728,2.2905448880826325,0.30518038742039666,0.2031109758031558,0.10979630367936002,3.5964946937944826,0.13947645724950247,0.40876538417923575,0.621137241633236,1.3474819942901097,-0.9647507044076625,-0.04630763178952335,-2.6040718185950524,-1.4204966551204972,-0.3617759411530089,0.5457422756516145,-0.5006498018210749,0.8656699733546594,0.6652093732842113,0.9459263674312061,0.15775290723684476,-0.7424758096734854,-1.6373125468897252,1.5314650282696656,-0.5149474196940159,-0.5209281390966141,-0.9101437572121092,-0.9410112477795752,-0.43948222668670345,-1.7156576550779503,0.8149967852528278,0.8097953068958016,0.31758909842890226,-0.7930221301074286,-2.0309993524163206,0.8304025414212642,-0.5726365582803432,-1.6362529918209638,-0.5891260515687903,0.24381689917307503,-0.6322619050773564,-1.6074766105777594,1.0329085375942573,0.4271293586018156,-0.3321369028777991,-2.3413935106447874
-0.9353186379007135,-0.18624678762887265,-0.676262891062245,-0.21061048693731696,0.33801896611855026,0.8691276011089469,1.2170510446592386,0.06007409482976505,0.9480449965476222,1.877409351660834,-1.365493076405839,0.6259620856452112,0.44446184489300855,0.5827140236982536,1.135860094462419,-1.012543634767016,-0.5562396291436431,-1.4141362435492126,-1.3053068656737674,1.4008681288871518,-0.34211709671002843,-1.8237449401963892,0.9724834961900882,0.4653919672042622,-1.0048582034437727,1.6541528770311202,-0.11810938455189061,1.0066432274930117,-2.2974828537965477,-0.28517781804973485,0.40856777928377364,-0.30079576359799537,-0.5498544090360443,-0.5483726405179155,-0.2900321827004275,1.6978728883171381,1.4197648797553657,-1.9458936875631894,-1.1534256715331086,-1.589470429887658,-0.7920441834255205,0.6205480977634904,2.0892248092687478,-0.9389706457251268,1.3529215624935913,-0.6868751506026826,-0.4747017396248091,0.709372070510829,-0.39901186187678245,-1.0525027192365461
0.6603340167295381,1.9453354096696356,1.2994050261569936,1.658787640701635,0.9433377128148781,2.2500276129779353,-1.5528409849328446,-1.458803351989819,1.1979370748162421,-0.2537704490888551,1.261728486361319,-0.17524712025253325,0.6339731017809145,-0.8610183770812749,-0.6942175598013789,0.18266044829967412,-0.9959807836329763,-0.5420169266908981,0.15716783525355965,-0.6525319555734485,-1.2736747732682399,0.9780550072259889,1.8786689109957215,-1.8442530529287575,-0.16755944935265069,-0.07368846282101688,0.5813984625712281,0.9314256475198073,-0.2306582314379947,0.18437284041357704,0.6428224292719823,-0.038214377173135416,0.0192866096542764,-1.3069481304991055,0.3762136838920372,0.8518849752025359,0.18829005509742577,0.9912055475630375,-0.488563662684778,-0.3439272220484053,0.6275206280088185,0.5157567556558585,1.1899073004366147,-2.7774008170803373,0.1964485387861427,2.567936703447248,-0.8280441300811774,-0.15211124617312033,1.8664368084073304,0.9322738397761288
-0.5314821075925092,-0.20078617576223354,1.4972473505699364,0.7566719563863713,-0.9057895373712749,-0.32210081943249697,1.2908947304818428,-0.8822849638485727,1.350175550526591,-0.05459960237726511,0.050521244474109,0.9534167239693372,0.3792723058765111,-0.4178088893741377,0.12743826172986125,0.10625400010844925,0.887796615098052,0.17122172875131472,-1.093458026428911,-0.20636990014976675,0.8551974321378374,-0.029897085855909587,-1.7126728942667053,-0.14746410750222588,0.7115432435698464,0.5378735340867083,-0.9893741989780604,1.6498962196793627,-0.5335430119838466,0.9814505536606922,2.1902666231458396,0.793710034561272,0.5553779205087651,-0.09019399810896472,-0.736583757873339,-0.23237919580479874,0.07337844883011885,0.4970763247861138,-0.5414658642758252,-0.6596558795410183,-0.8014394891253934,1.0149941977527652,-1.0282381330096322,-0.345174866724597,0.11224576945133535,0.48761524602995543,0.5317964498474587,0.18591594581710266,-1.7296097193834439,-0.11322678567240951
-1.6480980887922079,-0.5464963298856003,-1.4010543139454992,0.17489286315632335,0.3094995813614422,-1.8167244305980714,1.0865308074994737,-0.5046888991218627,-0.2703816992263153,0.8676043278539061,1.2108913780629003,-1.4347012526737102,1.7904124068430083,-0.26958236573869115,-0.06816392000452134,-0.8617864589497765,1.1493400970911491,-0.20165748470096628,0.8968218905803925,-0.252502434987934,-0.020330996567340495,1.3618819519239007,0.6706819229175389,1.6769726329823158,2.3997632040707044,1.8839873984658206,0.43078013547067356,-0.989888246669712,0.2509545730582617,-1.8681154319044797,-1.5782370121676532,1.2102492672382836,1.0290286551106238,0.24058012666685702,0.8129971864726989,1.1619785913567184,-0.4043554600603946,0.8865583086358989,-0.4226122925855414,0.6176644290698957,-1.3982743963631938,2.377202621583439,0.045163460124774214,-0.42747148042464145,0.06654329021314834,1.5224064212060078,1.4787482543713515,0.47457794254007774,0.39235083345685173,2.954485790542125
1.1367011184700566,0.33516865265663276,0.14705657057064608,-0.8294172555558486,-0.6333109811083435,1.1569937024568848,0.46355499575062536,-1.3184150317790333,-0.6685665372273943,-0.46800454100106414,0.5022183749192058,1.6953145642071865,0.9409306951236391,-0.04642681629829528,0.8100113450743328,-0.7743049895209407,-0.5749366430605182,0.7089205473691874,-0.23062916573245526,0.09448897411567611,0.717896733838018,-1.7345529293178998,0.8153558169453626,0.6661437617510284,-0.11134233574233537,-1.0113486098713806,0.5753936763150277,0.3232513801065624,-0.03640356179784598,0.9782626652202611,0.01892931297758192,-0.2990021084412469,-1.0092540359712956,0.33720895269492535,0.4053345326863524,-0.1418816866210952,-0.4157798531392361,-0.10801901615184276,0.4963913086144657,-2.300648000632589,0.8966951536508584,0.3174245975513848,0.30274927204931057,-0.39033911279619005,0.27061463334395974,0.3601736706740561,-0.24458183205984496,-0.08586648316944158,1.770012643366284,0.8750491159008221
-0.7029275683941038,-0.19500389945776575,0.3679305883195088,-0.657265082124671,0.404827618777352,-0.7065121956851873,-0.8680398179887329,-0.7455137583327015,-1.1594010533360166,-0.4338129361791182,1.3575126365772423,0.9712684064494908,-1.393540361327596,-1.986364695588134,0.9731936913392826,0.7987034166530639,-0.009166961680479237,0.34789631721515674,0.6218329602746193,1.0047160618380557,-0.006050175266521958,-0.919566671582929,-1.5251383050459368,-2.456481533088581,-1.01626975950602,2.5000169144874413,0.13510349638524116,-0.6930551236491436,-0.5172220676599715,-0.2067235163165531,-0.26624239025141877,-1.0716615956731768,0.3335300481902683,0.10328510885230711,1.8874745866618399,0.4743574973622018,-0.41330320726528097,-1.6228359145930153,-0.21612246594913964,-1.3817405448794329,-0.28303412425128005,0.10821372560980044,-0.057046258951047625,-0.48363562060491055,1.1584911082670528,-0.16836002483537232,-0.3812876820412938,-0.22031674118382535,-0.08305705977754956,0.19102078880127002
2.5671693739997807,0.6766737903484333,1.6638022845737601,1.6790639777178737,1.7070905083579127,0.2759028274446172,1.160331060704062,0.008741981504407779,0.38635384613244966,0.13858698843813477,-0.04160769541876991,-0.31519722904886677,-1.3485197494528047,-0.20498259679802547,-1.3505933891075979,-1.3601341777623266,1.1199870420251241,0.028483651747459475,0.20803836231294817,1.9545090487317038,-0.028600524875205917,0.8158202900673323,1.5005718276574644,-0.6227047004120357,2.59717093638968,-0.8698524952609479,-0.14390503486973352,1.033798318789829,-1.0186845481280316,0.08387473983986671,1.0764397897734062,-0.2804192985046441,-0.6189990769683978,-0.48022238697805014,-1.7684220430885962,-0.752860765563245,-0.3674219636493883,-0.47398023589669175,-0.046783894859633836,-0.648026082234877,0.2788078953579924,-0.43780737005040066,1.3224624767417277,0.2289835992998628,0.08925072556211183,2.397835820792574,-0.3514789330864407,-0.6980012890417204,-0.12868543426793846,-0.6096799010616937
0.4837207324087284,0.6898446911336558,1.2564242324385235,0.5681345672617607,0.8262925651076917,0.5490136139330682,-0.4590750985333406,-1.268556735492389,-1.6614383449341785,-1.4973652358607765,0.2370225420297456,-0.02251991157372041,-0.4153335838814352,0.8283166356618552,-0.2429528560478512,1.0375692179312792,0.9373103726661262,-2.0024991148975926,0.348691090671822,-0.31604724199752726,-1.0209093193192467,0.3122038742800118,1.3861083961233167,-0.7302942138936047,-0.5375024363676663,1.6226003527508317,-0.6489249951815086,0.8633415070471311,0.06268502111534409,-1.415272482813527,1.8465259163818157,0.5849976979646629,-2.046750264623869,-1.4565855692551277,-0.029066306257593974,1.473425992571247,1.019225186382478,-0.9118090537112381,-0.35640829880772734,0.4573924625244709,-0.6066920609392759,-0.18193813068688544,-0.7770739449673284,-0.05297080393187563,-1.1191414707384537,-0.4442426736090923,-0.34154559790441374,0.4391377937040952,-0.9403277455299511,-0.824044833552827
1.8052851246717634,1.243034786544738,1.0361760828945479,0.3988532406698743,0.30376069758223273,-1.9581679514202794,0.8908964902006495,-0.4292307533318359,-1.2204990717233744,0.0708788213577249,-0.0743664217624313,-0.4922759503385048,-1.3096850411308594,-0.5273036636321702,0.692720834181556,0.5530642342115684,-0.33125562953035187,-0.8662636271816178,-0.5215827488510492,-0.28755528642153094,-0.0489095805291566,0.16740574449627266,-0.6222812018633006,-0.32857448848349347,0.3440931621235845,1.3871282192934806,1.9305748474512807,1.5033069325106942,1.784581070329396,-0.33278311632863805,-0.8806427331214123,0.5064560407883525,-0.202022787171167,0.13882721801811693,2.1834234567382964,-0.8391507136027491,-1.1181187076617602,1.0194503475535555,1.2316229344355027,0.23666128678317142,-1.2963272160932657,-0.6744308593156417,1.6489057291712523,-0.6517081058161837,1.1055548323585516,-0.6260245865043211,-1.1380234178491142,-0.06601561139093867,-0.15965138349168345,1.5814799028179993
-0.5622498181710723,-0.9871524982809394,0.16324483520404726,0.929183012198066,-1.4902633863931323,0.9667850300790891,-0.4904805360782846,1.5172804666695312,-0.7885095706156146,-0.18477753696926943,-1.6696828921526183,0.014444668284323857,0.2935629114849265,1.6690255318770446,1.2938753546481443,-0.13102918596939656,0.8570934195905819,0.057565022105656484,0.23728224504048986,-1.2507106151292433,2.8592457340900905,0.33082136987093336,-0.21048675143080972,1.03398904645295,0.830618607566071,-0.998151106420954,0.46063135880570977,0.7345501765647084,-1.47970595115372,-0.48106954626085574,-1.8737383417103768,-0.0821469562423092,-0.5097402449531365,-0.5494100020127531,-0.35500178231043134,0.18399770974378826,0.20600402224556302,1.8801547054751184,-0.22790310420503054,0.41898428593120085,-1.040826804920599,-1.076726860140966,0.8925141233573907,-0.45991579334370136,-0.9994743398587217,0.2878068824841735,-0.6593906571164956,1.300972164113584,-1.0579525184712018,-1.4996636117393976
1.1778110680210172,-0.35723485208531836,1.01573702384235,0.17938352884867748,-1.0189742987707564,0.4773218792902089,-0.43299859682266906,0.9530840596396771,1.0784107282973852,0.922807581933131,0.2797328637814747,0.20164081048075405,1.2630601848504897,0.5667781129278145,1.165683502149665,-0.9118402363716461,-0.6039986732982066,-0.29202427793058805,0.7223519397822504,-0.26787028724859335,0.18056503937872642,0.6392823639185223,0.582744319296425,-0.04200683982297022,0.019934595902761316,-1.7596458601628084,1.342581809577511,-1.7704163219713083,-1.2819721467175744,-0.8936318992335882,0.0125397936049163,0.03522679960659998,-1.186593787393691,1.1984783859345838,-0.06654447104724458,-0.2025613011036121,1.435095212413027,0.44362325619895177,-1.3645764602420203,-0.05543698430661856,-0.7298058443522463,1.3306406759418827,-0.4569848556131211,1.0606710063425786,0.38902315863947523,-0.5345322678356603,-0.38749519407932503,0.7115680797606965,0.014380225428190058,-0.351952930571581
0.020828842873548924,-0.03474563548264605,0.5106520533168366,0.6274550905897665,0.6227063986456411,-0.9226356291430436,-0.20981763335479192,1.3943603672787293,1.6121370067523308,-0.36608933314335085,0.48854814325580603,1.2422297740471449,-1.0771659715335609,-0.6825295658328522,-0.229963545748673,1.187171265861082,-0.31184933739827,1.2855156178019667,-0.45715237779325707,0.4719414869573601,-1.1575217050588575,-0.21230585751562672,-0.5967419140405921,-0.20069896833096412,0.9835074767847637,-1.372321504614183,-1.4536659001871168,0.21960622622142817,-0.12266263123889043,0.8476256297826577,0.24960066615853452,-0.29599824786191925,-1.1750432885895812,2.0772813279674773,0.12794838438433814,-0.024301494873666014,-0.04983841461451235,-0.06712537732478399,1.6275277702217548,-0.36747823009205893,-0.6148966104488595,-1.287053367730868,-0.9558001610827185,-0.8623724563166144,1.6452367547550475,-0.5705561963044923,1.1887146873429801,1.4184890461346886,-0.14065178740251918,-0.6832043311069712
-0.9272690331958229,0.8814008294874089,0.10441323997897113,0.3014220010918125,0.12309293225507803,0.266506816201326,-0.0968876336891681,0.8438592610621832,-0.8957877298064413,1.284984324937961,0.17667274360352522,-0.6652462781630366,-0.09265199407464984,-1.0212758087670781,-0.6369084240343607,0.9185272050626151,1.959267956328472,-0.17236365732737058,2.050452144731409,-1.0283014121412144,-1.1435210872857975,1.5301680338057917,-0.6507251722391444,-0.6282928269777855,-1.3226121902087482,-0.448629945822005,0.7477017267354152,-0.46655506523004747,-0.8304012298215848,0.08896708910248194,1.8171020582182114,-0.25260638734372104,-0.5315948046430936,-0.8213554920200823,0.9160929911937478,0.3490217748616243,0.06063652439138195,-0.8272073292411113,-0.024838737518223877,-1.9621284472297131,0.19497124586462553,-1.6127175759374637,-0.6439195571028911,0.9035855223548609,-1.4990804864199236,-1.3904767768875934,1.0352702344719904,-0.37957502756022377,-1.0888653221650126,1.9237775008504898
-0.8713745421448688,-0.23779696852811263,-0.8265304202594295,-0.1308475433989931,-0.3421139877668993,0.6443362390745704,-0.14654688776431696,1.1804250434998163,-0.18884409231350216,-0.866727099606944,-0.7060470758792484,1.294216133197481,-0.20730931902112917,-1.5897421966295755,0.5465652895553106,-0.022315762797699486,-0.0760697077641252,0.9519474617979873,0.4815124017118629,-1.651605015807711,1.5311658682074105,-1.1082595436383533,1.1603676063423574,1.1404168472831242,1.0836523031163625,-0.1347601379021691,0.8009768178159584,-0.5867937432030266,0.4810874127766955,0.24150112310250843,0.020132629137535853,-0.4994992777344629,0.4288069454612522,0.23130423431149463,0.0018341323507570116,1.143054265988517,0.38083886125107363,0.29801190039632425,-2.8061963421254474,-2.328191715837798,1.2325493388100333,-0.9305765968664809,0.5375016832557761,0.06690878804046972,0.15046819457354998,1.0490749172886686,-0.5692512122736263,-1.3423814316155005,-0.24861047185926863,0.7426687812690423
-0.011536849024092442,-1.1051935216782007,-0.22251599604508238,1.1800240085296816,1.1706612514348387,0.3357952514708541,-0.9278187908247992,1.6274343291371671,0.7639271107901867,0.11557317788955163,0.05987301106738948,2.1432114140678045,2.5447554337971243,-0.14366865972788753,0.6091244254181503,0.3745069736238479,0.5081570839905298,-1.780715085883063,-0.3596705237381711,-0.8170601839113835,0.9721356261329567,0.6473545228919068,-0.6424608737165886,-0.8805767715731804,-0.16802428031480598,0.011956695896244632,-0.2130084715752941,0.3947943428679768,-1.2396084412914625,-0.9674316768707342,1.3928879717161935,0.18811303643419325,0.5078453398944986,-1.6381014616706822,-0.046669206458670315,0.20385515024410186,0.5389925695836484,0.07909716586925335,1.650105484577926,-0.28489936749394706,-0.6957078862736784,-0.11609481573932169,0.74792210703754,-0.1666155187332492,-0.5347945676938335,-0.4156307830517828,0.9490853299286439,-2.807478918006352,1.1828288427158233,0.15897652569259366
0.67312735516004,0.5501942551153759,0.8901979981768198,0.43504853870487714,0.9182287037379147,2.3512727967868527,0.13558551519202777,-0.46997192195305826,0.3459692071745625,0.5285362786297427,-1.2086927150016777,-0.5113589837599327,1.0499476741212885,-1.2151831983474473,-0.7952681363623691,0.013049483442511202,-1.6183264398317483,0.9074931094484068,-0.6755548947639227,-0.4958798936593989,1.1098329083552525,1.1754549572489246,-0.6200117966088923,-1.0050516978809136,0.17782942979658647,1.1728139429869748,-0.12219690983876474,0.4448791585309507,-1.068492161743692,0.0099608513027398,0.0717445334162502,-0.43680997249509784,-0.7863546420059659,-1.0102083650141012,-1.2004752780727441,0.5472621531844333,0.6858335622215693,0.8063182135040781,-1.299593951609373,0.07109150031330365,2.451532835772995,-0.4966821226330927,-1.6327439499301137,-1.380226333337025,-1.3131928795106826,-2.5438928541378134,-2.1256720702698586,-1.8065636805651741,1.2050699514735916,-0.46776920212209167
0.4422021889437024,-0.26995059751203243,0.18919845569220564,0.8022653989812955,0.6282449902002074,-0.6727876559158459,0.9530799069192941,0.8160681085708079,-0.18922794483968008,-1.2479929064557362,-0.2973239831913138,1.5347713077242364,-2.32829571162308,-2.464697679427718,-1.0504211493365443,-0.14201770812804906,-0.42445859849052714,0.6595167800756262,-0.008442959087303194,0.23187149235801147,2.440867869700612,1.6278544390121477,0.5338340621340083,0.13836465431942685,0.6331538249375781,-1.328689400464451,0.6977774481845788,-0.20019836954020084,1.0568685872105266,-0.1702429404437082,-0.8153223976776478,0.3088269892827511,-0.4592446688587825,1.2703510594333343,1.1677320835852365,1.902328877935892,-0.33858032001245536,0.29159849694745166,-0.2022694925180861,-0.7315931712764806,1.1188751970266095,2.4770492771251704,-1.1837152050121549,1.2622735143770787,-0.821884145739019,2.18753036445568,-0.07663353970055084,0.3275501198743355,-0.07256709231977847,1.918879256484889
0.6768992508178505,-0.5400263362463967,-1.493405189615141,-0.21294651062319125,-0.48320545797571335,-2.1239871011357834,-0.3292175076281927,0.3861867440330319,0.4017715575897244,0.42869831293584243,-0.4259127628524585,-0.4381080319531358,0.13642801778472896,-0.57629853240281,0.46611514297301837,-0.7757210257773288,-0.8258195535133767,0.6480182371240373,-0.38717161281260654,-0.46017672651649977,0.4029822903850783,-0.9548612504028852,-0.8289509034303986,-1.481671594741822,0.5711893286263888,0.6713968066502155,0.5264133858642924,-0.39663735470520245,-0.8248550704581156,0.5908021141761576,-0.55173028763373,0.8208044805457879,-0.45702581542930637,-0.7461053945172924,0.8646305190200057,1.7978108579895178,0.5456816673314762,1.683475179918783,1.4225749022959735,-0.20052555542473618,-0.9495654408730032,0.3613354624912816,-1.9377579517991281,-2.3026259613924718,0.4894661323796447,-0.33271641199414126,-0.329448931114839,-0.9620853419083908,-0.9988559598151692,1.5591996024076842
-0.7546450390739518,0.42777857399054536,-1.3149133952932306,0.3799875249704216,1.5567274226480072,1.3297535632888586,-1.206140623206419,0.7567454462712686,-1.8624313572290196,-0.8088265072305928,1.280149250306237,-0.5796631790407356,0.9300984844757475,0.5292173619155183,1.0253594241118993,1.0031627659919755,-0.13995818821669584,0.7046938418811756,0.8601933062523229,0.8987989541073059,-0.9751146577619857,0.2123916727939975,-0.4141662705823321,1.8654703257602665,1.4461797527307396,0.9708546176863284,1.2309793353585161,1.7225950492692335,1.8977593194057207,-1.3623431909646504,1.5389221581915586,0.45118472239218915,-0.1472191163017465,-0.40677781383640377,-0.12967018717215392,-0.03177009651654258,-0.5874169745082933,0.3857360387783054,-0.08643450594153916,0.1576978774677842,-0.48777391614774296,-2.4478942626539215,-1.96221188063095,0.14104738500438824,1.0233802392442282,0.2788106611754703,-0.5203234946647205,-0.054623489071013706,0.8614155386328073,1.436981694137083
0.3597149137595122,0.6174657433347782,0.07169151063251072,1.3468928875987318,-0.46759584639053986,2.2760309839803843,-1.5458280316990873,-2.398817922914005,-1.821396712150848,1.0287127416243884,-0.6548616777435691,0.14651905490293124,-0.5692582242441767,0.49596653106611777,-1.5145566278169587,0.8569369423339291,-0.2632626124940659,0.5742368960889811,-0.46107426335087087,0.02123923847734753,0.37216737757946167,0.1755020869035613,0.4820050588075505,-0.6852438062943695,0.28760580254245377,-0.22278634472081893,-0.9265453690504094,-0.3326782880733278,-1.3713445617608833,0.24721788858622576,-0.07939064986500073,1.927689275083061,0.36702951866657924,-0.8266258027530451,0.4497641213834163,0.1253258696947087,-0.748667984556938,-0.19841385022413024,0.09261915751528756,1.382328851118622,0.19172489164541712,-0.9675503176250675,1.310359305920465,1.0986921405936507,-1.3661961981653938,-0.4596852364011076,-0.5169111009618984,-1.0719221115549342,2.8051903330259385,0.25433669958145066
0.2848462964982039,1.6688541850298344,0.45841149788276603,-1.1432178254677123,1.0864286498049036,-0.37874615115808147,0.4522554047286933,-0.9157714418550931,0.6124261237766058,1.6480743453688371,-1.5565526094365278,0.9743120334501318,-0.21345526194364578,0.5371833432606378,1.1626923665894602,0.15146959591549858,-1.6067468852681102,1.901960895152017,0.5144681730117209,0.7566233947547822,1.1274470632990587,1.236095171874657,1.173227063249243,-0.0594765173140683,2.069493948502566,0.14744773334976977,-0.33607086139923553,0.6075111044135657,0.7782738634496619,-0.7990609017801075,1.5644034782695784,-0.2722747810294123,-0.7931961668290375,-1.6886644973461247,-0.7769748158926879,1.1978775673380275,1.2348847268506429,1.1085593045863937,1.1107100599699018,-0.485464502100404,0.3380817516465575,0.9955543689877678,-0.7225849044921124,1.3703162516934801,0.2326324298240457,0.0470164741098368,0.1953617214519314,1.0054909244383652,-1.3089965619330959,0.30820838248452465
0.6916608434283817,-1.9960272449573582,-0.23365353271592113,-0.5852367730639298,0.006981298824558342,-0.4948287182888941,1.8485765786522863,-0.7363386380506054,0.8935496135634639,1.743234752565096,1.3723242430324276,1.730234799398555,-1.501685706949253,-1.303662794217495,-0.9349378547351344,0.7283393870587085,0.1601574763397873,0.42452486362966735,-1.4552465006876325,-0.8249540444501755,0.8494558480307812,-0.06081476645975257,-0.9150974970180957,-0.40170126983975063,-2.0928086236298316,0.11601819009414881,-0.5380905917515975,1.3685975628615685,-0.9742737735199067,-0.4534688148461718,-0.5645977029852647,-0.33804845927285143,1.290394691241571,-0.1871399678535056,-0.5664275861833672,-1.4953720169381293,0.433265096732095,-1.619004195941543,1.1312955366464177,-0.22552173930513808,-2.0961081381584368,0.5513018771902297,-0.3813803558271852,0.7749935090608873,0.1665138193446529,0.43731280404563333,-0.6648094212294974,-0.26080848385348043,-0.7473898780170054,0.1296699866153681
0.6457375550810425,-0.6147615492999755,1.430777759410758,-2.9049824767881516,-2.1740063624476997,-0.5278147300274373,-0.6533406555451902,0.5002425717218963,-1.466528902167995,0.39645992659445833,0.8620340801837455,-0.7519081507223518,1.0953708895698,0.5875697752586491,-1.385927907070126,-0.023568889218029628,0.4730364119329751,-0.9153764161255789,0.20153037503550347,-0.839962029491423,0.0808788750209224,0.4039777785051262,1.8034766996332565,-2.016965184676102,0.5731186540816399,-0.22717164546135277,0.9899783652142983,0.3155220428141343,-0.39769333358053816,0.18858159028968444,1.501831411885803,0.7832846393984875,0.05396255143213713,0.2634123155849109,-0.5359914154813864,1.0156340756210889,-0.9518821536919883,-1.1131342752766589,-0.2843809157225961,-0.13284894131750377,0.5514937572978827,0.6475909372688566,-0.09850527463193932,0.6207924607468108,-0.4511656390031407,-0.7301564473948636,-0.23052048819546228,-0.6935990320433215,0.08500528916091776,-0.11834370377429497
0.9564075099404749,1.1383603144414423,0.5861673103592917,1.6892192722656427,0.908455039466178,-0.3400105950600635,0.12491237452105906,-0.5768297323588097,-0.7292716926653654,0.8877463500863986,1.3060272215902715,-0.643278800369241,0.7701970543052625,-2.532439351959347,-0.17140506179544002,0.4536617572932075,0.17126246512314527,0.46052229440675424,1.5230489370002027,-1.0189380771641434,0.7117498057915429,-0.20985809534356437,0.17041427033441245,0.26736835768071676,0.5860810335980038,0.32142612171311596,0.5239227988901354,0.0752181748058719,-0.7631973950850658,-0.8870168951882473,0.5805576452830502,0.14564020651684448,-0.9092181964363523,0.7525495283377547,1.1940487634339194,-0.7546350134429837,-0.527407855192053,0.0005372714677036258,-1.0726318236220362,0.46627379332626634,0.9200174681799484,-1.4794702936063453,-0.20685670655271413,-1.9599991407868487,0.06208149647260021,-1.4310650876865558,2.0279025358410347,0.48912683280131214,0.781017842900606,0.16653840433656583
-0.09773145713763469,0.5573449095768974,0.20554761588065582,-2.2864714882501844,1.9953691700599254,-0.06834877618734285,-0.47329388398485295,-0.42286317151538394,0.6670981955687721,1.2322126180616908,-1.455401409994806,0.6430955852090531,-0.4095623186928517,0.3535138800134972,-0.34098928799848754,-0.21925457413329952,-0.439638444992078,-0.42982647610595276,-1.2308334644242873,0.052554297133895964,-0.5788624810890898,-2.4096704855301754,-0.3956399364494309,-0.1232888426685097,-0.1440975584218393,-0.27437866902411323,-0.33444138498203985,-0.30276404064211065,-0.10054919466964328,0.3250711300831459,-1.292905338567374,-0.1317741435226789,-0.6544590136404843,-0.83844280659179,-0.33676337413952623,-1.1843688353835649,1.487787955106115,-1.0428340105462497,0.7447297950326187,2.0534220765457545,0.4886508892253834,0.025540951746680304,0.6541565113664916,-1.0008783728533934,-1.4173268665623173,-1.327474671982788,-0.1348363104398873,-0.21889791404930944,-1.2560440331520428,1.4444835703049927
0.9294546597852371,-0.19918121908034617,0.3039375417984064,-0.5567884211520437,-2.071784339081528,-0.9058011949383842,0.534405626439578,0.12656076977281577,-1.1027482871040497,-0.30116981547189775,-1.0609192049728013,-0.7585163497398427,1.1827939146108117,-0.18205949615861552,-0.039561948901680605,1.3388393437262118,-1.2846148502975205,-2.357067777690941,-1.0019273254739804,1.5480219281994139,1.1389337941743374,1.0215090407217926,-0.1702665709874705,0.25339689957755607,1.3794407759328602,-0.4455837727764034,0.05175010949552699,1.4257859221363263,-2.2591895311868435,-1.7385451545165147,0.30270219994741787,0.8690674617641345,-0.1530959585887373,-0.16352738844832318,-0.41582400275473297,0.9492420491545632,-1.1422524611052787,-1.49055036763183,-0.7258663674021354,0.21239702331934643,-0.3875509600244244,0.4682649494201919,-0.8815401984599248,-0.35169624455699583,-0.11880027901786509,-1.2307905223201259,-0.45218542604047895,0.8199324469005627,1.066579920421785,1.1723476041953316
1.9266552988000358,-0.5587526294365727,0.04982527058509263,-0.13186031153812303,-0.855763021560728,-0.1835829804207098,-2.993518366991987,0.7991836444024896,0.18138514696753022,-1.3010887548007561,2.106479404614803,2.3417764817443483,0.8052135435008659,-1.062513477714777,0.06959550729689659,2.124033735436891,0.6539232060540812,-0.37575075693322607,0.8759310390381027,-0.09713945910547989,-2.343358552104803,-0.8859009334298106,-0.046970355478159066,-0.5535618585352687,-0.8636844882805718,-0.5269486958006435,1.8101720925628413,0.24714993872546148,0.15033043427472598,-1.9119048422819611,-0.6944025423010344,0.1463115188336204,-0.7235564771005638,0.8607241579875914,0.055067839072056715,0.7431595896950954,-2.007363493956898,1.1330046644864256,-0.8506944379220375,1.332182514232491,-0.6927196442563944,-0.34788991468765507,-1.5978361429660897,0.3462772885231751,0.6443794324556594,1.8371972023442285,-1.9206762327975373,-0.29389260592082717,0.6887554581634785,-0.04457301316804969
0.4018697503600254,-1.1198901511094563,0.1982864550781919,0.02582171628468716,-0.580155773711434,1.4397854772472882,1.0846571706879675,0.14317487898217937,-0.0481813919900163,-1.9496914677736465,-1.7296454082541945,-0.9618666856356579,0.19661501793006123,0.9260609936481222,0.04569854369579216,-0.5799304707907003,1.7674590522202005,1.2238084006646586,-0.0270266170109771,0.5926648631404094,-0.20203409684521584,-0.2995859456046735,-0.8282211089295831,0.12416621439136315,0.8187481787425714,-0.06755754900652639,2.347583699274318,0.421493684534363,1.033159861543239,0.8458840865279583,-1.7834612495013917,-0.5661280382552814,0.08793688083611924,0.4287911989921812,-1.2151109874287978,-1.2346331999678548,-1.8330684255389949,0.41833944444161775,-0.23157556135017102,-0.13921476579612208,-1.4371242690880726,2.109479555789318,0.24121311025251282,-0.8300140303796424,0.48884795301282713,0.8090907823684087,-1.7501146575372895,-0.0005224133756915304,-1.028482672414432,-0.37662580634919496
-1.4222086322944496,-0.8641896146325801,0.3477089952359345,-0.9029697879755736,-0.622307126604324,-0.6532106225890529,0.23991770089609096,-0.2202708586576342,-0.26300280973321183,1.0135513693956013,1.6186044208026111,-1.5332573424837506,-1.7700616529920585,0.26323556827434114,-0.39429111531890315,0.058039569540663076,-0.7631700751201685,-1.0883761823200289,-0.24765728208209087,0.18688206977543675,0.0659395624715914,0.9937944541070702,0.6881271432685138,-2.300936349575752,1.0068510202346475,1.1452335949335428,0.8088593356823126,-1.417772353116684,0.97884758396569,-0.4277115603986972,-1.2504754173389208,0.16402037388010024,0.4032667295053761,1.4147051734156728,1.4011202896631227,0.019826217313404924,-0.17436145421914187,-1.940130768885879,1.1971091608605242,-0.6507528560376917,-1.0012034762400626,1.9677680606134962,0.69362819919192,0.4071569917344165,-0.6365956132580486,0.7610532776809751,0.8508568876757655,-1.0460245641502715,1.5635427889327325,-2.1375775776921246
1.8735662089953502,1.2006988779140444,0.4209072103914027,-1.5182084421801858,0.7707104240196344,-0.9729916062731092,-1.4911176677021987,0.8412298979475652,-0.7322010586376378,0.38442077985649226,-0.10706379337996219,-0.14943741298332094,-1.9766542909396643,0.6785364964141587,1.2143418490614988,-0.7751992661435155,0.4185958661675025,0.6521148629249528,-0.15900767167126123,-0.48421217385725457,0.2339058062728454,-1.1562373593807478,-0.7676434022419932,-1.0049578074148626,-1.2770101195166317,-1.1993420571414533,-0.2589530692637394,-2.0327724490722776,0.5209128391851866,-0.07879910898875621,-0.18243901557841638,-1.060194248102195,0.25236143290226953,-0.7805739292225483,-0.3814162094404687,1.150097005525736,-0.3038604409502633,-1.564587175233266,0.9084289312939988,0.660723929656066,-0.6413589332126559,0.858988943253326,0.5677542045035023,-0.5327047172224977,0.01849979381529713,-2.5560928906109264,-2.647818871981514,0.38196383111076976,2.213728681726834,-0.7328331282578443
0.1145039096026065,-1.9798215918401856,1.6324749537627314,0.33476200090659175,-0.4190369074695973,-0.7417759069275337,-0.7275661596588127,-0.4142264747364808,0.672430807763522,-0.7380845060328722,-1.36191690339766,-0.22590635346867352,-0.5383354503104812,-1.9733110207988225,0.6766304769405154,0.13058318159068444,-0.4200710766857802,0.2820472360825498,-0.570050695716436,-0.17015060265456527,2.3387467815196916,0.06260188565722016,0.9830104231687965,-0.22574835913942798,0.01271587138315197,0.49616529342278787,-0.08210257249294958,0.6741279872941602,-1.5426165916797125,0.4854952164500092,-0.7780651818058744,-1.9840226076107352,-1.0725038632609054,-0.45660919362018376,-0.09111406531416237,1.8338968885987639,-1.0897849049284754,-0.772710607789505,1.031864146621036,-0.3118744424997624,-0.43419189488141374,-0.24226503819993764,0.4671726889834733,-1.4405563359619218,1.406527013436268,-0.02980518066791328,1.29079875741553,0.22637925194582284,0.13766413401869,2.6986183110771425
0.456070595485992,1.341155430919531,-2.287114990187011,0.08082099561145703,2.214127838388029,1.2370084505661803,-1.0950764680618943,0.8077538058826463,-1.865060969078219,1.2399542483343693,-0.2266451161069641,1.6277195566006046,0.5354862151763962,0.6893474023362621,0.7013424611996435,0.10092171090003678,0.12176185397962683,0.11737910534884645,-0.3215096334234295,0.10001189280983523,1.5953760369033572,2.178536308988679,-0.19219204118957736,-1.0006028459297842,-2.00911621259728,0.7950322568893152,-0.5191761327735047,-1.2278513299510627,-0.9416010721454401,-0.04598217398655631,-0.3505989405009324,-0.12837524883655949,0.9904725908629542,-1.8801631660733413,0.5081014173609771,-0.18105263102244537,-0.9253260911416026,-0.2657873857002094,0.6881821424017491,-0.18764591130993327,1.6795837391968353,-1.3253945482324987,0.17501929689075332,1.6439239662935314,1.682991811641121,1.0586114666535338,0.9697090478159166,0.9035082759065534,1.763861916774431,-0.05906367129102524
-1.0531377409003089,1.2018246044174905,-0.9112884135373066,-1.0766128776284187,-0.08184818370485117,-0.03728293009462024,0.33770600902007347,-0.5697777141425701,-0.09665857717007915,-0.806300518987368,-0.012967227729028046,2.436437147452583,-1.1475847895964502,0.9595663181004119,-0.5713391997983467,-0.9591485135375015,-0.14854170049721133,-0.4955134778225582,-0.2308524481231905,0.40221298028580094,-0.5726975564976103,2.0840929660093512,0.6968790045011195,0.3877640149534481,-0.5585638726245187,0.5229529653301759,0.7541812907748834,-0.5123631910051961,1.2511768100296392,0.364982376594933,0.4991173627215686,0.8378456329274625,0.4346729908797059,0.18342518285962897,-1.03260125753971,-0.5395432831851154,0.9271546257287081,0.10014290282165494,0.1277802129145176,0.9397219266756108,1.758049183206991,-1.728760777733762,-1.1821307115531714,-0.7416824182161771,-1.040531499365659,0.9080664528381,-1.5161859071709172,-0.9342792268515303,-0.48218268275593484,-1.0114776766100504
-0.564455228617075,1.0905792418168287,0.28692327956887315,0.9680840372436696,1.256084830938964,0.9019930786472992,-0.06547283281890173,0.777018573521847,-0.5945837986222178,0.1725962525969117,-0.8227880809451699,0.29460456189532425,-1.7992134373191835,-1.3344633084747246,-1.3037056901611659,-0.11911665066873928,0.8010723717241981,-0.5656603931133233,0.3284503499943295,-0.3337982765458995,0.08022929075333242,-1.1066468134545318,0.6977583022900569,0.3661900220095822,-0.5239171886282623,1.2083434210731034,0.47070909356125634,1.9382747408440069,-1.445248444485606,0.16128450504278583,3.1076830924332985,0.9042679010532767,0.41262176268966466,-0.015178160857775378,0.4615735138216408,0.7445054549358672,0.8710486225938822,-0.5488032100979392,1.0987550594543607,-0.009612961218072405,0.14155256221898443,-0.31969787546012257,1.7528454726297305,-1.7069141877586718,-1.9040946888823884,-0.8813006262929274,0.6262230766121686,0.7372300482870003,-0.6304619468120615,0.04683754513283973
-0.2895538887140017,1.2120077077914406,-0.750888160881462,-0.3076333927840022,-0.11476342718518669,1.4095428487614905,-0.8965128971020291,-1.3476451344003169,0.14874592366050302,-0.7094608499026175,0.8797125695265094,-0.7625382564866887,-0.4168897955823884,0.17265101969853017,0.6502100804166643,0.7826706814035929,-1.177840904682763,0.2621397111099782,-1.4739107186548523,-1.4674532498558237,0.5032692025272972,-0.8005400686443073,-0.3081821036511144,0.05587801758031286,-1.018981167297568,-1.509225049924889,-2.2776147490575838,0.9089980722418496,0.7259964773126835,-0.7804084834743144,-0.9517120794797844,-0.11417653577551524,1.1696393634051196,0.352499838421468,1.4215110603890102,-0.08130356781785748,-0.3455637749818061,0.5473888865741106,-0.7804946969071155,0.4017524025562279,0.5776997142595959,-0.9816680811760823,1.0410282147294019,1.638396820148835,-1.5907334594823488,-1.026729779427045,-0.4631543368412588,-0.4280735784957497,1.5128370348050229,0.6853233112044085
1.61038580336483,0.3640062895242607,0.27763652464860566,-1.5643684753059999,-1.4161493105248018,-1.8138209659793796,1.4743410036066966,0.7212437686373606,0.47080817755308224,-0.30793134605776484,-2.582677728518179,1.3380688603411761,0.77000121859142,0.982267890998456,0.9707573049314201,-0.993176410244525,-1.3055728435445575,0.6323315088703705,0.12345552169732923,0.9711874068097153,0.1747676125308639,-0.301288680785951,-0.5559786075175093,-0.627537724417493,-0.500496667874078,-0.921052969820003,-0.6939105862118786,1.0371408346867441,0.926176803655012,0.37998597000903944,1.3319288073408246,-1.588454008115841,-0.2095707643591703,1.3707717799146606,-0.6077630597470288,-0.8186383019671146,0.1447790607054245,0.5041243501209615,-0.4830116568013735,1.0593750515765756,0.6016917504581055,-0.8812613889657277,-0.35088059544988853,0.27968562317168555,0.36970711986396615,1.8362606175645984,-1.5857030305299544,0.1348659705964113,0.5260092825501136,-1.686186318300935
0.12999854254595233,1.0051155662178333,-0.798845844101289,1.8000978940002934,0.023832661271444407,-1.0120168904059332,-0.6495690081293571,-0.4374892530163394,-0.2611316717700207,0.9357162578250553,-1.912122343514629,0.22213146895676023,-0.4853262257531513,-0.5672850680866283,0.08339428208994805,2.5382808869394817,0.6969804837511425,-0.9120703613514964,0.03425417937633659,-0.5407666027585786,0.15147200998107752,1.2183609546340373,-0.8766465136938247,0.13830624198058564,-0.25625906293224726,0.8167408500754169,1.2871335625167368,-0.8933163063395048,-1.4840461049055946,2.3070137584500583,-0.6386204587062766,1.4011200648237425,-0.8054264633362141,1.597600594699913,0.40717673515474434,0.9234953203729065,-1.0870970525955,-1.0797458655699879,0.2973114111647138,0.59717651266154,-0.59579597094031,-0.09064581415210983,1.4718973732398526,-0.2981958444529802,0.17835838625225325,-0.0076421001873068165,0.7833377674414242,2.2303729891085715,0.6991036889918976,-0.4472923495432765
0.12100234176372471,-0.9747131089640181,-0.13517809833938124,0.1185445309691267,0.431294474409001,0.9008046064980059,0.018832748305995684,-0.5004307976608563,-2.04174502201754,1.8309797860281187,0.004773665764054374,-0.32780137354218725,-0.24550441718555382,0.21608755694819937,1.7560275808773458,0.48643456242556704,0.6097013815492802,0.2961731534340087,-0.8247150279262964,1.4108977946198218,0.3167150484311883,-0.5772217914050339,0.13911631435330624,-2.260592437948119,-1.5268553781162155,-1.319341824260273,-1.9403238555907303,0.9029116030564944,-1.103018661552757,0.2518148114983308,0.8917357883053133,2.453396925212783,0.5101457726721663,-1.6148170448629073,-1.351533225638873,1.1016302392752753,-0.2592669912488108,-0.7066462691432646,3.121376421266567,-0.15173742307915195,-0.14845415312173887,-1.2783332086297767,-1.2276566437371088,-0.33195565812783795,0.9962810315667382,-0.8094462229920422,0.1341292523919227,-1.0540588105863895,-1.5611824333753899,0.9760911084651964
-0.8966439216618208,0.35950012032778533,0.8607310365936679,0.13414573276518704,0.12947760027659774,-0.020793734925947615,0.43420944350415724,0.02142939731601668,0.3865829511760824,0.41140628404905116,0.8867200479959428,-0.721945324136592,0.15109285642039388,-0.3805946251037485,-0.911939262237542,-1.110822331802139,1.3530349503416739,-0.4535521199636874,1.1804671520415801,0.9552162009078794,-1.5656954312474898,-0.5694065255431434,-2.02175114446868,-0.10545179873182042,-0.23415461689036812,-1.2135251075258182,-0.035272016231966685,0.6440509377735948,-0.34870591497510417,-1.2042912582320908,2.4519048556213345,1.5945151577912107,1.5864091119874864,0.004075472654355638,-0.9301303430810126,0.4838790551885603,0.04949807075026784,-1.8017018796199125,-0.24456054487015666,-0.5314289521269214,0.1619985518741224,-0.00887742567350611,-0.2984905913568571,0.12077865290279692,-0.00716798427893439,-1.5482236276856152,-0.47127816766884856,-0.08810038603176022,0.7010524747345326,0.42060404155921344
0.9170956621708858,-0.9745078930351254,-1.9438122156076645,-0.7150830743772253,-1.5742701046827812,0.5190079835521623,0.5458552089153348,0.5614197771345799,-1.2582541503790712,-1.4047959371639087,0.6326723402788759,-0.0892132062604401,-2.0990825564318816,-1.089322106645783,0.30115635189428275,0.324520526550583,-0.3805636154042781,-0.44412185520504643,-0.32232955056996776,0.4625629600588976,0.8858131064321316,-1.167309535918303,-0.15002727402512672,-0.34483135685319055,-1.8284897447414032,-1.883361185141987,0.7801992163746664,0.8746221604109639,-1.2146374135760905,0.7004628659580434,-2.107618820023742,1.3942351633993086,0.8304453188677039,-1.0326773071669897,-0.023543309986662667,0.6378102689707352,-0.5684643061389121,1.8975038162774034,0.3469049939690467,-1.0476238852307092,0.47036404634950724,0.14537375041659548,-0.010551398347186373,-0.8065590547973222,1.3289069816996875,-0.33744438374311514,0.34773823376569063,-0.08027676572184415,0.9595541147790234,0.1556534130426416
0.639373552157345,-0.6833145868832906,-0.1720185868634047,-0.24761529388469514,-1.0168136084192259,0.36666291397749273,-0.27900359795358914,-0.14692123646658434,1.9084177610076087,0.8616658085655111,1.979099197206529,-1.8667037888657811,0.07592946466049612,0.6072402309112916,0.112891932093994,0.31099716796800464,0.8365993181909863,0.2454361872846469,-0.9350521692934687,0.07587904928670042,0.7453849151081834,-2.582706658549449,0.14945646540507335,-1.6793249312300276,1.150854134164392,0.22859388342692843,-0.3422679708226388,-0.425426615805855,-0.10464690792231361,-0.04779897259042899,0.8803587333998398,-0.3817560980591954,-1.1423778071132025,-0.16036743175516036,-1.2338410143282479,-0.30558946399088555,0.03646256102682903,-0.5760969037452474,1.3302343269055859,-0.22988279925316338,-0.22395413905663816,0.7682665323424452,-1.1003270329216464,-0.3004182112534812,2.2790441259943566,-0.024352350707298732,1.2980810826766207,-0.7261054984961207,-0.471651594914277,-0.4698697062661553
-1.1343723503488699,-0.20741592805192277,2.1298724373322573,-0.4185398651403969,0.8716735760810417,-1.4061817595875012,-1.1096580239593845,0.5832305410345912,-1.5011922874585368,-2.14387265769959,0.4159021481934014,2.9173517299440643,1.1152694248087247,-0.5922017106533444,-0.9309187214981014,0.6579215815294448,-0.6005413892485668,-1.4984750338433868,1.0198769947631194,-0.5070872879386779,0.1813833301239509,0.7170839255661897,-0.3844733230216475,-0.19002798836627052,0.28872097083228243,-1.8058961481307565,-0.45349112491170107,0.6967541143777982,-1.5696991807210237,0.9421311059036933,-0.7285347005260284,0.0855994001382239,-0.011130773112835682,1.191106999862013,-1.1658103868707412,0.35257681508672883,0.021837977414107586,0.035639986651510636,1.90955294859549,-1.1073737710640632,-1.5389005315204893,-1.5246568614858238,0.7107735134100587,0.39158040293299406,0.4277652809727654,-0.38017241596435714,1.6127169485352153,-1.0306630828502785,2.0860573452527422,0.07016709698712668
0.031220223366743276,0.6421182919270755,-1.1355413182867888,0.6459524051099284,-1.3396296437213469,0.08355816909822565,-0.7823846958408929,-0.19639408981901002,0.29134734201139906,-1.4604343870869427,0.639824172948454,1.4031814032317862,-0.2030363726601435,0.07153796381258982,-1.317206943712737,0.341860734489686,0.27680444553293515,1.809639238961155,-0.27213997073536117,-0.27181548186980314,-0.6343632538091782,0.1831814084637784,-0.11041280958374917,-1.58118318458625,-0.11558392256151061,-0.4595512832292322,0.5553864273690441,-1.515480251519474,-0.4263735080872149,0.10393327441906056,0.6090574803519986,0.5304988516509429,0.12050360555636436,-0.9152513822625279,-1.3782774937621578,1.0004038643453421,1.006605409610847,-0.8187286080749403,0.8436659072274558,-0.021362558375830485,-0.8801214296054175,0.5503880354852938,-0.2558109957567127,1.0907157561439011,-2.27700461140201,-0.43216049410044866,0.4765342051700888,0.5308335633383655,0.5085333651162668,0.8070966968624133
-0.20026067628807456,-0.7593366337969485,0.2272921101915479,-0.5008481255576692,1.534276468833412,0.5022259957511271,1.705266126995827,1.0923961580245674,0.501399173917758,0.39807696541501825,-0.9646496600457782,-1.3745457049588505,-0.2688116460213955,2.4521944233963366,-0.8832818222741744,0.6245879071614375,1.5700019213764578,-0.8095789579393484,-2.033322994168488,0.5301759760485901,-0.5856792805927612,1.445655271292097,-0.6452139633195572,-1.4679847446156864,-1.8864302665596822,0.992433920939593,0.9350576777224542,-0.3336578071996151,-1.4718277986096777,-1.4341413688991484,-0.7843062187412827,-1.3499210335899994,0.6598030870535978,0.7852788219175544,0.40978411837344725,-0.19947532863233203,-0.8927891444669395,-0.14918753536694804,0.5106566149479337,-2.0364814630276054,-0.0026594322017532376,-0.5384432783730198,1.0148000558769743,1.3075415576842973,-0.832233544363168,-0.31001724709834333,0.22733577519099424,-0.6755903561256286,-2.154131042377604,-0.605807928904818
-0.48448813648894007,-0.9820701556597734,-0.7848369924429204,0.5528235506792798,-1.211924304248511,-0.2540059602706814,1.8375781748084645,0.16409749322391498,1.6487077133012127,-1.1675402789166072,-0.6713051858236749,0.3247564090591661,0.7344435641646417,0.21137176333584784,-0.8512372363241174,-0.4214188206003918,-0.0050477271542600935,-0.08921559814205299,-1.8487489716377783,0.4729369262258305,-0.6374640371706246,-0.1947105916766485,-0.08147059643812067,1.5628317757551853,-1.1247237993987846,1.8038013758028082,0.8749769425268831,-0.9676007088361828,-0.5452091768322507,0.23013276357274137,1.1165220442876667,0.38050398393170737,-0.06862777748763768,-0.12807897257260747,-0.2599958507449083,0.9119369141061033,-1.5574713165750933,-0.6200892792088536,1.2407474018831068,-0.19040857411741172,0.04266033762092107,0.5045954238242426,-1.6975562464932479,1.3177510153146135,-1.3180854120166734,-0.6900723462128973,-1.1413910495904231,-0.4131059328749005,-0.5814372883272035,-1.5001067673003154
-0.22016996819710669,0.9817172188053873,1.4931147002993477,0.19846617309000622,-0.7626479603506312,0.19803997281325306,1.625529561160066,-1.2373789390437953,-1.015120906942062,-0.2636047697775214,-0.07277258062237461,1.0966473506527188,-0.19996241737795414,-1.4759268045141227,0.7389826180699498,0.9232547032983865,-2.372882213135154,-0.5383812916695473,-1.85126143196452,0.7029885332861375,1.5870768410347353,0.38227691245203244,1.2429805869164614,0.6190348718063544,-0.39286048377932525,1.128630942160915,0.5994992246098255,-0.2748848978793376,-0.16075487193772006,-0.705716407682669,0.5824873676596185,-1.8073379080152983,-0.600423038820538,0.6570987277999012,0.9080708181601356,-0.6217868511803999,-0.07945673617946739,0.6070810298232704,-1.1821858089335082,-0.9598385449617692,-0.28344166723054826,0.6765023775548074,-1.0209972922268613,-0.6728400069865765,-2.007564291596163,-0.5941617007906321,0.6809201444431329,-1.0740660820489911,-0.4505489002786603,-1.8631728651895174
-1.772386779093443,0.4654257911231119,0.32445806396427856,1.316987162830518,0.332742751078392,-2.151134714255934,-1.375933660106049,-0.4459948614382759,1.5367799761893994,-0.8168595171153774,0.49943501883834546,1.1743230315316031,0.9077819052544756,0.13933270644597595,-0.01920790156619819,-2.5680142317742622,-1.583344635490924,-0.23373364270004193,0.7981062120906257,0.9703309707942687,-1.3265072195911662,0.5819764387049646,-0.43941849919145454,0.7356685808658061,-1.779007358052806,-0.965746405662294,-0.4789473251257896,1.0179099484451681,1.0374250700618102,-0.2567243938231224,1.348143598053063,-2.941695395504862,-0.5659258862760076,0.9697169897667282,-2.310663757159673,-1.4931149525198122,1.991140285065986,-0.21436455507783947,0.285816231125053,0.5278674085298344,0.5322857267776441,0.47659303738859654,0.19479037345939137,-0.7519857530887925,0.1723629475996871,-0.9608597944526334,-1.4872122993368033,1.6037558172220865,0.20857066524518034,-1.286739664152229
-0.42933457091854976,0.01388313931286769,0.9426985676531973,-0.2900620908896708,-1.0684751796103549,0.41278662625663504,-0.7506812362876113,0.7687981437141491,0.35267493532209937,-1.1562566877400455,0.10836943233792967,0.05733195856472882,0.6847535757854429,0.10276054173516741,0.14515307648178025,0.25410187182615795,-0.784483740827107,0.038796223204099714,0.9840633094669217,-1.4149169385183036,-2.0946539731713694,0.4553746860776217,-1.379016607370973,-0.06532212334046339,-0.08043883039814935,0.9787430876912996,0.13678205509649533,0.0833088741569186,0.3176085861242592,0.05263879371926668,-0.28997484408261226,-1.0464868864265164,2.906501788539976,-0.23211369574706928,0.3047186210956444,-0.5628397457657865,0.3965010093909412,-0.737007023819629,0.4192715507937258,1.4182299099838154,0.31341808829931533,-0.2994864346791081,0.061714093472118564,-0.9401016419844174,1.1274619070209095,-0.33785784559372967,0.8757560297577467,0.04017939164932275,0.5519795453936154,0.6824211667335176
