-1.2802000758344125,-1.3417484764828294,2.4886045795942455,0.20050537670436544,2.375489619788355,0.17219946978890874,-1.0143051788836737,0.4909888033419631,-2.6203752583409687,2.4534247466468826,0.7757340194905965,1.0919487561589243,-0.5095071611664765,0.26640732315120036,0.014875602894814316,0.8617252502197579,-1.5303922754366601,-0.9794085377418436,0.7441718713095137,-0.3179472491144267,-1.3678812720731761,-1.415705046666607,-0.44375568665945,0.4751630937873014,-2.0743574070781916,0.23767071340973434,-0.5326922265553338,0.32914234759907735,-1.2333729598872618,-2.526825266032369,-0.8799940976159725,0.530800894778879,2.2135463597609815,-0.8281339676465024,1.035620557046944,-1.084821910971304,2.341176284913389,0.011049253256819045,-1.9574567194428614,-1.4682174255464977,0.5246569344710399,-0.0709228808207405,1.6342439247495146,0.2535436193810775,-0.1683516773824201,-1.0742769161986128,-1.3608468594579999,0.40787406838057927,2.0181614547684705,0.4313351760462353,-0.023224095540029514,-0.17962345693833395,-0.7295706272151837,-0.42497549858580863,0.23877623770853376,-0.5566965627395657,0.11958617575978932,-1.0105603724686436,-1.5013985651336874,1.0877785215857678,1.988410978938248,-1.354604279961991,0.47069905914921334,0.7106226091289941,-0.29919773952295997,0.06952049384252491,-0.4578706320687132,0.32736913357043884,-0.19187667438338674,1.1886398339929127,0.12034238351935643,0.06096248595495812,-1.4189310444418815,-1.1101677309858446,0.496450559743184,-0.33829365973092995,-0.6282411388511094,1.0741680856995446,-0.24994132162916735,-0.06017483507275197,-0.4081119538917283,-1.4318637035583124,-0.027294022331109443,0.7695737844045006,1.2096714904060284,1.6891168127346108,1.6038305251840865,0.04986149556077692,-1.3968101656986125,0.7928181297579839,0.5586658721088489,-0.04602538456153883,2.1201115407948667,0.4156940619878806,-0.844757862981337,-1.2360448142073677,0.6369122149225009,1.260857052230488,-0.8485728214198612,1.3500013786740344
0.004351357588309574,1.6413586817635568,0.9874517622992177,0.11435733638951942,1.4243740655463881,-0.8729948378093819,0.9884673591234269,-0.1470023121065184,0.01892067492220974,-0.01919475969205796,1.2157695029199236,-1.0743605179962796,-0.6300288342341268,-0.1555287120033568,0.9651798879972514,-1.2831417511717054,-0.6035088431662138,0.2837252077614317,0.5544795152265398,1.7818599545570006,0.48277931675823693,-0.2003346282348344,-0.634732428887542,-1.647673010872374,0.18542756254955686,0.16407758381579998,0.7956311361514815,-0.9428787173728583,-0.06427181660232278,1.5997498956793192,0.28814030927335277,0.32302476432748906,2.281705252718498,0.39200566396734143,-1.6037302861641112,1.260232070231223,-0.29873376002778634,-1.0590436018854432,-0.2726945478488016,-0.36740755292589194,-2.038400690722314,-0.11990618224515899,-0.4537922000525351,-0.08254371584266623,0.16603389383697958,0.5927977851749712,-1.2317717950330391,0.6656006860286282,-1.3533152157915604,0.36498135322510156,1.5252757340759522,0.5067515807560695,-1.6850680855656588,0.6193256541352546,-1.901462813719491,1.2009914640195058,-0.15160826158321689,0.43159805607169377,-0.46282177623542353,1.6383251129882728,1.2301725170684554,0.2847700797004934,-0.6229838792469223,-0.7467796842255983,-0.13052369533181885,0.9820181686289662,-3.2554510523048026,-0.28391602884342443,0.3470530752912135,0.1697677287727061,-0.464883761720572,-0.9505714527184789,0.872377964644816,-1.5465324231197917,-0.8142814761274324,0.2817039770920397,-0.6835524371719721,1.0483701881257566,0.8675054827516308,-0.7936156013654107,-1.3725559963099616,-0.6611783807762447,2.276408798321774,0.8778883418605542,0.2665996585100724,0.1773199909584408,-1.4394346125538224,-0.7959764052428634,1.1300254859430534,-1.1925559830417667,0.5696282619987715,0.3436561150634268,-0.9564992620094122,-0.03357056302813361,0.8302862477960217,-0.5860969229328246,-1.508536489378695,1.510354875327251,0.16499793320101022,0.23459069996093365
2.431125803688777,0.719380467706835,0.520917677132212,-1.0847109368705719,-0.7834779040513162,0.0067470434588118,-0.3629765676634702,-1.4974797065849828,0.9913785206412872,-0.041470055425075175,0.0007584380990788393,-0.8331932662693551,-3.1752116948401032,0.3850721291338316,-0.664093932607703,1.1167589753918858,1.0163030843610137,-0.030271578462885033,-1.1361022796760432,2.511999965587629,-0.6973668497949845,-1.1080216279219886,0.039305457667962826,-1.154377279715046,-1.3675728400565264,0.5471966631996594,-0.8838546685137914,1.784226151854094,0.5662515164031661,-1.842846212005479,-0.35088687020074744,1.7351206016063738,-0.046903084082549555,0.9522677755122697,0.30927371957216315,-1.0231954304824034,0.34446508346592236,-1.940166886683406,-0.541452654662417,0.09519737086014139,-0.48183304689846507,-0.3857333658053288,-2.277331280011784,0.6162645868776047,-0.017035046116342073,0.8891729380839637,-0.3853988366807947,-0.34659544373868517,1.0241795708059267,0.4873968731729944,0.617811515209282,0.2142259453148034,0.5063277178848926,0.4267360178727051,0.3922031465304696,-1.1918653414040468,-1.5615740917055367,1.3113418624405186,-1.4812910005893665,0.12957628151721917,-0.2414006318368149,0.6301066352411737,-0.4116044366643915,1.5603474596689733,1.622237507769237,-0.4930096718874762,0.8118582082494878,-1.5931357664417123,0.390096329642479,-1.2909507857696683,-0.03606555027199662,1.0823105656039178,1.3172096723201858,0.9056207084264001,-0.1995490714569032,-0.8273095163284261,1.8700486844201993,1.3086903835110504,-1.6719875289024628,0.6029558602634382,-0.38020482877864187,-0.30895883546844005,1.1648231425728397,-1.1749429805118108,-0.9689618007918859,-1.5947319963468194,0.592554448174668,-0.2183299521338819,-0.15510220795766505,0.6719206632149868,0.3464332387595068,1.0597010954543937,-0.18350079118363766,1.5287671089775476,-0.8956973394696931,1.433754555732181,-1.2371553396437032,0.6650122311954221,-0.023306329424085493,0.2928646699205816
-0.5964388405634772,1.0230735928025911,-1.0046557352594496,-1.8589762726695858,0.8253024948782268,-0.757498681105155,1.1849963793096685,0.7096018146998644,-0.3141630465298951,0.32044479618891736,0.50305161066682,-0.29450179132142396,0.5698801268867608,-0.5408249839371854,0.47090624154607635,0.23354910113843963,1.3327076188900486,0.7536060186179706,0.36655580948034705,-1.120783287228795,0.32588888392665866,0.4363659994976534,0.5326599837083029,0.4405824263624551,-0.9819357549867005,-0.696456969033509,-1.4426225055475137,0.4465760419457269,-1.919064545488339,-0.9895068088154286,-0.14393018748131428,-1.4550207819386631,0.2623559311334314,0.13509539329905043,1.0632851342368261,0.19684576809965834,-0.23460350300786126,1.0395456614023777,0.05967545772754005,0.06806040534450868,0.19478307624603491,-0.34251716695014284,0.06373512657747119,-0.36396251655124734,-0.7707672010008885,1.0290763420646878,-0.6579076465139589,1.0878186914561236,-0.576605635118606,1.0120784707892574,0.3486153728866398,0.17957165626924182,0.455375359843894,1.7776620572796353,0.3500536610776946,-1.478975316225646,-0.7056500575450039,-0.31452673338066,-0.9379904397321531,-0.7349140845464364,-1.2614276189829434,-0.7093876627602558,1.4280913364342607,-0.8449111353052864,0.6632759156904053,1.734848683728427,0.08786527042851294,-1.2895563061582427,-0.32945585924357607,-0.2138364564056627,0.2677977254966283,-0.7556471546556102,0.3929888756300489,-0.6809866153288,-0.03886408548730667,0.8973638319475454,0.25926555667653195,-1.0348537581795907,-1.5234019739766205,-0.3664430917380814,-0.49012523581767314,0.4953723309782531,0.8467755568787945,0.4568315723215997,1.7305237543322487,1.7230197676917551,2.325798607843962,0.7533120156102524,-0.5003917352049088,0.6287272733666892,-0.16154515343018802,1.0437041551536628,-0.2590401592555934,0.9281638508716895,-0.6253186734770942,-0.5008778100600854,1.0827456288026038,1.0888287693517558,-1.408169655771096,0.5031321088333625
0.10529582784381357,0.8190211763654993,1.373473773685732,2.0040448958433417,1.066284341078846,1.2140347856928615,0.8084555404390724,0.4342005942949037,0.4531516289246804,0.6503507658641133,1.4412984087615548,0.6621756641022303,1.67162291645698,-0.9895915958111503,-0.9732718773531104,1.380757001731097,0.4719951718419109,1.1101143894361225,-0.37388873930328465,0.7511359663194145,0.7734145735881662,-1.0135502107681302,0.7059442896169212,-2.1107492284659486,-0.6071685791010579,-0.6579693248871193,2.107443771112882,-0.9495691915959489,-0.038020836475358186,-0.5276442017526479,0.00013654539300670608,2.601377308208502,0.49820027715358195,-0.9090268164360582,-1.1767560534114916,2.120089181732023,-0.5999780338515445,1.0842040953318746,2.1634210164881105,0.21961009919517477,1.258562425760115,-0.1205360449365969,0.692107699186346,-1.3397493537383445,0.743835644727847,-0.948180580975897,1.5062820640044066,0.63846259699056,-0.29071805729572886,-0.6996993124894411,-0.4309613137284729,-1.103754600911063,-0.30210621460114856,-1.9568542220904335,0.23442582579227325,0.7316806973222696,-0.5529862512398516,0.15773319190026439,0.6657818796571107,-0.4083489827251905,-0.67977220477828,1.0147025983144358,-0.09292532860726142,-0.8146154884254166,-0.34130703876470947,-0.08963917283617967,-0.2604393934407501,-0.379721239242651,-1.1489114347428246,-0.26408366191077715,0.08733663326453883,0.10583627950512009,-0.48752934563691774,0.7761636714218829,-0.26738738237795384,-2.0665074657991616,-1.4840816922233642,0.38587955761888726,2.192278553659767,0.17091041405310137,-0.19866523645984077,-1.1242883708125055,-0.5086562832396591,0.2628750816806082,1.1708882444111932,-1.0013338385264607,0.5013300710279773,-1.2033518207338085,-2.1511445793397836,0.9022291348796467,0.7241075749246708,0.7432915069583969,0.528863361245434,-0.5437479667105649,-0.7735959986014959,-0.08266210045671818,-0.512634524063385,-0.7984172405303306,-0.04436764411206044,-2.802734896744801
-0.48947265845532006,-1.040825279756519,-0.26253496323333547,-0.7353796792297325,0.4533090045957177,-0.526292697251972,-0.6746375483160869,0.027894349333318358,-0.9618147013822064,0.06739426589551914,0.04802455950349557,-0.7655121175279385,0.591517896122899,-0.05163180347329631,1.8555512093301991,0.27254344695869626,-2.2920272765166505,-0.4654407559250049,-0.3209548567225248,-1.097927960919722,-0.09749958588546039,0.9898382513908849,0.9119266557123964,-0.3760351770892905,0.3169431223610122,-0.5161926980402332,0.17876152498097106,-1.0680390216037956,-0.5594767827426497,0.46238258001269084,-0.32245592410619844,-0.4800614770528097,0.985812085422398,0.3409776062668883,0.4333822192987122,0.0076978686095385655,1.5145896164414578,-1.1017509440576594,-0.5626896486879294,-0.40600122297830354,0.40195909945909986,0.3709471277573388,-1.1562429410392578,-0.27486642371900294,0.009367460011717873,-0.3636779380496163,0.3911594783688732,-1.2731641269406029,-0.0019510599522554685,0.7303541402359687,-1.644319403407085,0.7889004481817595,-0.7033090841050602,0.13613045088466996,-0.04758371161651547,-1.4662012574690455,0.7980203849427705,0.4055458916957726,0.5607249610293326,-0.3925601205717928,-1.1768669125064537,-0.49744014228444355,-1.4438934761823126,0.16944646168520677,-0.28460127912074584,0.3385430511112604,-0.23440033296291796,0.11552838000405173,-0.016654395669637976,0.15100866911250538,-1.7004058163498952,-1.5383509672294036,0.6420271486927864,1.5922864073711918,0.06252783710748014,-0.857637284743961,1.4271245792728702,-0.17735074985068622,-1.0835987683500137,-0.9370119834730739,1.4332752856690654,-0.899890921232428,0.8135075523856342,1.2047546813675276,1.994377157865395,-0.7229156377364039,-0.8462301793493808,0.5843137668555901,-0.4021159298651679,-1.1541930836293222,0.735213217303056,-0.18846631564411134,-0.7315969913702791,-1.111693934136796,0.8202781599674758,-1.9045132494691546,0.18036182180643537,1.027174167949607,-0.34726381059722156,0.7869930396647941
1.0044224617825375,0.13053089356941644,-0.9456649344286148,0.9746515060581924,-0.41744647333475,-1.1214896180246703,2.2046160961104047,-0.0711122127549631,0.23241506829978875,0.6682165981064218,0.22946629306980415,-0.26276702113155365,-1.4186153476096723,0.8375173327365569,0.17828034717122343,0.1621136424786532,0.75351408202682,-0.5904104255903244,-0.7985153988780372,-0.37786101946981,-1.2159483455672255,0.48286191027793623,-1.6894894129192959,0.01597185027582011,-0.859032491237267,0.49549870450159583,0.7439022579337865,-0.9192511372812497,0.007482192514669152,-0.05500303269237357,1.3026553470637996,-0.1250508448206365,-0.4897431066581486,0.758681354013299,0.6071446611953055,0.7024132456265021,0.1591382052669456,2.913640303369842,-1.512197622352485,-1.073103408304156,1.5627971152673494,-0.6863666513360608,-2.3667103540401158,-1.7992692407288513,-2.748881998138331,-0.3210990301470454,0.9566349481525213,0.31073802975898723,-1.6002462126014738,0.7808226854997894,1.7792204123261035,-1.9091224656862655,-0.7563095654624455,2.089669291654636,0.8079004834546023,0.5445882006206658,-0.4300037718038158,0.11438744421258583,-0.889040730422603,-1.5330484210674933,0.384736377170222,0.6162604260342877,-0.43223402781657755,-0.7561701056379356,-1.1406683370421749,2.5080593398462345,1.3798597850657073,-0.22125255211819744,0.9260770428487122,0.4287025585870402,-0.4150087736185564,0.4221417568218473,0.3384441295663059,1.6291365440719092,0.5264385826287352,-1.0604988666121435,1.5669488086296914,-1.7946347541990573,-0.5823567487867786,-0.15530018831199005,-0.1502760647839304,0.9749627056797197,-1.524873856425258,0.6429821042637047,-1.6200384505545644,0.6084444058888752,-0.7321420023857151,1.8232755266928922,0.4962491352514239,0.47953604476842754,1.5203225438650907,-0.07565977868947416,0.2141849128745151,0.9636019858428515,-0.5359537288960506,-0.06579555765879473,-0.5670862296551072,0.5462143703011347,0.380038900471626,0.3536018214732559
2.4601132486490163,-0.31197625126818507,-0.3517911933307582,0.932200074780431,-0.23428074115522812,-1.5876919149519184,-1.0746421465785276,-1.4368555098662787,1.9840471111970457,-0.5485478151101488,-0.10180572707707557,-1.7816703216464171,-0.11102091506457147,2.692931610264458,1.1230417796019025,-0.6849375009563833,0.45196742228726344,1.2241367017865408,-0.3898877536909278,0.24078258687673254,-0.940764111700784,0.10536994157794838,1.0224819311033213,0.06594186459487376,0.8301238673811827,-0.12050730773897259,0.6338600712901086,0.9028300409743194,0.10188062661927597,-2.276075143688084,-1.4974151876172335,1.2016618870104114,1.603430346328909,-1.1674150556146679,-1.218645079188626,-0.3975980548129774,0.22021511623166967,-1.0863328986929093,0.2087121223616258,0.24920566506925199,1.2107148386424897,-0.03641969958361598,-0.17518054928949958,0.8269196868616139,1.1759183517006304,1.1032756400375057,1.5318834120233316,-0.9131950315727496,-0.03299722265027536,0.1882653251809952,0.06634543646678312,-1.0477528361156023,0.11096895885493122,0.8677299793825198,0.4193726474919318,-0.32326930222135164,-1.3874624540147418,-0.31247022347993575,0.23469914500560943,0.23992308713740537,-0.16185391039363906,0.27891579808726347,-0.197668071504567,-0.4891584238231973,1.318667265850673,-1.5716262796525156,-1.012095800536197,1.5192500767936854,0.20799891360093797,0.5103797810600277,0.6801929729775048,-0.31436343615227635,-1.3278384199643427,0.21392400567064043,1.2878861292410244,-1.1471726952378591,0.5811801103818395,-1.829829624333335,-0.03451374392921597,-0.9169552038528909,-1.0182093456839587,0.4391318019494283,0.5464699757355065,-1.3437142085026492,-0.26095202500306147,-0.312229248969879,1.184842327543703,0.2554121052234595,-0.575151274789459,-0.46885097332595177,0.2691124985538399,-0.5558833791657977,0.3112269660321152,-1.36973998444255,0.3355831899914614,0.993527563267487,-1.2504300007270515,-0.691068797965737,1.0353173172733297,-0.5005688748683597
-0.8277892635044265,-1.9537627106899478,0.9970279268417124,0.3959438673149216,-0.5903383616552716,0.36573693223079146,1.3828265954922334,1.1075211365829307,1.169087880401044,0.5558839255098004,-1.5669126394856216,0.3944970700527178,0.7565087380126135,0.7539485811105523,0.7156037424470177,0.19940183851755486,1.0041357698822628,2.2815895161814135,-1.5256410783238115,1.1273749604190393,-0.41588476266311836,1.3903794386113129,0.23696230538415017,1.2914363925006898,0.12312144956973285,0.2782938639149904,1.0205017252571666,2.5437035301823556,0.10790477196540516,0.11072210312758318,1.2422881792424587,-1.37011274167427,0.37890556026093475,1.032411868590078,0.056556322957671844,1.7927084737514982,0.2439928891607194,0.43394068843063477,0.693723974540964,0.7028767621168758,1.5907813094699321,-1.7777708789349334,0.7548818756516595,0.0894179584234441,0.25675832724858083,0.9487348314589502,-1.5921474871633012,-1.3886000693580856,0.4612959812378732,0.41015466767172154,-0.22940348086084086,-0.5674101931085596,0.6587249802243138,0.14911229392165992,-0.519512911381635,-1.6360694728547303,0.9033557991194437,-0.7856513060582624,0.01410375874790519,-0.1064804231589807,-0.6754774389350751,1.0534326810782226,-0.16729617862794946,0.3444721443732305,0.24985283850966883,0.6398090080836023,-1.8639984327692227,0.2018997838254074,-0.854101844462083,-1.0420247869333144,0.2463988536452068,0.8799437078829625,0.09062218750341268,0.17560864979861585,0.09802493145169804,0.609668749722499,-1.418796612720878,-0.9798126967326461,-0.4979412245746779,0.11834121045770114,-0.10653722724285804,0.06457084086340262,0.5627230515019235,1.3911255128238713,-0.19449649519288634,-0.4920174911126317,1.4297791897364738,1.8018336899850418,-0.37146138907177895,-0.25473285192016193,0.4320915414445137,-1.5145487433767066,-1.4970015632485982,-1.2033782272209816,-1.0216249471069088,0.620441526836441,0.026436505479951636,0.8418265173533083,1.159145517343892,-0.18344029814109583
0.2909443305727665,-0.6442957801823025,0.19499727353705812,1.382931839317778,-0.8362777232088366,-0.6801992234324422,0.22352641159595368,1.9865192741110382,-1.0487225675611354,-0.16352144681342592,0.7310743590386568,0.4059143567135383,-0.36700069590064993,-0.44317333019777183,0.5243373773067541,1.231745456042859,0.09371926546587347,0.04667287512213834,2.551787313128901,-0.4773286998591253,-1.7570434410494904,-0.7481978313500679,-0.8079696988098419,0.8665771208134558,0.5131989784642003,-0.38055370224820945,2.3647642105853333,-2.210620072156158,-0.7833575112705018,-1.0165658826024249,-1.2342203032046082,0.32644047602140314,-0.35828919144643206,0.16922415213899675,2.7884756524964436,-1.1211953139923716,0.5335935793771878,-0.6622616939377565,0.44080202081718034,1.0311666390891987,-0.42693499464470086,-0.825609027441166,0.7958785192097821,-0.5240012438683915,-1.8164363044302,-0.3119941170050831,0.3606923207841655,0.8303287671927527,-0.27822462049850927,1.8987415089984092,0.7553907726263438,-0.1636739754130517,-0.1807670092916421,1.6431487670816822,-1.4978332591414363,0.7892579799007625,-0.08763314876048525,2.3447120025213453,0.14525818018084746,-0.974249548084312,0.20514512098193777,-0.11551782843815618,-0.8087710851123187,-0.9878821946667491,0.4665557628041386,-0.7992900696710706,1.680869320402227,0.36200507598669307,-1.1294787969269713,0.9584490066479335,-0.5735120610496813,-1.3190620816931782,-1.2910679134656349,0.3797057420895385,0.7406398762643761,-1.119448936481426,1.7848542666542007,-0.33060761084526197,-1.0074613573331348,-0.8286075221283423,2.5954594119252374,1.6949968980936643,-2.226102492685672,1.4578949629536933,-0.11043919080491171,-0.1566892177282524,-1.9644346484254125,0.06499663463754843,0.9688834159035202,-0.22691311376425422,-0.5470603506520538,0.9555568780703831,-0.6078169210272857,0.044084158812332803,-0.3994580578899782,-0.4298965985576051,-0.06489508125456966,-1.1936279719739702,1.277956597084842,-0.7476482288544062
0.9514695189158044,-0.2827949830238668,0.34990023132628517,0.05828056166891273,-0.5612661695774387,0.927141858054892,-0.9518296651736485,-0.2648412166457274,-0.5698837945586013,0.14188692504642045,0.7731548218596213,-0.38617886200152923,0.6075122721610398,-1.0149534113053182,-1.3318045140795922,0.1792224215486586,-0.6332898038051078,0.9318934600080584,0.052075775952396076,-0.3473501151388899,0.35963460107092604,-0.2832507585371928,0.7235881546868624,0.40038193493603086,-1.6704573548325468,-0.3002264170746476,-0.35946774396494197,-1.0729567466418997,-1.7337883567194565,-0.6113377199662832,-0.8874035813494214,-0.44366106087257295,-0.3203936058820633,-0.43149662945723216,1.1222191771433643,0.306980875610932,-0.042629123377841666,-0.36313862231554606,-1.1390131085442956,0.2753328182789348,0.13604266735252862,-0.22977106528686825,1.4314277188736386,-0.29837804722540595,1.345397947286602,-1.1528813864630514,-0.02080120835245873,-0.5461337891562772,0.24567412218699405,-0.11628628367723494,1.2993839026708351,0.1533528997753759,1.5030124517359977,0.6610959668050913,-0.35927409632231416,-0.48476061806396054,-0.4615990489101114,-0.6627907931061013,-1.165504393489217,0.7674619123604361,-0.9985083298064198,1.4313853586875684,1.606536643460643,-0.8617914292905783,-0.06465358139865901,-1.5065150748712817,0.6568995410584587,1.5596828024155627,-0.09771274190402449,-0.9796313773904621,0.19541837220563593,1.9989411914287731,0.05834958850990243,-0.31730327888897547,0.2315381217841392,0.5993141087233871,2.124778824098335,-1.5008728646335379,0.5389564785004586,0.3288217514989907,-0.23390133056100415,-1.2682128664024492,1.2512598866060707,1.3589757972632512,-1.5036274592426442,0.38122175692117144,-2.1536979999031782,0.9103548028917915,-0.2459501733424217,-0.7343952777005202,0.6587137807679422,0.9604628406622124,0.6947934644746773,0.32025779078493444,1.4442939513025481,-1.610394105081763,-1.316883900918297,-0.9811351376023233,-1.7418602974141528,-1.4059253876698197
-0.13495227734826304,0.8687224823402733,0.45886780783522274,-0.9209302071122899,-0.7704341898884876,0.9292077140551144,0.6307678901776472,2.4509814581965466,-0.8496556014312573,1.0872139513626207,1.2441592856025545,-0.48213164003072856,-1.7705584831382413,-1.3401230154080974,-0.5760870411860103,-0.754930111241684,-0.8608388689538038,-0.5881110723582138,1.4617176474894016,0.8123561776053028,0.7798904553456241,0.6997776215547419,-1.2927257653958488,0.4136317741059329,-1.240029362574449,1.1130897631004613,0.9331896485277197,0.671022817207937,-0.43381890553394253,-1.4488335645031416,0.44136510585786387,0.2992361086865023,1.2459106259772892,1.994538201351817,-1.2517420976660714,-0.3255559630734268,-1.5712728441614654,-0.06375402430076398,-1.220190535331335,-0.42330985967249457,-0.5345891028197532,-0.5417587457511047,-0.5144754823175341,0.3562474322696881,0.29219773598662324,-0.5923191644714882,0.791930461946626,-2.1278812633919437,0.34689393886318176,0.280359095776399,1.855786489566175,-1.6279305570831628,-0.8621536604643933,0.7562065683358005,-0.7051328139180836,0.7270331855706439,0.27812756769862357,-0.25954739305290875,-0.972972532300407,0.3444096843711282,0.3697556977633142,-0.13149498871925125,0.2611557289358019,-0.1598323903937454,0.5536991239972697,1.4000396813207892,-0.4787450140094504,0.6304683571040652,-0.4378261149416671,-0.7667257017158868,0.7646632951889721,0.42765333433536845,0.40540630643595,0.45131875459717,0.5630291612592268,1.5518834187034123,0.14338304068237717,1.7743445212432694,0.9664967681761641,0.14687717315503415,0.4895874939276359,0.24210129554985477,-1.9584529386898344,-1.5775703841107829,0.16634082365031827,0.465886320362978,-1.3160572318928443,2.0591831089793615,-0.15970694311394137,0.5454065376640874,1.1725629432365257,-0.577109081838705,0.014171137882196611,0.583233888155562,-0.8074522273026596,0.4385833041747287,-0.6590639602027225,1.0623782772118322,-0.10909383546053912,-0.6857338118254425
0.9603692823188091,0.07112860161074765,-1.4861631778289344,-1.0054399252358641,2.4931514951453555,-0.4950083405588226,0.30936142244258064,0.9450123487678498,-0.5465611979285581,0.3513562124483793,-0.6546709481564585,-0.06551022344262347,-0.8880936549681254,1.280170142785362,1.2833573852439981,0.8616265713214785,1.3709482984428625,0.9132504938172141,-0.8964821902368478,0.5063980378309625,0.24563634183875827,-0.5544505163676869,0.07461371471255313,-1.6712730392118358,0.9760449272323602,-1.5703118389902393,-0.12136643231704979,-1.7677778600390572,1.8148322795786922,-0.6524575406729823,-0.5519328913342505,-0.13818232181810214,0.7170448004864407,0.9219357445269716,0.4919693136306559,-0.3418824669459459,-0.6928910840028333,1.8257222283865027,1.587532379453432,1.803322618816051,-0.47460934806659694,-0.934173444600479,0.6283893248018863,-1.3273058380716793,0.1662465932272946,0.23975138750726996,1.005886232725828,-0.8443631075732062,-0.9440238611439907,1.4386293594278927,0.2093733561220576,-0.034913323144868565,-0.8626684809589551,0.1923494716021682,0.8920837193596318,-0.1721125022916401,-1.7747649511703836,0.41729594886442783,0.9303005085872541,-1.659601386558776,0.44872169398803086,1.5487392923506544,1.0836755222846712,0.4765473070455173,-0.34209132553939975,0.05480302684157226,1.1936511608526417,1.1693746143419705,0.30851254088076435,0.6570184681637647,-0.9769466361548872,-2.0172890104714636,-0.6622551995048578,-0.21926001564056055,-0.7633928174681246,0.3551736246220015,-1.139402160112638,0.18250829890741158,1.9493412466483448,0.9292800260649768,1.0715680128587997,-0.8247774476542625,-0.422290088647478,-0.6089585577432498,0.36181544988438796,-0.859332217134743,1.1483927131796217,-1.0733173928680046,0.18539156089400066,0.15113678717785825,-1.2244268592437069,2.4105367160514612,-0.9716869137907791,0.8748718302667016,-0.799709170621693,-0.3341988618577531,1.0209019949022307,-1.0302842894020792,2.093362158799933,0.18131580797800337
0.13887974889424376,-0.7777465169196249,0.7614788596225976,-1.841841348829569,1.1410115844001254,0.15381246671552315,-0.07149625513239649,-0.6809709095957519,0.9500501329308845,-1.0582099968885934,1.2731040374280653,0.20734195041280928,-0.19864993048114696,-0.501966237841952,1.174252571121556,-0.6836380536735559,-0.30547604522449645,1.9500849509148295,-1.1749472098711862,-0.22350859682844681,-1.1164853918264421,1.8430042385120151,-0.07350986850889946,0.25519753463270095,0.7874957117815252,-1.5324328886488654,-0.24087195528263194,0.2644030781481533,-0.7743582927035203,-0.5056269558051384,-0.3668471785983893,1.132687781883276,-0.8552432662977306,-0.6661986501130416,-0.04536415402895471,-1.5896435800691013,0.10454601757933744,-0.1081591640667439,0.2840209529428887,-2.5797631187586134,-1.1106835772492518,0.3345279138527611,-0.267563230452013,0.044103658792677566,0.41829855530367205,-0.6843009440200891,0.8520121276640551,0.4966402463805508,0.21763615335028527,-0.1505619161888683,0.3229378695144351,0.5956393674853151,-0.0822447961620642,0.3048728252889163,-0.3307376508236688,0.7683643787033667,0.44398567537795636,-0.02555784115624487,0.4521885783489945,-0.5446002924276971,-1.964811134367507,-0.7560268585833011,-0.30846916129519886,-0.6496961084111296,-0.35618122211592373,-1.1434431341222027,1.3491937964319534,1.2298103821769666,0.21703076079961775,0.6359963637018203,0.09283352703266591,-0.03690083217137056,-0.6501660697501117,0.09453953818639306,-1.2950312756940756,-0.13096761432179208,-1.4033851924238732,-0.4063392686682119,0.6858908779110832,0.13264725678184086,-0.7833798493290832,0.2659031949621182,1.3697388031927529,-0.16014756066403402,-0.320797030754641,-0.3869386992137986,0.4673368208223447,-0.25849076788830566,0.016005103332650206,-1.0883989176094537,0.8557652660937844,-0.016500647002517375,-0.3476311668113556,-1.4227750402404544,-0.842588084484031,2.0184898469842554,-0.69799249904156,0.455515706034381,1.3082208638977542,-0.11038991318283757
0.20653230831842442,0.4357997365841209,-0.36291811216305137,-0.16666461862013754,1.5852387002987713,0.20208693187110874,-0.4066363428880146,0.14712024353343423,-1.4035960091793813,-0.03649516115391831,-0.22419187262507073,-0.3148610583703813,0.23802287327144497,0.651779568439682,-0.9282478866636336,-0.647137074632821,-0.5410613539670613,-0.6725047082726929,-1.2778755289243446,-1.8889543793926735,-1.111940785236341,-1.089793930536401,-1.5831428167545643,-0.47277908322852785,1.516343536185331,-1.129801652722052,1.6453084346547906,-0.3432892524220504,-0.05127718579436117,-0.6497417861458024,0.2730981335188518,-0.06592272859824937,-1.2616617937183476,-2.0104308535859325,-1.888083879102875,-0.5946129460792561,0.3287433251289213,1.736292836034351,0.40174748076061334,0.8558155650993191,0.0883379123008296,0.5654211328015142,0.3036298380793526,-1.1975764975753542,-0.029401269350944618,0.9885254055200773,0.067284080659825,-0.6929254064679357,-2.3996187896339953,-0.8070331097213774,-1.0139483269890304,1.022911762364132,0.35304545756966577,0.6057656557591967,0.1535049061324564,-0.3886208826674225,-0.1721051391218658,0.5948435299318683,-0.21100766542043278,2.433350167727283,0.14613576339887144,-1.666344869508631,0.661314628037738,1.4400175281288332,0.6105223192293863,1.5125530055498035,-0.5589670160694032,-1.7886911783061805,-0.8290730102499978,-1.371702745546843,0.10806157635953223,0.9115258272289756,-0.3226597319708991,-0.4715747430314484,-0.012338150288602474,-0.04644310349872474,0.4360679839814345,-1.303240139425238,0.23796847648004887,-0.09472656400031927,0.794329582376424,1.3790576574142233,0.02227155509294174,0.14714076989698796,0.22200653650719115,1.438993133132257,0.13436483562272025,0.9988830075543303,-0.3809153611379996,-1.524089265580766,-0.6397189812788853,1.3706355154634364,0.3697753166952706,0.8899887463826894,0.9622761946616789,-0.19038877770676946,0.7802331377866178,-0.6288456426732473,-1.5118838795395364,-0.5281582807559676
-0.5945290931861849,0.6395468271275689,-0.37685484305064565,0.01652084292081378,-0.7471250619161841,1.2324582203479884,-1.6726331918500152,-1.8657380629884803,-1.0425134296556238,-0.8428126235507242,-0.1428225205582225,0.019725127490969416,-0.6145725433384626,-0.3011869178940028,0.18659495755482555,0.5700437168455634,-1.778363880066932,-1.5789513409914004,-0.020931329525425816,0.23976362012676275,2.431003953218598,1.5741161876431262,-0.11998992499726402,0.9950077224616783,1.1038588778033844,1.4032165398043146,0.9806138916531717,1.619854909117267,-0.3031980951031204,0.5201615390680348,-0.8469790474246414,0.07681573873254359,-1.238533387218778,0.6164008606236893,-1.1373361279163468,-0.7121347667548059,-0.684311852366805,-0.43184153608573916,-0.1532845858709586,-1.339558305118201,-1.5891743559718834,-0.21700699741978646,1.3152268250880124,-0.7084774910106179,1.1718300282743337,0.07558700740377872,1.4750905423810148,-0.5776927976621508,-1.3052229499168426,-0.40993574506375097,-0.28586841876854757,1.2399307348159736,-0.5348409333891628,-1.3715640500007251,0.2949319716380598,0.6708020148850825,1.1296831278078345,1.204915405876136,1.3898180896412204,1.0100100940163195,-0.2929572418015996,-0.09614824881223835,-0.4033822186829283,0.35434325683379436,-1.7652314587469211,-2.6157715880205608,1.2709969029283514,-0.17260054010330886,0.9247886265297266,1.120149384202538,-0.4589928736176488,-0.871275874144474,1.3668525149886654,-0.917349607595702,-0.05936018361952004,1.03990305278639,-0.8272146724650196,1.8096769226866332,-0.2706413337698656,0.029862322962968733,0.7247899959109267,-0.7589986511444479,0.934384829388903,-0.6506002962611036,0.6687908501190793,0.16435000844221084,-1.6642152605222618,0.21210019844666864,0.20996778243173553,1.3975452409999194,0.33273874664445435,1.0240873464016313,1.405723656713922,-0.5697949916845751,-0.7524907903985188,0.23137942655155708,-0.03811390024209167,0.24612847015980188,1.4064720651892746,1.8273616162375983
-0.7275680048986747,1.6044500199756533,0.3626148126700818,-1.8183829874406492,-0.6010086565348775,1.0379689605721862,-0.06772262323670893,0.5644264789962947,-0.6888838161855936,-0.5746590144235313,0.8101368357950629,-0.4417652690856272,-1.2338915409381972,0.5628682762250539,1.8590195370951337,1.6717674001984142,0.44291092125396186,0.48961951753706473,1.381472703406885,0.18161424134961718,1.2866884851286788,-0.854458450442676,-0.06761885523173888,-0.6316140873097625,-1.2762172813435635,-1.233936498759372,-1.2955409234781423,0.7497094737631513,-1.2336140698884233,1.004976869419941,1.2061882632439735,1.492830810401432,0.4506283382281582,-0.7732894152993732,-1.3724357391154194,-0.16485909260520465,0.025276410689080743,-1.407740209991193,0.27472722054529425,-0.8117769559843764,-0.04650344159561991,-0.14426202626721601,-2.3976418825210706,-1.0375591843344258,-2.4359856900580743,0.13678363169099017,1.8134233616144875,-0.0858769762418919,-0.056135124294333136,-0.13981159526796275,-0.3047025518956128,-0.3900713468626177,0.5130824548225544,0.8366536588328912,-2.222904737405526,-0.14948978427933352,1.5303816534017889,0.4950738753423873,0.6416518364226417,0.5606713358506806,-0.13334474597553692,-0.573247662659984,-0.6952398263563737,-0.595129467652769,0.9039320665000405,-1.01035147756343,-1.3982437224017754,-0.1803981654089577,-0.5794091699553622,-0.41191175876277586,-0.336705611281175,-0.965459694668828,-0.3912633877780507,-0.4816328284497553,-1.8009507055381773,0.07174060550214947,-0.8105726179979101,-0.6263059127697326,-0.02028560841493008,-2.4310173657154976,-0.05823418349869203,-0.4117016596888084,0.2501510498964637,-0.8893124510972461,-1.0648961919765627,-0.6644629837767753,0.6810166310627216,-1.2418013267071664,2.381758516423302,0.05215696212381612,-1.4019605720212032,-0.9735386654412932,1.1974872268382406,-2.5632775409480377,-0.35177577069291305,-0.6846061227215466,0.36409844906615024,1.2484802011135832,-1.2747161965839735,-0.6945757498964709
-0.5152989969916886,0.6630642189747847,-1.0378203226911547,1.25682088530275,-1.2868698865888941,1.2944472619091028,0.5205136158685854,-1.2545241202377075,-2.1833404504330063,0.5216183731161373,0.6913129450094784,-0.6377412883794408,-0.7904269146524923,5.868608045911265e-05,-1.1324294840689149,-0.24313407497975303,0.626791697486415,0.0022176575116060614,-1.337780351502112,1.6447341126669641,1.275632973072086,-1.1117999201682522,-0.04316736319966411,-0.3168716557626105,-0.8891150944818861,0.20828080059070284,-0.26853203235958245,-1.2690291661302793,0.20170611006392838,1.0077315356395276,0.6771081303001125,1.4739282364928643,0.1579352171525333,0.22144486864004248,0.6346751248439083,-1.8999286451362574,0.19692190948200095,0.05646713680484293,0.21610798248772575,-0.20673765957579837,2.0128401879732825,0.9291271468685642,-0.9139923101236859,-0.3576355941429408,-1.467750999569623,1.9649682795115029,1.9038291931422862,-1.2900607910527084,0.054357756708115997,-0.6386187010733398,-1.1037058252818561,-1.2234137539154846,0.6326231662152944,0.6709244077759235,0.6952403406240901,-1.5585211095249007,0.5563392333052051,1.2038946907878463,0.2767007798298924,0.6400954741248084,-0.28908117535288164,-0.41572348092908545,1.4747103906525205,1.920239071343029,0.7108403951220713,0.4411658604185294,1.1322361787033601,0.9071462667194387,-1.4277739459754404,-0.25747015230636044,0.0028519048664991187,1.181224097411824,-1.9755342489125622,-2.060260752105686,0.07984576224958985,3.292127720297839,-0.8031490009324,-0.0933627048367852,-0.019818216116547032,-0.09882385020914147,-1.9736216580217874,-1.1315082341417741,-0.7819568229867386,-1.4585755259921593,-0.2808947261735895,-0.9567809441072316,0.6619587674643969,-0.6913687089759455,-1.1212222045162092,-1.5276756393035513,0.09636170969668358,-0.7507796955079863,0.2500313082152281,0.4026349830510886,0.9570283759307576,-0.5750998996336247,-1.0315316114083137,0.9843418065688814,-0.8049561232781975,-0.6337056804485682
0.23034875788189563,0.47994147492678657,-0.6374373490619807,0.15786507446060655,-0.40397621968987635,-1.3472906874602868,0.19492757113511822,0.6678013614548552,-1.6510313898714915,-0.4194736070983547,-0.20150658116819672,1.1130924422003774,-1.610950325044549,-1.3585063872298444,-1.160162311430282,0.12222667367674604,1.3354476235152575,-0.630072615648056,-0.13799817061491396,0.2033313603600606,-1.2227963221926004,-0.5065617674679992,1.2165760674316315,-0.25324813272984004,0.3189614647803886,0.5595288295091218,0.2070641565555577,0.5185306126274876,-1.6328371892969005,-2.4888355389879395,0.9292276603376687,1.6696167338276369,-0.2925851882562239,-0.41736041995761614,-2.478094423869518,-2.204366367602622,0.11007503698607501,-1.1935903854195073,1.97065753570537,0.24055234177085708,-0.18318189942605276,-0.4622121132371726,1.7014513235698299,1.196589681340044,1.0399895694226788,0.4641882855661699,0.3048467859418761,0.8457412475870882,-1.687224359956379,-0.15944445729971365,-0.025400416812347056,-0.9542048627465416,0.448068940372331,0.2054098532232629,0.46315120601050436,0.7344443972546507,1.2729601268885755,1.4218634997728645,-1.05846232890352,0.47887834337445395,-0.9213830986897535,-2.08568139908327,-0.08068904776168521,1.5458432037732455,0.9489178554916985,0.9221597495625936,2.453032408333544,0.061505604756708424,0.6630012415814963,-0.05057443227335514,0.008280517939557391,-1.1363450114031155,-0.8471208967726663,1.8859713206967674,0.029576162428465662,0.5589527370222999,0.604376829072317,0.01752090073346254,-0.9511028829922419,1.4948305941913882,0.3506934055616694,2.156056926556232,0.25032279858380974,-1.6560826495553496,-0.05739791753233706,-1.1448246633518606,1.0644012603463233,0.13871793273894045,-0.46582846332097716,2.485672962824867,-0.28557500413231657,-0.8713440377904891,-0.2869966069010287,0.6769884394700897,1.1147577534845878,1.0140285968906702,0.27766702895202533,-0.4159403642445397,-0.3892134135447948,-0.000599340060886244
0.9553936372768553,-0.8468272329801213,0.5379786570926228,1.924786003436778,-0.26209069501573634,0.6823242667648948,0.35380342976974394,0.07318352399617496,-1.5480890635984943,1.5004090194956126,1.9521633887933623,0.6982792945476832,-0.5071720113923661,1.0966860849195919,0.5026903644627593,-0.5347689706104607,-0.6604484134080936,0.6860288083896253,1.6405451493212337,0.9388536208057954,-1.7464724091882355,0.04743608486160778,-1.278686334678998,1.2543943224096021,-0.4820931778834231,-0.4741301951201579,-0.662625551514726,0.6325798931174818,0.7003802530582144,0.90321031786791,-1.5656804557059094,1.950335686702134,-0.6995609631006415,-0.07132421894250408,0.058727832557800355,0.27275599541633544,-0.6533024212857829,-1.3803892327103888,0.7299931008087337,-0.041752695896520184,0.09576982160006124,2.0049520690599745,1.7950618229479325,0.6652272808293247,1.0160258243683828,2.0878082628539745,0.8717064950604518,1.3868207802916872,0.44983782028885394,-1.2337279724496146,0.9570828616390626,1.2550383800132743,-1.739376866606457,1.106783028314954,0.5361541629690305,-0.06997792796937896,-1.074557748014135,-0.34844037476828116,0.8228189925941607,2.1100674205846883,0.07756571565689845,-0.5111595475114069,-1.6716503563614735,-0.21875598689500816,-1.5243907146392253,-0.8241006355734118,0.2630286508196625,0.31595143749689397,-0.5596165954405462,-1.1312628120031154,0.08608909232319428,-1.658671589928987,0.3707666411096213,0.5882756547956861,-1.411850631169224,0.8706628839998316,1.0644724902006535,0.7745012451346913,-0.6918396396794148,1.0650398561043075,1.1942471313102336,0.5943433242033926,0.0319091600860654,-0.1542659188093286,-1.5003020037533856,2.1391065597462586,1.0405460721406419,-0.13335271775559115,-1.5790702421576002,0.34669284325760796,0.044925121386283406,0.20896907507765108,-1.291630319091235,-1.2265555927125122,0.3379830110501598,0.038524664686893986,1.4043992958027343,1.3858139503953193,-0.7240339672177357,2.2113140449053588
1.1233476647195502,1.2667894921187701,1.309376753834654,-0.44780513877237366,-0.7836326032095672,-2.479362566144297,-0.8373122275454954,-0.37781686223136396,-1.0836426232037153,0.9661252452689372,0.7615445557501082,-0.7831192115549067,1.4697378583129634,-0.44561885516101185,-0.00011754252172243987,-0.3176151982488001,-2.0831454187587775,-0.6756509882876757,-0.2955933148758279,-0.5994853097890829,-0.5297952595179359,-0.689925383188979,-0.8985120366455244,1.1020948577515879,-1.666753945057321,-0.6209815646617567,-0.6725865604899501,0.530892370835291,2.0836531927532085,0.29908316382818284,0.9850564825080738,-0.3423984653036853,-0.9973060887149856,-0.743993477445004,1.2020421432583308,-0.03786389760569778,1.0239981400608738,1.433066276577571,1.5609793750496455,0.010093853103156365,1.5815874881803957,-1.2641824387299638,-0.2758802083945673,-0.15105093718577728,-1.2859968332062532,2.0273876243320923,-0.40133007851078006,-0.037044107645183996,-1.4628815707530207,0.6348777417282049,3.073785174142241,-0.17843314839315674,0.46764929337709943,-0.027226438379310863,-0.42126534371936825,0.04256938464258285,-0.11641598045768625,0.4933962242878682,-1.1394979535606633,0.22689395776293478,1.5468978460035765,-0.7770849696114879,2.496509924670754,-0.21215531537628474,-0.8325679861442361,0.4779252295002152,-0.6968177153399818,0.2967105912453659,-1.286110837503039,-0.9071926302385255,-1.2185921606029106,-1.143063610216829,-1.8659345213289535,0.9346878081034575,0.4502608251538219,-0.4739713352847104,0.8488280154113731,-0.12025462080628407,-1.8881458345713156,-0.47054678401761363,0.31047603262643236,-0.012641960901348077,-0.4174082135010362,0.28235151892281973,1.29820672565111,0.3999844615446381,0.3990824687058268,0.8001956258972494,-0.6591869347853456,-0.18615497596761071,-0.5964948653946313,0.9994838651246992,1.5276290123263667,0.6179002046984247,-1.4590609450256244,-1.3340815080274147,-0.8588800013616598,-0.8206224385796363,-0.2806676939123387,-0.6703704860441869
1.709182073860524,0.14911944186676754,-1.277465017405301,0.6139294153363807,-0.21958943263420097,-1.6013345350537056,0.004366755759023494,0.07215782443715847,2.3382017756697424,-0.040362843417746194,0.5554524386125786,-1.014300847481621,0.7920844698360857,-0.4445211155452181,0.6991188670158784,0.7348531536183869,-0.43147238133499877,-0.7384115269446105,-0.1893882093710838,1.3127615796077101,0.6021221162786538,-1.7831613499427106,-1.0459479810597556,0.0702891659419248,1.1870479685612916,-0.9146296621104381,-0.20590581166310298,-0.48191009731996565,-0.8224267977237738,-0.6417381557511531,-0.4084804128848145,-0.12051634204883128,-1.97498472147731,-1.5388047844032842,0.7567434832960465,0.718787283610762,1.3482765366210783,0.2973726508769249,0.8383120635580519,-0.32045459412176236,-1.3950030074699242,-0.056557824781588086,-0.24061484933863728,1.0907774050848993,0.0063323379070262635,-1.3063366736926498,-1.6894331807225844,1.8011435614154505,-0.3101317785512857,0.27384484779546975,2.5204400700267504,-0.17107034256476394,0.1088024517027937,-1.3329682853558338,-0.7827048401090816,-1.0610502684361847,0.3615027755851412,-0.026841122043799622,1.4101294872752281,-0.2629818418980034,-0.23476903713299488,-0.4832859894229314,0.3817610646971166,1.1502972007738677,-1.0376503509052888,0.7719533669132499,-0.3347032744147444,-1.0638560213794734,-0.9455010786046649,0.579374628345412,0.46252871462799333,0.05088926317603831,0.6029420247753624,-1.4579070318562966,-1.0889136976325289,1.035119435670154,-1.291578007812276,-0.8849658895766054,-0.11799096739004596,-2.4710695281222192,-0.011958114442987713,1.5495302740336203,-0.08521592394930494,0.281894728016572,0.8051368239717485,0.224648519775223,0.3460737751801423,1.1072488339982218,-0.9261060886599638,-1.0389343557519668,-0.7843901559696566,0.5435502493328171,-0.20208847514041575,-0.3899778002695772,1.2779562217121265,0.05368897470738114,0.9130698760264301,0.29969412196656126,-1.4885624452652269,0.1233747853770299
0.0983357811106563,-2.391132514880582,0.6275899159493902,-0.570708392043133,1.5543976388014624,1.5131671652693697,-0.08756303244804386,-1.753155468679596,0.11984075645477253,1.5164542617661596,1.2521589976182095,-1.6010000235730975,0.5443895291768829,-1.2075758623069541,0.8416840748992486,-1.367026207908004,1.7308498923135631,1.9214380837885028,-0.9655603776447178,1.0325263828442344,0.2466388088653416,-0.584145613426486,-1.0421505765034504,2.1475054786648893,0.18526234221289323,0.45813313602164824,-0.5092453635364341,-0.6110388178930459,-1.0934634175489246,1.0211170254804762,0.45879217287376894,1.8089903966241798,-0.6499591829004422,0.10210682414443274,-1.4834756857362672,1.5630353945561242,-0.1010773166130737,0.5520190521245188,-1.28824398889251,0.5055118374138078,-0.48353229126252206,-0.5996462311619105,0.06441891807726795,0.24248835826276435,-0.7976042827991722,0.3890887195439512,-0.6007796181212463,0.791089632596879,-0.10501386133065294,-0.16800383470629296,-0.9040716121101114,1.0116450200163865,-1.8311506832251174,-0.632803423288936,-0.3447381135172545,0.43786725481121175,0.08263618254304546,2.084186290646825,-1.364150891626339,0.46931801193622585,1.2958158347705928,-0.5407196751323455,-0.6128259568188295,-0.2619880239698326,-0.14006874461791308,0.8956434842750833,0.7120168895027095,-1.431878356475721,-0.39359830495522935,1.76580328179273,0.49310464265860615,0.9845358811252066,-0.5331551785610545,-1.253292639414725,1.2189992797301166,0.8660769631804365,-1.1400985070301946,-0.022163248809928635,-0.43298568354088296,-0.6448240115782766,0.16978201292605588,1.8281708322353274,-1.6265777548878002,0.3509116749960346,-0.0726749433217681,2.322004799040098,-0.7176058605793846,-0.2586694747484327,-1.8562872017677845,0.07530151286397573,-1.4457072536247748,0.07908335608084845,-1.115870352295429,-0.04722910236387163,0.43680637238985304,-0.2646602034496116,-0.37643400255533094,-0.37199283604483513,-1.2579981501669415,0.5471346528830846
0.04244883610593261,1.5500706106971527,0.984842771675476,0.13644567969704594,-0.09506684154759541,0.8557009878329941,-0.8216319060776488,0.1610968398230907,2.4866042564141337,-0.14153607426587078,0.24635230304495648,0.43915635328957603,1.1178631083739625,0.6253244366072296,-1.2751215822234037,-2.8492461633568924,0.6567208313092848,-0.4386901260403314,0.06251377055562826,1.1638868485832148,0.9822371110221899,-0.1655012470887214,-0.6779213433572762,-0.9859665895699266,-0.2741010267377913,1.279566203744861,0.6765036051882045,-0.09950812303201369,0.6095902248541367,-0.8138726452382932,-1.2219024370916842,2.0921052795944517,-0.44351811400732816,-0.7892480239078882,-0.9562237997221666,-0.2807611977706256,0.541031912461966,-0.7719238823908741,0.08068829470606241,0.00950477137752797,0.4755989888939329,-0.38847955359989905,0.8860861043990671,0.09130509524070157,-2.2577318797564296,0.4981945519617715,-0.5149348500965955,0.8501767280494251,-0.17610603045237505,-0.8397774314409557,0.10385617414720372,0.982721532320731,-0.5422949242089121,0.33504431727116935,-0.846520369901195,-0.9439539844177041,-0.6272956896533987,1.2554889262755708,0.5045353007690548,0.32491044520905704,0.8687702684653,1.1291611232351564,-1.0381701212044816,-0.5606501820642336,0.14234406946438255,0.043473508322780935,-1.6888126274153716,0.532173274963232,1.185095363461665,-1.707459657639927,1.5982235476474427,1.339886165790029,-1.0601142788309867,0.6180875618247382,1.6246973773782107,0.31596767913781737,-0.9622072945571832,-0.6618209159841888,1.8252720473483208,-0.5471671154772911,-0.23841370093124442,1.4974233565291808,-0.5461714991711535,-2.0966286060127053,-0.8437338621321308,0.17907057834989626,0.1134293851099047,-1.2629029012407245,-0.44273265341201457,-1.8753680965488448,-1.062454152657697,-0.5241774536757381,-0.24745169605179718,0.000100246057057972,-1.1011718411875833,0.6146598883448973,1.8919269894674147,0.11413097891387389,-0.3130911813922096,-0.4543698895689616
0.006861931885070305,-0.37446922570956825,-0.5717875864272826,0.05566841906008423,0.8372375981527214,2.413855905760507,0.3226986190510095,0.19659893162429604,-0.11633236382825175,-0.15824543168292493,-0.8532879772967199,-2.004906021081568,0.8958451732350493,-1.1356729612909122,-0.5160358494423269,-0.5980632938300353,-0.017931764496569108,0.5104788156275231,-0.9436825509883513,-0.3500881859119154,0.20216814390683197,0.3604955443341446,-0.014433714797944962,0.815521596507445,-0.8973252803001328,1.1804476779617015,0.47692586112463375,1.0609172322181697,0.13505760432929598,1.0275189517372594,-0.6832005392901992,1.669042463032066,1.0890643971083576,-0.7661452066340081,-0.05934308542724224,-0.03578731944690178,-0.13998569325650487,-0.5963470894560072,0.15340176067837866,0.1795091933932539,-0.2689941245172698,-0.999807484752232,0.1137936354587591,1.5709435786563615,-0.8984714795543631,1.198038790546107,-0.6766500681806744,-1.0073352717822113,-2.8577810597386257,-2.480905518814783,0.03408597556484404,-1.464500791119558,0.6367489298354108,-0.5138508696941522,2.034265930636965,-0.8644059270913428,2.1055912402645838,-0.2929852096784837,0.12987581370541537,0.004388594198909282,1.8215418583295124,2.4977104319501464,0.050814103188688904,1.0639912641225204,-0.7138931862640485,-0.1742799450820307,-0.23769628824867606,-0.4166328536453782,-2.187974610464088,0.6874383841984502,0.5343159878893412,1.0890799343041344,-1.230363160330563,-0.24791015553218826,0.6395878405116977,-0.4940444188032235,-0.5348098813499342,2.114130750863606,0.23286660683912996,-0.6416630632851186,0.6053871695145346,-1.631717871178586,-0.5599669360110793,-1.8355863355174515,-0.7091080235299642,-1.164340429367162,1.8107784497970238,-0.9886118280698657,0.47641125215276153,0.014520963055754664,-1.220296369928945,-0.4099885813459836,0.7449403055911752,-0.6765162348127269,-0.5666089063550339,0.2496077159392881,1.2718340829227937,0.43309651997412646,-0.3823999776780012,-0.12828835754669304
0.7103215411475892,0.09131967211621908,-0.2871187056018659,-0.3512859629532724,-0.39627918128932615,-0.4549039683407135,-0.7059893186561897,-1.3698021939049707,-0.596709445935547,-1.5029552945175704,-2.1215506746706843,-0.2948500140398766,-0.5690432824226722,0.4543291009149637,0.6935826770020135,-1.5636467691819196,-1.221220230988797,0.4152052925766257,0.8009415518254497,-0.02139798287765784,-1.9500778443137805,-1.1555761023872866,-0.019837650138421845,1.0074437404486745,-2.0637797870643975,-1.1035331239449166,0.8159633172222595,0.7497719268488454,1.1744474148389727,-0.859999099057494,0.31339993690223916,1.0452337187200793,2.0150139682711297,-1.4530854597733676,-0.15437869555589792,2.2238713285265352,-1.5415635624302593,0.1550290723901699,-0.460036133236477,-0.13324030699753922,0.14020461977563822,1.1240462710543822,0.5030431298446344,0.3184715223578114,0.38023120930332516,1.9182869052075955,-0.041861192956611275,-1.092441902647091,-1.0147005965037539,0.2908336308535381,-0.8695482601580936,0.9384530111749475,-1.4437627142775247,0.015192890919062903,1.268316294529376,-1.1395589617050452,-0.09584064976367278,-1.1134729987513015,0.27507632104367397,0.7067194553817823,0.4643732847753769,-0.8040007046719324,0.8175486625920279,0.10436574687233093,-0.9271862866692488,1.8347550015829883,-0.8782656095686132,-0.22013754509579933,-0.3558642793470923,-1.4634635091124122,0.7720809670612443,0.9120509777748668,-1.4770881386631014,0.7599194565747645,1.8408222285714941,0.7538226006925204,0.7339753806626589,-0.6835191043638723,-0.7083873556753082,0.2123201262010398,-0.41329812559783335,-1.254618598604152,2.166819307990826,1.0234598545732452,0.33920144576424216,-0.024229039462007263,-1.2591224935823817,-0.6340763865735963,-0.016061349383684444,-1.1947076277272233,-0.6785227919496597,1.046040238090946,0.19311375766764352,0.9791360007634439,-0.09831789395880412,0.7799232778101953,-0.5257756700103636,0.10297251371595272,-0.9112412099910535,2.3572568003062524
0.7122109340717994,-1.6781690581433253,-0.2670571812895442,0.14375351898552172,0.8424078756877359,-0.6026212418392888,0.423055081658532,0.12447465087068348,0.18651227077911242,0.8981585139765519,-0.6338856991176305,-0.375970919293886,0.6147121933888556,-0.8473464263060474,-1.6213652277837076,-1.6086372964733338,-0.5000547278252845,-0.7579215143045953,1.4653787221338856,-0.9147218638775304,0.7310199179060268,-2.0827546833280883,-0.2582654442106004,0.727924604749602,-0.22998911703743793,0.7530927349388231,0.2418835783311265,1.622222383813818,-1.2210920741485363,-1.1314941316392688,-0.8523321550670181,-1.4054669613736024,0.30646835788074756,2.027594243968977,0.6796183481022923,0.9956208951765767,-0.1764454478182816,0.00852834348652336,-1.5327650592438102,1.4228593568574741,-0.7153714787029049,-0.7932684453287546,0.6053551742966866,0.9046461917998,0.10918319041965124,1.9652616104698792,-1.2783577569204498,-0.881858455678542,0.4926067530404162,-0.5474465242604805,-1.9770134085063542,-2.9455166278882445,0.251498939238387,-0.9406801157647636,-0.38439365569071154,-1.131236938566085,0.8735158842505488,-1.0565308835762663,-0.8431726167743481,-0.40811786562277363,-0.976650893548202,0.059703718997729895,-0.09307539475938821,0.568302583441668,0.6299504233229233,-0.07387079035279097,0.46621202127922223,1.0117701718874894,-1.4986724456154914,-0.433796901308538,0.06343268868134828,-0.7826547088732443,0.46095407425128565,-0.43816028352413616,-0.22822084239472948,-1.1846123628666565,-0.9417803768587585,-0.3107340548829913,0.544366415473526,1.7088353768399482,0.4125252245603507,-0.5431949210738412,-0.2598531131846216,1.143426491594034,-0.9282354594942316,-0.6608362187352445,-0.048484605762886795,0.389246877438435,-1.5066331478003605,0.34748597201550013,-1.8641472163788533,1.132078472014884,-1.3400444119870365,1.743036129223579,-0.7848090803687255,-0.9044928809512511,2.1170722453726887,0.1645108246481563,-1.2413609937640802,1.0056287368143488
-1.4969663304312066,-0.15703452892437353,0.3433324854159877,-0.830029202134557,-0.8577174480289981,-2.2669628019046906,-1.0409715934476105,0.39429477615462116,-0.6887756649526555,-0.9262131495734365,2.0354658838352755,-0.6683363027133753,-0.19925597840521475,-1.4754114686093527,-1.146540747516946,-0.5028820641614388,0.1147503594886454,1.1095827634789053,-1.78044622412641,0.3101913258479252,-0.6703650094635165,1.7973676507088008,-1.257256675017895,1.1803365323383272,0.2687934004961413,0.9908692165494708,-0.48518578512952104,1.2660201865330685,0.6705219262253803,1.3539763104477496,1.2853854694187192,0.22311804644025637,-0.6728867871277456,1.1918577045550462,-0.6549970151471582,-0.3538264537656713,-0.32002039668622234,-0.09085847123730303,0.052006954661530574,0.1337163636892909,0.7997544636698773,0.18169727372491468,0.36052581591081717,-1.6580278572745655,0.10110344003711746,1.0471629834262488,-0.1912299570706645,0.47797537320596833,0.37398846012400144,-0.23203875176701602,0.11082407421439525,-1.7290737216560452,0.14661221207827932,-0.7652644212582573,1.7732594380395432,1.3763490722212108,0.8462279363413577,-0.20660837459305734,0.05436201655720776,1.2403415317486306,-0.21119922873583888,-2.1558194754317235,-0.35364496384972904,-0.7386288955800223,1.7006969464789035,0.27809546715446043,0.6998332251226608,-0.3461143310456175,-0.9653502087410591,-1.4924252977690187,-1.0307523971502697,-0.7804152816086416,2.0811325153606,-0.7735750819497074,-0.4292102412896495,-0.38197076876043506,-1.654526591981855,-0.5458557253112484,0.8535990296746931,0.10426885413897426,0.2096936315037427,-0.8978013578921378,0.007355581547454697,-1.0589244600066199,0.5532981914037046,-0.006455165044699845,-1.0984747819444423,0.1359966692156719,0.024336432816135338,0.14937371500285238,0.15234009704962412,0.49351415446198393,-0.42858083619456716,-0.1429561573628464,0.12963194781426668,0.5349152600207048,-0.5373330734912777,-1.0934512157403162,1.3744044303144383,0.9918435300619269
0.24359387680711628,0.15700281821045384,-1.4801529327967897,0.7357499547435009,-2.134453767710354,0.04979561298427134,-0.051475662455865094,0.010429639512643517,-0.22742712480731891,0.1336941976734799,-0.8026317474896123,-2.0659112655097953,-2.2531670997357347,3.0844478350530413,-0.053760187834098805,-1.1280755399244737,-0.6024988901883775,0.6583693697629314,1.0920072383586248,1.1033318567293506,1.1956111120754784,1.2520331393460042,-0.6817694202888835,1.1212109100718712,-0.23054805240826687,1.0284165008021964,-1.0033413731076943,-0.1682011596154043,1.6187862875860957,1.1486577070066444,0.8185372166012983,-0.28869406443816165,1.0500984563973295,-0.16703674090780668,-0.7111384893663494,-1.169360391534388,0.08337651484971792,0.5669276495902439,0.3561889763922816,-0.5307669559150445,-0.3543588664394816,-0.7124525990193833,0.4400023745535685,1.6414302651759511,-2.16009099301889,2.072119806943384,-3.35107746230148,-0.2721194806547236,0.5092557320468727,-0.8431570455608425,1.640801537390513,0.4378234038488093,0.6332135763744957,1.0565068025911466,0.36020459167228835,-0.10385467126851355,1.7719433189768334,-1.1521080075388679,1.3269535935235686,-0.3497804607333943,-1.3534164360228522,0.24731963565807238,-0.27797917670245637,0.08407879459964315,-1.1063437522083217,0.0184311717272035,1.6667975314180696,-0.25973636652142046,-0.3582526549564721,0.65711535306577,-1.3885079869780508,-0.3040207441799223,0.5443344327396398,-1.0729128313081713,-0.9398740232779144,1.0947651160129444,-0.9828730042230257,0.8992465587387491,-0.47546508907671586,-2.4130464825686335,0.17633040418019913,-0.44953997267283285,0.8306481335081558,-0.8230527263843626,-1.5024745107559787,0.5057627023708082,0.4818442495994625,0.6345843702783192,-1.1464932662789689,-0.07592886119611546,-2.779800785453129,-0.2963996277792587,1.3681598438764782,-0.34697597368971106,-0.592227337129187,0.6053816357992516,-0.242201798376879,2.1977907676090536,-1.1307096051937096,2.1838607076869874
1.712678124676995,-1.5680876126638879,2.1982995335627744,-0.11660685003797143,-0.23486780915851552,0.4699598886519175,1.7399728975727875,0.5600928811964355,-0.5875768583195243,0.508810863858881,-0.012156781874792355,0.0997755580811235,0.13093128098423915,-0.8750325918426042,0.7361755355600826,-0.08951608637007695,-0.09342204914766011,0.1872071854649266,-0.45219986393277595,-1.105163632452652,-0.3664913202493492,0.2161516453268108,0.4072549955467701,-0.3092250999331839,-0.5322112544084326,-1.1532946095654477,-1.187068057082678,-0.12869152493809397,-0.5329382803877911,0.37470633904793976,-0.5806754125751058,0.745891436330756,0.41675629903728495,0.3728107609582287,-0.2863096917550062,-1.1089438202449031,-0.44813953585293764,0.27987646632867363,0.8719800151392036,1.3155011952621887,-0.772181916949926,0.461064188581359,1.1791526910346157,0.5076218756282548,-0.20492236114107076,1.5785855212045434,1.6323513666498854,-0.8004230326567119,0.47929150769044254,-2.171421046994208,-2.0133677936144934,0.0782989280208268,0.3844745464893698,0.3342471875828961,1.0730835145894244,0.5794127810380908,0.8617581694121794,0.3594253034422566,-0.4544612852680454,-0.34890434806496357,-1.436693190679849,-0.31117774337692616,-0.10183614471199134,1.8006740604594988,-2.0822338809574354,-1.3320721538560643,-1.5768040135072732,-1.0391407857943344,1.9364023870466065,0.4243140767688632,0.4699994888842625,2.2928598800933004,-1.4745586096083465,-1.0391993907132129,0.8729239323280651,1.7452873535846964,0.87773866596179,1.8081717238715636,-2.3982636250393465,1.1161339554436662,0.4389319672840989,-2.016054430464093,-0.9460081957884612,0.3940342976911193,0.0286263502207498,0.8839676482134844,0.4825757395531727,-0.5074286106436959,-0.10194072877348045,0.22709863225271845,-1.0035486806372553,0.8877741319435557,1.5868165392132714,-0.10577219188662575,-0.29941604184985304,-0.9454710867622241,0.5205959103160875,2.2703531216421857,-0.38670459142941305,-1.2824981156269777
-1.1773591158046377,-0.7366955889207126,-0.04103196440339669,0.003421945755702467,2.6244395137187078,1.006163794759717,-1.1139967671199187,0.38474695701210054,0.5366665739034169,-1.4245522358403013,0.8247257020222166,1.888156540831995,0.34081483938593865,-0.42420393535150913,-0.33397653205306826,0.4184241685374307,-0.3548920861983612,1.0791351120963297,-0.791600888268164,1.813444264129926,-0.6897964379791295,-0.16475200286467745,-1.3616570062703837,-0.0020315950966133716,-0.666620264121233,0.41115689415002216,-0.9407442147861231,-0.634222818692639,-1.5138191985864624,0.09703739170382808,1.3023135437486992,-0.3942120978181366,1.7297303084301323,1.8733333809797414,1.4419553588123972,-1.2001139609678304,-0.31976621863360505,-1.9565587139351075,0.38837043377374836,-0.9664202704341323,0.12428666551717134,0.8737869958982031,-0.4278190330025316,-0.3505791747597688,0.1858031711600958,-2.1876191305602757,0.8386135981620376,0.9458054091615449,-0.2922693597057714,1.2196438999545394,0.5287234577201266,-0.11134021351377789,-1.2549610513276332,0.3522627782999088,-0.6876819889512301,1.0429686917637593,-1.2324389002008804,-1.0719827699320734,-0.2235518101274561,0.2476064734723662,-0.7283757633282892,1.3369983909385936,-3.0184908250259523,0.662832635884726,0.24908510735214073,0.0009771707311537793,-0.6198180657142484,-1.1884798764924525,-0.01563998896637853,-1.3085396747482643,-0.06702845381840368,1.9644467360379754,1.1061914015115915,0.06703580552758968,0.9523816005218253,1.285350935764516,-0.8550957761499512,-0.85618404644535,-0.01530820693513887,-0.15637029200416172,-0.4961603311248816,0.051719208989263396,-1.4670847681068082,1.1908426851994671,-0.3358564614625241,-1.360689514190574,-0.5383174562891051,0.7766041079634478,-0.8928299594332828,0.6546878168946607,-0.8872147988042361,-0.1123689760667035,-1.9892759211189974,0.5971849866744676,-0.43791120805225037,1.6844782741939066,-0.19943163637628322,-0.25937012967189327,-0.8514458393725898,1.69060707083542
1.2430415653267335,1.2807920146353144,-0.10579530289724554,-1.5645662513468843,-1.44578419976053,0.8214543042347301,-0.654797109193423,-0.6093606673195157,-0.6717304735444362,-0.5300058068804592,0.19674881758828547,-0.7728148196516916,1.3587960369653014,-0.8673720783229084,-0.18118662274516537,0.15072217595682832,-0.7748811895507258,0.07190169767571546,0.1005229229843921,-0.4105727426334034,-1.320766409574611,1.9438449154675668,-0.07012673986997767,-3.0550986639317954,-0.7110062967996491,-0.3781664120788948,0.2667495927379964,0.05288090411189681,0.24615315953576788,1.2244997878583346,0.627377628060066,1.66303788369612,-0.9452889001197213,-0.4640932260936087,-0.6270334308059694,-0.9391799697756872,0.2967840168852411,-1.4388515059566793,1.5184343116076426,0.8724779720663363,0.3406907590024178,0.4110570649587597,0.5781734102362859,0.9940017332975689,0.18529319513004752,0.3273015157707616,-1.1533772777246782,0.051917558459972896,-1.6094103264757749,1.7153762353415658,1.4887408440317254,1.1127499647676475,-1.3409175361598078,2.122841162635468,1.4608913338167786,0.07188020253574354,-0.9473059425017478,1.7261911305523727,-1.1887850221334275,-1.1589669157703213,1.661104703733045,-0.34022402735190044,-0.15082845702009792,0.2085285436295257,0.223206880576159,1.0876204426615927,0.5497678947550777,0.2623661262998111,0.6382246959809134,0.5926948180064227,-0.43954622008098315,0.8488056067907919,-0.5833902490486471,1.3866812617589606,0.13694059602706257,1.4043698528816486,-0.6405038701957604,-0.531633584953587,0.03207436944015738,0.03360366776903856,-0.3387325217237277,-0.14506140395864814,-1.0087343152683397,1.0434733797875388,-1.1539610213509162,-0.634549832625539,1.0070457725276316,0.03439881260716498,-0.5649003519412087,1.250079808378405,-0.5076611358118648,-0.08648948470155358,0.2019015358940701,-0.7270955104278728,0.009672221769033889,0.5779949208696967,0.2491437073487522,0.3165220902521658,-0.7227653635323473,0.9878047945074454
-0.6361658876705556,0.36476833446016077,0.4614330640933969,-0.3272435168359283,-0.704346131993244,0.0433210131394956,2.1214005400484526,0.08660511169426274,-0.9587546265140968,0.15593128658065558,1.369383025774444,0.2929395875130583,0.4954371280528388,0.4905095176625883,-0.0517858574118279,1.2803691621276847,-0.06205515541912648,0.0052146752627201635,0.16128907710474677,-0.1579255333407808,1.2422947666541284,0.8230556280759482,-1.056980070773188,-0.01857342520723822,0.5468030803751774,0.05877344779298638,-2.0197609872578877,-1.1610357532928355,0.051825336007257104,-0.18815106374842072,0.4520763103887052,-0.08117944167814498,-0.2405646786049373,1.6969163510757685,2.1613409144885534,-1.8774711672087658,-0.35406483986810583,0.5328514495913932,0.773468154848822,-0.4747676014489878,1.267581981282953,-0.6742602225606398,1.4122555207655563,0.14065989614434257,0.7374394756987213,-0.0606708236126952,-0.7518599570325037,-0.33447109692547566,1.0992901386223308,0.20416452437245566,-0.23393515702693585,0.10036852906005352,1.3921451138430598,-1.0211442651785518,0.42940046426258527,2.1895766905454486,-1.2743979590477716,1.730938356426225,-0.2318571855857186,-0.4878105157381982,-0.7085412957549927,-1.6166388474598927,0.4976796797144485,-0.48055868375854366,0.3061343333992906,0.5097997441791214,-1.080456619082622,-0.9993661681889152,-2.003813708991923,0.181738200295572,1.5622111751475756,-0.888152837271521,-1.965390242455306,0.6951289598469568,0.19409507567245263,1.3844608346733887,0.08738178969001896,-0.4609371069024608,1.8488112892629618,-1.875553862387195,2.6863013942327787,-0.6250600473801983,1.1648130073028236,-0.03507344239958153,0.3662812309062618,0.4153693314238287,-0.621932498272356,0.40158158170967306,0.9735124218359221,-0.017042813431548398,-0.4730527005556997,-0.4344687620347048,-0.08540843975695189,0.3134319770004173,0.5959523843004526,0.6821584178647353,-1.9549993580879172,-1.05822510114026,0.46379199198934357,-0.996241878429122
-0.3812546067673795,-0.18875910644172572,-0.4767404097081958,0.8611163252070474,0.5577155467518149,-3.2687272589055127,0.848341187058514,-0.5514863345538354,1.5365538640507808,-0.9489025988841997,1.8348961091453124,0.4917896470548056,-0.7737910327992412,1.847583194873817,1.384097500272092,0.568223594913905,0.8784962262412676,0.26482174773028005,-0.7859278609468746,-0.09471744429391832,-0.15566911587395676,-2.340547479173962,0.7736447674474183,-0.671229242995827,0.18235959717427053,0.78483119045111,-0.14644377219871882,-0.8466219199456263,-0.052587395577399505,0.344039203111557,0.013599680279678273,2.032098640431698,1.287817695996847,0.07129520430461476,0.620437994847963,-0.8745750190350854,-0.7872863865898148,0.8385636733986215,0.10349912613054899,-1.707801195487773,-0.5653305241412565,-2.3478659268918043,2.540965346396658,-0.2893382831229986,1.486064294544213,0.23948835517529768,0.3106764554264977,0.29046591606995,-0.06997700600782684,0.04164408120198497,3.122695283061473,-0.9950326221377361,-0.9092056564125579,0.8913927460917591,1.1183074890311218,-0.04235287193550446,0.25045394046743075,0.1498481852623374,-0.1378529225440999,0.19929500006513412,0.7389959022603951,0.6406979198161308,0.933032987912268,1.6490139792341052,0.5325434188583803,0.36947783739315243,0.11995772355349821,0.5206991218098006,1.5577742590454091,-0.6074708493291228,-0.058872146315322435,0.4686416535427247,1.3245211860033466,-0.9611994093381815,-0.6498503567065335,-1.5197758247331674,-1.2804159734801843,-1.693250935034477,-0.35425695209972574,0.7916302754093788,-2.2172400103960603,-0.7150167520852277,0.7705084594016882,-0.38777902133668535,1.300076985465903,1.6194716866830523,1.5818719492331608,-1.1396706519643078,-0.09471332746100879,-0.045242551306070786,1.8172468035626,-2.214431636294099,-1.2509965402304022,-0.711216761836461,-0.5297903691680773,0.13039034138197367,2.650429546023316,-0.13280889895159875,-0.5525215421407778,0.2890302057662291
-0.08055270357694294,-0.7523231614581977,0.04133936144907404,0.366329935593208,0.5452822282194526,-1.3417068192868002,-0.45001318145073355,-0.5118687465314044,-0.6237312600616443,0.810460861542458,0.9261330970073895,0.1877296226566254,0.12044000796540805,0.3987262234850738,-0.06569070554765141,-0.31854603332734843,1.0681374003215494,1.4291073177410751,0.6074927282715398,0.36012813138707356,-0.6744325467724694,-0.5523508136448066,-0.51814701180337,-0.23616497371627385,-1.0822922039285916,0.6541178062086233,-1.2800144001126168,0.3083351469346485,1.9454617310822875,-1.0478455150983748,-0.16927852941965624,-0.32329608549704797,0.6392854885018833,-0.5623726783106561,0.8494849918887771,-0.8968513858880808,-0.8673221250127812,-2.426044501710429,1.7004168194054858,-0.7907631814487296,-0.6580233982163362,-1.8658048568148193,1.681377229266698,-1.7132435517508406,0.2793862754225503,-0.04814911070363172,0.8210009530133076,-0.33992540882229294,-1.0027337058294548,-0.705527996942159,-0.762189869342755,-0.24367335814746094,0.6638989792638671,-2.1225289261936475,-0.9591350005672653,1.4316829496387824,-0.615834616154854,-1.1362512449902165,-1.278822337626913,-0.49835302344626975,0.8033433618611101,-1.6331318527320828,0.4194317763080588,0.23027209017201158,0.27867084756412136,0.8809752666889885,0.6082816211048725,1.2525393182513986,0.8531196724200661,-0.34186062925863214,-0.5315886443999763,-0.9006392408662042,0.835529377421219,1.2699660749311394,0.8180187548494381,-0.13186240288782125,-0.7629759033809937,0.16480035956537764,-1.4339142448991922,0.2894932014692897,1.4512201601931185,-0.8108238058094537,0.9854395796260359,0.24997207173837144,-1.0127685443117111,0.42357623697233315,-0.4829428765420354,0.6976434909372953,1.9874539772271986,1.3679075927498714,1.2370532492939756,-0.8359290223943634,-0.3576711294940811,-1.4687007282415845,1.3527378931343037,2.0867644051969667,-0.6358217400545491,0.05782496392051702,0.37461195830113453,-0.18140457832329898
-0.10572394715750186,2.6235532818525233,-1.000461188922234,1.4958117449657646,0.7549988872567147,-2.9075437866599176,1.3351967147667747,1.1029404809735393,1.1390441704219314,-0.6165798835718064,0.8645725905258327,-1.136804996333694,-0.47371066001334694,0.9667624995488815,0.6060670861382248,1.2135775496227523,-1.931760722161924,0.9768398708953482,0.2182897486863202,0.22374787109485508,0.46656153353326163,0.5569500281930366,1.4721649591650683,-0.305653048396404,-0.6200346921005272,-0.4722274137627045,-1.2323708671641567,0.16726408749790952,-1.7086395664551342,-1.1268079244506903,-0.6596877706890287,0.06814942799434184,1.104703661493226,-0.9699595920257743,-1.3227733602008216,0.15192015623893107,1.0859641207300714,0.12040381653222774,-1.460003995574997,-0.6178137176890279,-0.549949683968015,0.412216532374722,-1.4633555003710998,-1.3584049963154357,0.17267997589567655,-0.8943384739730663,0.40911256160014364,-1.0106390186864185,0.2194772897766591,-0.07932095117999942,-0.5415419957620916,-0.8953953320277627,0.1759162390378183,3.2402909726781397,-0.45405621346965935,0.6805624895887292,-0.29035934101474037,-0.7688450864881318,-0.8718501536849613,0.07312049633877232,-1.0804166291218262,-0.13376912558934245,-1.3181321270572723,1.5008382251980188,0.5190972177052412,-0.4349456287300474,-0.8027669079806228,0.9037459098382621,0.7158523618324929,-0.34153078481004107,-0.9333049210297646,1.3967310182638333,-0.8665295016441062,-1.3636542521280925,-1.3682685607074048,-0.41045899213398135,-0.23144387587321172,0.059308537725158934,-0.8212188209811807,0.7034596498779621,-1.250741557220891,-1.2435226202750993,0.7953112735226007,0.3519358394664055,-1.0811977232765175,0.9960056219313215,-0.7776494980067573,-0.2720719181098596,-0.32817362166716296,-0.5927093368814567,-0.2828101338566945,-1.714007713243873,0.7502738560559987,0.8668473153782331,-0.6078471994021426,-0.17724570475442625,0.8448943271659579,1.0232651253520184,0.9973518963099963,0.11704014684572644
0.7001641806127743,0.7145150738413818,-2.2291686340725603,0.34364077818031696,1.5036228394799835,-0.7816418589772153,-0.17558210139311975,-0.596584639879906,0.23058053055751737,-1.0140285260687902,1.6481258119165714,-1.5049790312010256,-1.7553028090926701,0.22591000642936943,-1.476638398424886,-1.5833655072240638,-0.7778308165902942,1.022365076091378,0.4116953146756366,-1.7513087598228112,-0.034827044561144924,0.41862872865172857,0.20120228455014913,-0.2648073839362896,0.9153535451961424,0.05726504672726453,0.484225292996715,1.822477837496441,0.6345433863540085,2.1220447840704315,0.7554693252144123,-0.7695975282919196,-0.09731540212368507,0.10639736405453351,0.06614219800725901,-0.34938862596990966,1.5875287385305017,-0.20188205847034493,0.3487955732726649,-0.9796603635850262,1.3719623288659197,-0.03327226693107232,-1.9380989985178045,1.8175810877601748,-0.3909484662166695,1.4339103158101612,0.835876501118561,-0.6592221113993493,-0.25291120993801497,-0.31326189669847354,0.4174538593466328,1.2785689591142244,-1.4206981306499646,-0.9003065254766601,1.0638475916704282,-0.2546425676471342,-0.07853756288109422,0.049345496493574836,-0.18205365387473074,0.7281184692809126,0.052829804381093984,-1.0331165571051568,1.7290365094281188,-0.6431066370578059,-0.1347868310274921,-0.07154810902264606,-0.9737808432425707,0.5183824136908055,0.5309593303258764,1.750366127714864,0.8674994968894066,-0.17006522665592294,0.11729691484226279,-0.9126576910248978,1.1077828472076785,0.5877303252486926,-0.8486613843772585,-0.10731227120901603,-0.8205322872587976,-1.049910486245972,-0.27083913891952477,-0.7043141254478302,-1.917770730173645,-0.9494293730066762,0.37464666644304145,-1.7713185960660696,1.0911171142769116,-1.3918682525581572,0.24408682505526055,-0.7653073554371113,0.5071438167066533,-1.2985917468267236,-1.9070357656358683,0.7143839084770495,1.0250930201947943,1.8175673367626848,-0.0005122473110757066,1.0207271110203515,0.07884653263917893,-0.16629404974923795
0.657252592847642,-0.2899029738396141,-1.7108828197716184,-2.6077864693663986,0.16699630062065604,-1.0773309668115802,-0.7921594662889615,-1.1163995872477568,-1.1168538387101483,-0.019326493751085617,0.08910365970491808,-0.11782375051675821,-0.8985725465158324,-0.9325411468659626,-0.5568250985256705,-1.2815627981922633,-1.344533431644706,0.40108866663233395,-0.6691105812145057,-0.40100063792444,-0.6734840883925461,-0.5315352185738694,-1.1183601572905715,-1.0516584939265095,0.7872991881939194,2.0763460119342234,0.8787412830259199,-1.1320616969233193,1.0641362711695779,1.6609413334089214,-0.02383341091388076,-0.5345024812421266,-0.9202367238968884,0.16965485466153538,0.7817616910032414,0.9760736390410519,-1.7872887625503138,-0.5628073414903466,-0.28989875203164434,-0.5700668858529029,-0.2972839876464749,-0.5909929208154064,2.8130637237417044,1.1590820864384228,-2.218789620353407,0.32423211982628536,0.7099901711894248,-0.47987452146698245,-0.1474472248118223,-0.7596327411233541,0.42105934628930225,-0.41964414088521995,-0.8395420551928604,-0.7586575163921483,1.6846404068076806,2.0044047556952647,-0.14376116019504692,1.5801330552581225,0.7844458834025847,-1.0544600336061722,0.36602425716601955,0.6622432197653326,1.3558915128378233,0.6972703578099881,-0.5909480621705937,-0.5106897082227055,-0.30504894717721664,0.6879413463373426,1.1691329353128725,2.6429986395149005,-1.989938999084637,-0.3893439500893834,0.8744566445809924,-0.7875182151122717,-0.23298880419648751,0.6264663900734392,-1.0368622920032449,0.30886383160639236,-2.624791528886394,0.3168588015355872,-0.02067797610447061,-0.16837143632982593,-0.06503396720474343,0.3413610468361213,0.09173641533988323,-1.145466164015013,0.7553927000799512,1.305435810547905,-1.5354404916540711,0.49993363591254436,0.7954613794090644,0.7279392010515598,2.751537188352894,1.3953767823426513,0.5854681092451816,-0.8523291972479341,-0.7698778276794698,1.9051127190635802,-0.5655864369983277,1.5817291702574754
0.3007203579087717,0.8111089902948848,0.43069379716897704,0.5217219176677865,0.7233009412262363,1.1552797445999576,-0.47380338997254634,-2.1340069320169857,0.10172809974265469,-0.9416642217348513,-0.4938927717467524,-1.3828976440667518,0.5337984881269087,-0.7065270366012457,-0.7740919975744247,-0.7852214940588759,0.20929329956548032,1.9708385027770674,-0.2775976263314898,-0.8232860155193849,-0.41446885293469976,-0.5961249400438023,1.4716809975905216,-0.26398568533209643,0.32125284135918475,-1.581479547411128,0.4169592624062516,-0.9792617164329415,-2.093745630233828,-1.1426614255453444,1.497432390993791,-0.17755831116107038,-0.7240138979003817,1.8372820011899258,0.6588887513963619,-0.03639097182005069,0.9160564733912525,-0.7499383093322032,0.10489577664772694,0.45766260164833117,0.2728028225140018,-1.9214983303248883,-0.22066726556275726,0.0063255761678509305,-0.18149681960884223,0.051858904586862875,-0.6877172759319382,0.6961064522112732,-1.6116735954742758,1.0253632419026573,0.2565657698335941,0.6786630857341495,0.9383601165428642,1.3723034967248529,-0.9434341463897626,-0.8610206828298803,2.0561052594635028,0.4387589838282011,1.727445603870919,0.8610655643385187,-0.1735974710559963,0.3994198430807538,0.18410492281721538,0.3985356260864959,-1.8034309406386384,-0.3500436023481506,1.019859752072617,-1.3571913020123685,-0.012872545150206813,-0.4171971155862432,-0.3960701091851142,0.36153383346528617,-0.6847419384111305,0.7425207505701447,-0.09756915840535686,-1.1626127870367247,1.14722370820656,2.0038460085957834,0.18823783362338406,-1.2055991668495367,0.9350662830775299,-0.2847443733837078,0.3396090740115725,0.04554019687331902,-2.347221640318367,-0.851339404235653,0.6673687932800243,0.6178659077870509,-0.09982658199864929,0.09346357941765475,1.0689213365409729,-0.732969380214547,-0.18498736670314964,1.3729093365735057,1.2193533664720597,0.8925902871717616,0.7276553083349838,0.38652083263453824,0.8384670646515237,-2.162538884062809
-0.12972391719680537,0.5606237079657485,-0.677081619537206,-1.0370623806038224,-0.2719454935150171,-1.3860925872534564,-0.18989866132967428,-0.48016683661863896,0.5301568448646634,-1.1431001855242513,0.15115064380837268,-1.6931749627267043,1.227882969238798,-0.12498197401056498,-1.6408123403994326,1.4776367788848939,0.2259870800368288,0.5056199442710156,2.2008814173520044,1.700900475501841,0.17661796598832286,-1.3749029998029034,0.9542947495969044,-0.7596756944882275,-0.04112069166542112,1.3235547640325214,-0.4000025201662875,-1.6279904195591073,-0.520619706413008,-1.3095759258473154,-0.30708117475165403,-1.2825078835808497,-1.4120636353579217,-0.08407693683314045,-0.24598701347538598,-0.42712265658787235,-2.5279822670185,-0.4539980039257155,-0.5951670587656923,-0.10394238513905889,-0.558125621599662,-1.10785171329604,-0.13569601524213237,0.3872461297849612,-0.12768696961326156,-0.5725300601704345,0.1876292422552894,-0.252383101443686,-0.6841215023212628,1.4169292620321574,-2.3409635773636435,0.39442866692104306,-1.5681209954489213,2.265575120320187,-0.8584349814285245,0.347993405964776,-0.24951165420197322,-0.23443422336835953,0.1827275968045485,0.46187899656766646,-0.24724567223682545,-0.697404018723931,-0.15144887829371512,-0.6580414445156223,-0.9060797719030332,1.298213498214187,1.2345144024148007,1.3209942404624446,0.464747970014759,1.029085721348773,1.5892532758563447,-1.2616313966593524,0.1883229689927852,-1.2354715314741336,0.31125319450505884,-0.4138197218390325,2.5030367232827104,1.2026945978897794,0.8210995756799555,-0.1287691240673689,0.44849939026444025,0.060447369347593684,0.025656577749941113,0.011378440325386915,1.7452864865958866,0.07126572303541642,0.42337950623894455,0.5795854302144362,-0.9922071367582601,0.0006559759353090589,-0.639688959936565,-0.26158922491908343,0.19751194155200796,-0.6969020158201102,0.8298494915205186,-1.1209938501599275,-0.42857384401819837,-1.071660976280001,1.4987694170271562,-1.5570280172422664
-0.7900968820394316,0.114473528909967,-1.3009374464106476,0.6636664104980946,-0.4634784138523664,1.127044279760756,-1.1495828981071674,1.1975875789105543,-0.5524197138941935,-0.7985575291214007,-1.039770622292493,0.8283587815143318,1.5181998236177525,-0.08771782653680833,-0.6190600253215508,-1.5250830359033076,1.2036501950091492,-1.1349385001527006,0.9271687561596004,-1.359307564104025,-0.6222458531289269,0.06675430997114941,0.36887460186409415,-0.19555342171871284,0.540263460290287,0.37564938657748,0.2584180464794345,0.3175561449872423,1.122787791319969,-0.4423932313001622,0.8736703388701326,-1.0955420793350539,-0.4316932071423413,1.3608076478955329,1.2238565223557194,-0.3358714775409839,0.5296611616790173,-0.007068274921578835,0.045455094076161294,-0.5153525194611437,-1.5558662252114694,-0.7111313958652444,-0.5282073442297338,0.3093776405128138,-0.79090629881818,-0.9801178343737126,1.0599681870880198,-0.2830197690311181,-0.7781618335674592,-0.5124048307697553,-1.040303313118435,1.42908009899699,-0.9708242048164236,-0.5309947033325414,-0.06868351071409101,1.0147838940157203,-0.6863544701486353,-0.34935540513358093,-0.3485027953134146,0.00240064483614768,-1.9182127831988103,0.09627736712461332,2.569120840492806,-1.278172902375972,-1.638467510487811,-0.23316092916467995,1.0988538153590712,-0.08440030936140495,1.1214105810186323,0.9241042177533393,-1.7974601750459804,-0.8430923622319042,1.7582145518184868,0.15812026587352104,0.34183543200376904,1.221963990726047,-0.4370420223603437,1.2382156668669195,-0.40412221344100946,-1.0474611341565696,-0.0357733505006913,-0.4233193650656266,0.8358065956626474,0.8736582001774674,-1.1198116648092387,-1.0619617796696206,1.1995553294378434,1.8685658762901076,-0.6362836050374191,-0.4767604930507991,-0.6432848636502381,0.04975213562593302,0.22880834873049213,1.9620739540612313,2.002716757663313,0.2908005590040139,-0.20468516217543378,-0.28557203186598806,-1.7132918704265039,1.0401555335343744
-0.24060716676267352,-0.3653973862125723,-0.0413538834357096,1.548612757819209,0.864177157732046,-2.4138608526511587,-1.1813391937794537,-0.6837095890523761,-0.06293931622484164,1.1988814703175343,1.484234860652061,-0.3809293602803105,-2.5096134300415702,0.7030091349474802,0.22592033710554857,0.784312981495246,-1.3349621073619335,0.9698471146625203,-0.7175616387626182,0.4072157123840922,-0.03190359330741349,-0.508721685852729,0.834586734919931,0.7029396008595237,1.0752143603302402,-0.7700398715808842,1.184661676297027,1.0717485747062112,1.5074493942870617,0.26713091061910077,1.3354167299824538,-2.4555219486401554,0.17890463255147404,-0.4173423347356275,-1.062230611196316,-0.5070405600854768,-0.6902112819667425,0.20431234798161227,0.1476233710701087,-1.4379295623871953,1.1933282071102824,0.9443302233299293,-0.40153823026384733,1.0282451705228348,1.089286517389585,0.5043678966547835,-0.6163829418568149,1.5236303130288682,-0.0624525331613411,1.6910895273924835,-0.2019636575432719,0.411612714852456,0.35528306805044063,0.2394533806913324,-1.1342484808279625,-0.33175315513982523,0.30536317655173734,-1.268130342858622,-0.05726533442350933,0.5145546973737574,-0.3201457590057932,-0.14156598772818463,-1.5591090601509676,-1.1453031297383947,1.668690897742335,-0.48381282160587713,-0.19915187549274863,-1.4163746041014074,-0.8205791644473903,0.6174497281687963,-0.7149582709521602,-1.6269181427256842,1.5909725566073558,-1.0614319864326602,0.9805722110304408,-2.309402925977877,1.240613440841473,0.21244155507585694,1.4286772161112131,0.10232806587871512,-0.7748558238764832,-1.0008210350652882,0.2624548103544977,0.046443925801410844,-0.5763373031738863,0.25074819671946824,0.19597755969772043,0.9485558919636949,-0.711124160176107,-0.953640952927875,0.7037156914144409,-0.31251215059055376,-0.42151821315900784,-0.7673902906082996,0.7661894873327733,-0.30342928961452587,0.5953292458634333,-0.41261432338466475,-0.5316094398287544,-0.7691779250245856
-0.7804190651122709,-1.0235558571575991,-0.8583484007854749,-0.09513576348595457,-0.03836696516792305,-0.22263327663537139,-1.8650030865804863,-0.9767647825920176,0.4965648195368344,1.241576606878499,0.34351960138808824,0.272881894019383,-2.1092720095609305,-1.1385622964186994,-0.716292208122901,-0.1403687513843088,-1.0602733812556853,0.5420666609158507,-0.6816631429135454,-0.6793043112765502,-0.5437996966837331,0.3228594047549468,1.8386994393060252,0.45702569914670077,-0.37144937651340454,-0.28956277066180724,0.4655904288099625,1.0064527331697912,-0.011802576818903671,1.6759511573104497,1.1991968371297645,1.1727020946552504,0.950805767783968,-0.3937480854489246,-1.5778921130475985,0.24346006617807636,-0.5846780403195709,-0.7178102570936431,-1.2796279479482215,-2.418043524807945,0.9824947792302443,-0.6040520592506687,-0.1120681726646372,-0.18153537475984155,-1.1162376390833837,-0.12513080136946558,0.5087303035006813,0.8155381062045297,-0.20156535068215026,-0.7171528715178311,1.297714008642637,-0.947054574098763,0.46795528631744465,0.7739846415084334,-0.5003951867278011,0.5298254864090538,-1.2049070754592408,0.701976278321182,-0.3545778101618881,-0.6964251405641428,-0.026425508863498818,-0.10139941397318575,-1.174972237649755,1.3640619519993453,-0.3634202499832941,-0.8708377472864051,-0.2874070120683116,1.5232414502337743,0.14490820014037645,-1.255633402281803,0.4869319989186627,-0.6553782804914796,-1.4285596660312687,0.7305492852603438,0.6908719250159423,0.7823836570167906,-0.9485184961265556,-0.13012535079214133,-0.11190664767260174,0.5079924146841607,-0.8017843681913454,0.7054183932916792,1.2134372236781756,-0.3283944209438962,0.017008718316587124,-3.051023746382031,-0.34638784247422855,-1.5186880938057579,-1.3156732265306121,-1.2134582083862848,2.29635829779529,0.3701717709077158,1.1182254868083885,-1.3446475586104105,-0.026182238273218607,1.7884054456244762,0.201364990231862,-0.01229142160533008,-0.37997012096913346,-1.3994691211461177
-2.0001976691765906,-0.5969785405880557,-1.1245023440574269,1.7537185917278761,1.5008268981254729,0.7148173824711654,0.4779256999449582,-0.9035512895492015,0.053586079560109204,-0.5212847811726384,-2.93495619678163,-0.9025258273629116,0.5665151009150523,0.7300626934283895,0.08752983639600062,0.08947006219585435,-1.4549202706413862,-0.8590700598605924,-0.5420351696470265,0.638578734772118,-0.9274374145586869,-0.8193560204535665,-0.6025281605773481,-2.1343124191302514,0.609624489721001,-0.8773904392115189,-0.9143815936712251,-0.9569147874903271,0.6231407994550652,0.7984898698985594,0.05482033251476497,-0.20587188268182433,-1.5635564434649616,-0.08399326812131826,-0.3113516613458886,0.8327125531383714,0.1689903214835502,-0.6401370500718291,0.8022784101139767,0.6300515725421082,0.2911738196302766,2.0038724894243596,-0.2510546195299968,0.0758777434965505,-0.21027787278939522,0.1898554388175602,-0.9136453196920137,-0.5627859976027648,1.430456060523816,0.12460536168620043,0.8942404367721994,0.07948225991033245,-2.33561721192755,1.4632614372845996,1.5003085265731233,-0.2294867837005991,1.3721717174310146,-0.7953718340172576,-0.2732410957013828,-0.9376389665693853,0.32564816591353185,0.8465156164361018,0.8165918528105051,-0.21102906150870518,0.6174870447769412,-1.048212184047863,-0.3825175819520418,-0.456963944378291,0.8736612887681592,1.9429100415327811,-0.3554387282819052,-1.9266640850130907,0.34299540493216635,-1.1281865050873054,-0.8774315941754406,-0.3204669053893996,2.9689153052606203,-0.452645590023288,1.2065566234084568,0.1546588606543157,-1.5328224586381796,1.0080529109528011,0.27898119890172535,0.6664016080166685,0.016445619892678797,1.4309635365668494,-0.661345035790464,-1.4048555741201798,1.100786241622752,0.01109856404230345,-0.24621599345026882,-0.1256748276473849,0.4107403937960861,-0.17049454874620376,-0.21292380730887633,-0.07471425715329492,1.2619210675055463,2.2224615593510193,-1.4987610011329033,0.5714137402645961
-1.3341314241571285,1.6627719169511572,-2.638216105309594,1.408039125612582,0.207609834224588,-0.5344881935139955,1.9250528331193528,-0.6251101723166206,0.168399143928016,0.7705813634860953,-0.02152949765582877,1.40875774965645,0.5563293134731442,0.23705582374461398,-1.5190240710211964,1.2331294381695102,1.3620013492065293,0.7348662622850414,1.0780780939881514,0.16837923677896435,-0.2043948423293133,1.0439845395924008,0.1563522223881214,-1.2699218004575834,0.055826396400977474,-0.2384128267626526,0.15446252933058868,1.3783067699761127,-0.5598846239537317,-1.7641091687333281,-0.2072250604782471,-1.7596193900400257,-1.1422597368450336,0.7924680117616585,-1.906524147570628,0.6085603586953001,-0.27832518092029923,1.2849938909771093,-0.03277258754372807,1.2870429548711577,0.3560613613637824,0.2767469368863702,1.9840765323981202,-2.2126287201710078,0.6390602230353698,0.831002391532793,-1.3938710383352024,-0.32629647702636133,0.7169116222256293,-0.5173062357569415,-0.027993427462182415,-0.2473784801716007,-1.7057649348289177,-0.7136365135746654,0.5711532201692541,-0.7432550569881152,0.09528799229936741,-1.4141191061291942,2.1198629100002564,1.406787052341886,0.06573126978623382,-0.23186907382623068,0.1825995259305888,-0.15865369821245479,1.1957073634195823,-1.32264802074628,0.7306590500126795,-0.08900298273843124,-2.953605222622506,-1.1158471997667456,-0.3816375877159251,2.056598952920171,-0.22424596777522907,-1.0587737132343384,1.622305590735286,0.8562203006684131,-0.20262618912431146,0.7632221156327018,0.31911505691047237,1.116762927257046,-0.8440102381226895,-0.16482134870207288,1.3170565017537748,1.499586285053764,0.5591799301798632,0.1473490630064001,0.8789188754011112,1.1162784663711527,0.3220262482771141,-0.5110864806613398,-1.92772066993629,1.0276510637011214,-0.1104598341532386,1.3985944218323356,0.3913710386821388,-0.26616704646352884,-2.135271286649371,0.12933343276787282,0.7235932460655362,1.5541658707915547
0.4074510400122368,-0.8487412450142312,0.35765142089092217,1.1835392650982106,-1.6544856190690889,0.2623657429660268,0.7244060273585058,-0.897570745088726,0.04579001591570555,1.4156913733010816,0.05000369241788573,-0.5968880306674732,-0.9696789709986745,0.8624622018906611,0.33580663941198935,-1.05345070098573,1.065570853073446,-2.0630913452925954,0.7174644805546062,-0.7606132247671098,0.13456702714642066,-0.654789694485808,1.7419886498151613,-1.076910610474982,1.781496822557218,-0.5759050390911623,-0.004128285077486659,-0.45732831220948117,0.6659841938114877,0.42078753896513243,0.3472183691774587,-0.48614382347767093,-0.7376259829974618,0.42728985145967463,0.34013599285665425,0.7381826989822413,0.3471882766854987,-0.5558845635592131,-0.2867137773537403,-1.2515867298951284,-0.15213951259244612,-0.09277234976858027,-0.5252596045906982,-1.7673210827328556,0.45635938007633475,0.1271673783876615,0.6663826249074284,-1.977881473436582,1.1314505524163778,1.2385157247182603,1.25596406686432,-0.38384983744509815,-0.49313482678072235,-1.6146593016148312,-0.21999111949635894,-0.04364882163308786,0.3219326180949104,1.7472412063864835,0.6895643400231568,0.07784138630205878,1.1373580246632422,0.34482034099694886,0.19500830462716529,0.583877879296275,0.6197245683010775,-1.2395893643233469,0.1730560658055318,-1.2164327445793133,1.683019531637119,0.8094563516576616,2.3092083065279234,0.9718471372678769,1.3772158159515246,-1.2232247999650143,-2.576474889959528,0.3497967195993083,0.09473673958939778,-0.9800926320911993,-0.2043152479088906,-0.07831677630495647,-0.04087527126180327,-0.7110567666150781,-0.9186890887492384,-0.6218636322411611,-1.4464374662603876,1.1567523394334165,-0.23769322361563758,-0.045819266947315015,1.3962180370836332,0.3875518302135723,0.8323159533171116,0.6073264859657914,0.46726634364962144,-1.2213739616384187,-1.047323663039475,0.020496679902575195,0.6464573004936579,0.06777309797225106,-0.3887113730703945,-0.659379160727839
-0.6607140426334835,-0.5244993180195093,-2.6144789032589335,-0.9215733797360336,1.0447390803693792,-1.7816945148853633,0.02455686030302349,1.5524322169967917,-0.07989100452656882,1.061320655096177,0.7469642581799555,-0.5756279301416043,2.6213939442308263,0.012217188523319572,-0.8944033502176671,1.0410105730367947,0.14121340456843803,-0.9838869562721231,-0.24286683098690184,0.3977947741393167,-2.525508628870031,0.7357308754306391,0.9346024024907027,-0.63676151550039,0.5546303624567505,-0.04918269442441746,0.4298417477017152,1.725900011811901,-0.3357143287226347,1.6714344388661801,-0.7274408060291371,0.9931341765097431,-0.005342204805659287,-0.04188760827967007,-0.9049243937819189,1.7849932024404895,0.8849833848393546,0.8510970112794541,2.819640255485479,-1.9460745854597616,0.7709219842339006,-0.9869800455308124,-0.7626098754832452,-0.5371585083841349,-2.2303689384187066,0.03706072052627496,0.5419383238280897,2.3514255243130187,0.2376581194329302,-0.6486593321531322,0.3914101117380008,-0.07867638928389047,-0.7918339503316327,-0.40623838359767733,-0.18222432925878676,0.8186399034949375,-0.5178147101326667,0.07464190589693202,-2.404821955821298,1.451107582592401,0.7180313058252665,1.0924745991020304,-1.3950626007209206,-0.15280093080469326,1.5474876676156712,-0.6290416976800657,0.7358268817085314,0.9871125474924579,-0.7514612255085482,0.1059295688761056,1.9905018978590887,-0.6953476096909009,0.5160501430458576,0.055968582318527214,0.33768011430993766,-0.3481353617865447,0.33050302237574736,-1.0224903054995191,1.0947701979778852,1.3183016432427328,-0.41771541545739516,0.8575827607762683,-0.5206459618397816,-2.2433030601850574,1.3946526583168886,0.7067482107603634,-2.3001185520313125,-0.6603077090083229,-0.24070769309081463,-0.7760007120572373,1.4791037296538634,-0.1264895504695204,0.5174774583354055,-0.06397725939839143,-0.20746937188629722,-0.07664244153042477,-0.0017005653207244056,0.1821939790701339,-1.622933430250862,0.09599364564062281
-1.2851240540085898,-0.9816770001342173,1.4337957074527643,0.1501505160699467,1.0808455293421093,0.14415325073775268,-0.6220135966647936,2.2123375811967896,1.7227300135203247,0.5784061045807847,0.8585999941871689,-0.6310099156441811,-0.6296869029006558,0.3173336476368489,1.803472955094567,1.4782571312510022,-0.28564955448126045,-0.8577360616136775,0.16290744664387172,0.1397276451044727,0.5853699215904182,-1.1375781632804673,2.231193729287873,-0.8312519055613525,-0.025299900804109637,-1.554028754446311,0.39141247225525416,1.3020630450593509,0.7974149432528574,0.5441930155583382,-0.9816954025610424,0.5083638650912005,-0.9826956500887174,-1.406370980071089,1.6957240640791862,-0.30216873239380215,-0.4493550023931876,-0.365926138612644,0.7923086059692109,0.9888094778986735,-0.09139257815548003,-0.3385356773516036,0.11315161068542676,-0.1204895321330425,-1.336300580627033,0.460543625700712,-0.02628565399227577,-2.4269850866895206,0.3349044107329583,-0.37099563675333286,-2.4651279037830944,0.4954174356040088,-0.2593607022389252,0.14002296256993116,-1.8112301718107298,-1.1311353940645452,0.6599992805707052,-0.05798990090418681,0.9132427400501847,-0.34274243215307687,0.3677500801650254,-0.7049083015918185,0.12222513262606108,0.12258625343821312,-0.35039137651848745,1.9412936288012053,0.13361772154213178,0.4280019927195319,0.7456346506058558,-1.2100588956751874,0.18464682615153527,-0.4321080433756688,1.6361612327847772,2.180967959746963,1.1827030441701236,0.7636252471629358,1.2713809269464589,0.31902113122383846,0.7609116434051696,0.9341232310551078,-0.63623048823206,-0.16790442798212027,-2.3806828265831412,0.4045079443287675,1.402580975399586,-1.0931308321592157,2.9034133379069544,0.05128568277159702,0.06880324454903583,-0.40357136755996015,0.2492748015055079,0.04684378111990543,-0.24352232183442826,0.6957849891020625,-0.09337999636137387,-2.072493504409349,-0.7084179959436222,1.0036488707519067,-0.8604303809977026,-0.8519982698138927
-0.7634746617687507,0.9947753493898063,0.20020052957732484,1.6971790284796633,-0.772502757502226,-0.5631565202779958,1.1268040938492554,0.955165786116245,-0.5101447397494452,0.5180521549319407,1.092626713328261,0.03955399048709037,-1.188128369156305,0.04181289866665121,0.5815345791231794,0.4815204471390855,-0.7824016100283852,-0.5439665874959337,-1.309747072388495,-0.7805911362528187,0.4305458041240933,1.2962182424558506,-0.887529344465188,0.17423304657073863,-0.9523111015770837,0.24632123207946335,-0.5702349013068778,0.05102574197250169,-1.7473285095839401,-1.227827600407658,-1.3287244429896568,-1.5670295107300363,-2.254215829433892,-1.5556579139457833,-1.4088400113551849,0.3707964238022349,-0.6823023671573625,-0.937548740816353,0.43142630450456254,-0.9183219566100587,0.5557673029110538,-0.5741517136828949,-0.9252328963310595,-0.22486208680475409,-1.4485600684619495,-1.9119223149993374,-0.4121928245090875,-1.0868174076448145,0.1424656690993448,0.42183629758964863,-0.41751846499151934,-0.1684098084440367,-0.16850735011653312,-0.45391279593243244,-1.3510705055600414,-0.07492443742800295,-0.9839478758760632,0.7163446639929096,0.7778244773136321,1.1962886554940453,1.5430605174027598,0.33865064910988135,1.4635592587168327,1.479169255232979,-1.0984398346739792,-0.7247904499692391,-0.45219122554692115,1.1567201694446874,0.39851467882411373,0.987404024374525,0.9272855497098333,1.2780596916592681,-1.4499596780360884,-0.1557693834767268,-0.025841952866792858,2.4086695189702003,1.1311473555448706,-0.8087127388437776,-0.2624950276796225,0.21978985510159035,0.5698149225848493,-0.7588418263227257,0.32701737713745777,-1.3484392135103933,0.63418144147064,1.8811700786281018,-0.05250906064458744,1.790238347663859,0.1029340438003489,-0.14798093254129993,-0.39724651054573035,0.7965858103030528,-0.37176302370218667,-2.065586649230965,-0.8265828423900746,-0.20845792385890632,-1.6846145621938455,1.4492094496149324,0.14989091611347485,-1.1802477596584118
2.359431494407423,-0.009583180810777253,0.9755378975859075,0.2925594235566029,-1.8552719742177481,1.744660867117417,-1.7675340932017092,0.19744672323011703,-0.8760464480254228,0.17696245995826262,-1.2576551050826643,-0.4275450569407024,1.1537737862161888,0.5858268208122567,-0.2472039992558608,2.2357016226952493,-0.09535482655696557,0.38464924408589596,1.6081852669326977,1.4561391782602235,-0.5386901562437021,-0.3694392220937722,0.17632586412997267,-1.6477833098431631,1.5373669840535487,-0.7055983535950114,-1.388025793308405,0.1261941659038314,-2.1361331458095907,0.5908262881731887,-1.0181978809617693,-0.2358160175467804,0.8460139243522956,-0.028807226886045745,0.42897978385541347,1.3831387720204196,0.2718806578529675,-2.962595800973701,-0.5620660268062326,0.13536815943375563,2.3229686377009986,0.809089840703505,-0.8773271874760803,-0.6247660356762096,0.7703846886852487,0.622517447091044,-0.2399605121704742,-0.22316088081594707,-0.028182347522031845,0.25386715233284246,-1.131912373435613,0.42691596964006473,-0.15535269833101498,1.061505371749963,1.180236300769802,1.1887560685754948,-0.7611148726617797,1.1700083168517466,0.6776751772210451,1.3380313015446004,-0.21454097828561816,1.271219208182341,0.16187322569575766,0.7967835201099004,-0.3298614367951202,-0.5964980550285068,-0.41772309238522026,1.4430630045297563,1.4972400255169402,-0.12015129305272897,-0.031824506361121926,-1.179903208495438,0.15393779619608908,0.9953581349153192,-0.42696188732847923,0.5236178390254015,0.05823188669939821,-0.03474635220825858,1.4798050039706407,-1.8587560641803929,-1.3059913109402632,1.5390052745893308,0.014176839501763983,-1.331834403251799,-0.21683477511524601,-0.8830786973961826,-0.1491095962671354,-0.660502238233089,0.40800164295480906,-0.5711410931654461,-0.021811210711620174,0.10585671209899031,1.4741644409627126,0.0753002190891133,0.932645663705679,0.24833956115620393,-1.397133893797224,-0.190170579782818,1.2056803316360818,-0.10174827225636887
